#pragma once
#include <math.h>
namespace Eloquent {
    namespace ML {
        namespace Port {
            class SVM {
                public:
                    /**
                    * Predict class for features vector
                    */
                    int* predict(float *x) {
                        float kernels[144] = { 0 };
                        float decisions[3] = { 0 };
                        int votes[3] = { 0 };
                        kernels[0] = compute_kernel(x,   0.09693877551  , 0.09693877551  , 0.0  , 0.3065473242  , 0.09693877551  , 0.082262210797  , 0.082262210797  , 0.0  , 0.260135951479  , 0.082262210797  , 0.025641025641  , 0.025641025641  , 0.0  , 0.081084042568  , 0.025641025641  , 0.128865979381  , 0.139175257732  , 0.003489707218  , 0.419865849145  , 0.132731958763  , 0.000975305271  , 0.001209378535  , 7.4020466e-05  , 0.003756938694  , 0.001185971209  , 0.000511989078  , 0.001535967233  , 0.000323810324  , 0.004636258284  , 0.001433569417  , 0.025089605735  , 0.02688172043  , 0.000944527378  , 0.0822227222  , 0.025985663082 );
                        kernels[1] = compute_kernel(x,   0.091836734694  , 0.091836734694  , 0.0  , 0.290413254505  , 0.091836734694  , 0.077120822622  , 0.07969151671  , 0.001241763217  , 0.246344398109  , 0.077892030848  , 0.025641025641  , 0.025641025641  , 0.0  , 0.081084042568  , 0.025641025641  , 0.115979381443  , 0.118556701031  , 0.001244963638  , 0.369222957734  , 0.11675257732  , 0.000780244216  , 0.000780244216  , 0.0  , 0.002467348855  , 0.000780244216  , 0.0  , 0.0  , 0.0  , 0.0  , 0.0  , 0.025089605735  , 0.028673835125  , 0.001475398929  , 0.086820512644  , 0.027419354839 );
                        kernels[2] = compute_kernel(x,   0.045918367347  , 0.045918367347  , 0.0  , 0.145206627253  , 0.045918367347  , 0.041131105398  , 0.041131105398  , 0.0  , 0.13006797574  , 0.041131105398  , 0.010256410256  , 0.010256410256  , 0.0  , 0.032433617027  , 0.010256410256  , 0.139175257732  , 0.149484536082  , 0.003214482291  , 0.456513074818  , 0.144329896907  , 0.005812819412  , 0.00616392931  , 0.000111030698  , 0.018495779255  , 0.005847930402  , 0.019370253435  , 0.02039423159  , 0.000323810324  , 0.061585592026  , 0.01947265125  , 0.046594982079  , 0.046594982079  , 0.0  , 0.147346270904  , 0.046594982079 );
                        kernels[3] = compute_kernel(x,   0.066326530612  , 0.06887755102  , 0.001317341274  , 0.214619516493  , 0.067857142857  , 0.046272493573  , 0.048843187661  , 0.001083899798  , 0.152864460127  , 0.048329048843  , 0.0  , 0.002564102564  , 0.000810840426  , 0.002564102564  , 0.000256410256  , 0.10824742268  , 0.110824742268  , 0.001086693354  , 0.348843800323  , 0.110309278351  , 0.003199001287  , 0.003472086763  , 0.000141020733  , 0.010470109903  , 0.003308235478  , 0.010325113064  , 0.011263759706  , 0.000484715042  , 0.033869409349  , 0.010700571721  , 0.05376344086  , 0.055555555556  , 0.000925444049  , 0.172304162605  , 0.054480286738 );
                        kernels[4] = compute_kernel(x,   0.076530612245  , 0.079081632653  , 0.000806703485  , 0.249283124616  , 0.078826530612  , 0.056555269923  , 0.056555269923  , 0.0  , 0.178843466642  , 0.056555269923  , 0.010256410256  , 0.010256410256  , 0.0  , 0.032433617027  , 0.010256410256  , 0.126288659794  , 0.128865979381  , 0.001358366693  , 0.403455488465  , 0.127577319588  , 0.003433074552  , 0.003589123396  , 4.9346977e-05  , 0.010906686696  , 0.003448679437  , 0.011178428194  , 0.011690417271  , 0.000161905162  , 0.035514520522  , 0.011229627101  , 0.041218637993  , 0.043010752688  , 0.000925444049  , 0.133773889652  , 0.04229390681 );
                        kernels[5] = compute_kernel(x,   0.058673469388  , 0.061224489796  , 0.001317341274  , 0.190423036801  , 0.060204081633  , 0.048843187661  , 0.048843187661  , 0.0  , 0.154455721191  , 0.048843187661  , 0.002564102564  , 0.005128205128  , 0.001351400709  , 0.012820512821  , 0.003846153846  , 0.110824742268  , 0.113402061856  , 0.001330922112  , 0.353741221128  , 0.111855670103  , 0.003706160028  , 0.004135294347  , 0.000135704187  , 0.011862599155  , 0.00374907346  , 0.012202406349  , 0.013653042068  , 0.000458731293  , 0.03907037297  , 0.012347469921  , 0.051971326165  , 0.055555555556  , 0.001322338329  , 0.170627766239  , 0.05394265233 );
                        kernels[6] = compute_kernel(x,   0.045918367347  , 0.045918367347  , 0.0  , 0.145206627253  , 0.045918367347  , 0.033419023136  , 0.033419023136  , 0.0  , 0.105680230288  , 0.033419023136  , 0.007692307692  , 0.007692307692  , 0.0  , 0.024325212771  , 0.007692307692  , 0.090206185567  , 0.092783505155  , 0.001358366693  , 0.28936080197  , 0.091494845361  , 0.004564428666  , 0.004681465299  , 3.7010233e-05  , 0.014471426978  , 0.004576132329  , 0.015274340814  , 0.015615666866  , 0.000107936775  , 0.04841072647  , 0.015308473419  , 0.043010752688  , 0.044802867384  , 0.000925444049  , 0.13830667657  , 0.043727598566 );
                        kernels[7] = compute_kernel(x,   0.05612244898  , 0.05612244898  , 0.0  , 0.177474766642  , 0.05612244898  , 0.041131105398  , 0.041131105398  , 0.0  , 0.13006797574  , 0.041131105398  , 0.007692307692  , 0.010256410256  , 0.00132409687  , 0.029459295623  , 0.009230769231  , 0.092783505155  , 0.09793814433  , 0.001630040031  , 0.303226879657  , 0.09587628866  , 0.007256271213  , 0.007256271213  , 0.0  , 0.022946344353  , 0.007256271213  , 0.023551497568  , 0.023551497568  , 0.0  , 0.074476374623  , 0.023551497568  , 0.041218637993  , 0.043010752688  , 0.000566716427  , 0.135455895919  , 0.042831541219 );
                        kernels[8] = compute_kernel(x,   0.066326530612  , 0.066326530612  , 0.0  , 0.209742906032  , 0.066326530612  , 0.046272493573  , 0.046272493573  , 0.0  , 0.146326472707  , 0.046272493573  , 0.0  , 0.0  , 0.0  , 0.0  , 0.0  , 0.105670103093  , 0.110824742268  , 0.001463005702  , 0.341521590083  , 0.107989690722  , 0.003472086763  , 0.003823196661  , 0.000181312371  , 0.011436767453  , 0.003612530722  , 0.011263759706  , 0.0125437324  , 0.000660975057  , 0.0372909451  , 0.011775748784  , 0.055555555556  , 0.057347670251  , 0.000566716427  , 0.176257008544  , 0.055734767025 );
                        kernels[9] = compute_kernel(x,   0.043367346939  , 0.045918367347  , 0.001075604646  , 0.138790515395  , 0.04387755102  , 0.030848329049  , 0.030848329049  , 0.0  , 0.097550981805  , 0.030848329049  , 0.0  , 0.002564102564  , 0.001081120568  , 0.003626188621  , 0.000512820513  , 0.10824742268  , 0.110824742268  , 0.001358366693  , 0.346407476938  , 0.109536082474  , 0.004837514142  , 0.005188624039  , 0.000185051164  , 0.015862434002  , 0.005013069091  , 0.016212987456  , 0.017322297124  , 0.00058465753  , 0.053052942422  , 0.01676764229  , 0.05376344086  , 0.055555555556  , 0.000925444049  , 0.173437449275  , 0.054838709677 );
                        kernels[10] = compute_kernel(x,   0.05612244898  , 0.058673469388  , 0.001317341274  , 0.182357816333  , 0.057653061224  , 0.038560411311  , 0.041131105398  , 0.001327500718  , 0.126878793617  , 0.040102827763  , 0.0  , 0.0  , 0.0  , 0.0  , 0.0  , 0.095360824742  , 0.09793814433  , 0.001244963638  , 0.307285244504  , 0.097164948454  , 0.00378418445  , 0.003823196661  , 1.2336744e-05  , 0.012077729352  , 0.003819295439  , 0.012458400887  , 0.012629063913  , 5.3968387e-05  , 0.039882966923  , 0.012611997611  , 0.055555555556  , 0.055555555556  , 0.0  , 0.175682092232  , 0.055555555556 );
                        kernels[11] = compute_kernel(x,   0.048469387755  , 0.051020408163  , 0.001344505808  , 0.157358882789  , 0.049744897959  , 0.035989717224  , 0.038560411311  , 0.001327500718  , 0.117128902313  , 0.037017994859  , 0.007692307692  , 0.010256410256  , 0.001081120568  , 0.026148818018  , 0.008205128205  , 0.103092783505  , 0.105670103093  , 0.000815020016  , 0.3268321722  , 0.103350515464  , 0.005656770569  , 0.005656770569  , 0.0  , 0.0178882792  , 0.005656770569  , 0.018772932844  , 0.018772932844  , 0.0  , 0.059365226149  , 0.018772932844  , 0.041218637993  , 0.043010752688  , 0.000755621902  , 0.134897557466  , 0.042652329749 );
                        kernels[12] = compute_kernel(x,   0.025510204082  , 0.02806122449  , 0.001075604646  , 0.082347001998  , 0.026020408163  , 0.015424164524  , 0.015424164524  , 0.0  , 0.048775490902  , 0.015424164524  , 0.002564102564  , 0.005128205128  , 0.001238579209  , 0.011176663958  , 0.003333333333  , 0.118556701031  , 0.121134020619  , 0.001086693354  , 0.376553359801  , 0.119072164948  , 0.006319978153  , 0.006398002575  , 4.0291638e-05  , 0.020084583414  , 0.006351187922  , 0.020906220667  , 0.021076883693  , 8.8130008e-05  , 0.066327675072  , 0.020974485878  , 0.05376344086  , 0.057347670251  , 0.001017287119  , 0.175141967275  , 0.055376344086 );
                        kernels[13] = compute_kernel(x,   0.058673469388  , 0.058673469388  , 0.0  , 0.185541801489  , 0.058673469388  , 0.041131105398  , 0.041131105398  , 0.0  , 0.13006797574  , 0.041131105398  , 0.0  , 0.0  , 0.0  , 0.0  , 0.0  , 0.09793814433  , 0.103092783505  , 0.002104372631  , 0.317920493714  , 0.100515463918  , 0.003823196661  , 0.003862208871  , 1.2336744e-05  , 0.012201096221  , 0.00385830765  , 0.012629063913  , 0.012714395426  , 2.6984194e-05  , 0.040179545976  , 0.012705862275  , 0.05376344086  , 0.055555555556  , 0.000865673641  , 0.174001324682  , 0.055017921147 );
                        kernels[14] = compute_kernel(x,   0.785714285714  , 0.793367346939  , 0.002807410547  , 2.499988286103  , 0.79056122449  , 0.573264781491  , 0.580976863753  , 0.002362304842  , 1.827468800702  , 0.577892030848  , 0.210256410256  , 0.215384615385  , 0.002110955391  , 0.675459762578  , 0.21358974359  , 0.969072164948  , 0.974226804124  , 0.001739558138  , 3.066924758401  , 0.969845360825  , 0.083369094527  , 0.132173370265  , 0.020577689452  , 0.300903384813  , 0.093129949674  , 0.071934465398  , 0.090280740678  , 0.007735468862  , 0.240203586092  , 0.075603720454  , 0.030465949821  , 0.032258064516  , 0.000755621902  , 0.100900991113  , 0.031899641577 );
                        kernels[15] = compute_kernel(x,   0.038265306122  , 0.040816326531  , 0.001075604646  , 0.127499989792  , 0.040306122449  , 0.025706940874  , 0.025706940874  , 0.0  , 0.081292484837  , 0.025706940874  , 0.002564102564  , 0.005128205128  , 0.001238579209  , 0.011176663958  , 0.003333333333  , 0.113402061856  , 0.113402061856  , 0.0  , 0.358608806823  , 0.113402061856  , 0.004603440877  , 0.004642453088  , 1.6448992e-05  , 0.014656135275  , 0.004634650646  , 0.015359672327  , 0.015530335353  , 7.195785e-05  , 0.049003771257  , 0.015496202748  , 0.05376344086  , 0.055555555556  , 0.000566716427  , 0.175123628762  , 0.055376344086 );
                        kernels[16] = compute_kernel(x,   0.089285714286  , 0.091836734694  , 0.001232259927  , 0.284790324531  , 0.090051020408  , 0.077120822622  , 0.077120822622  , 0.0  , 0.243877454512  , 0.077120822622  , 0.025641025641  , 0.025641025641  , 0.0  , 0.081084042568  , 0.025641025641  , 0.113402061856  , 0.118556701031  , 0.001214960105  , 0.366777118087  , 0.115979381443  , 0.000702219795  , 0.000702219795  , 0.0  , 0.00222061397  , 0.000702219795  , 0.0  , 0.0  , 0.0  , 0.0  , 0.0  , 0.028673835125  , 0.028673835125  , 0.0  , 0.090674628249  , 0.028673835125 );
                        kernels[17] = compute_kernel(x,   0.025510204082  , 0.02806122449  , 0.001075604646  , 0.087183711687  , 0.027551020408  , 0.015424164524  , 0.015424164524  , 0.0  , 0.048775490902  , 0.015424164524  , 0.002564102564  , 0.005128205128  , 0.001238579209  , 0.011176663958  , 0.003333333333  , 0.113402061856  , 0.118556701031  , 0.00190171337  , 0.367618299251  , 0.116237113402  , 0.006319978153  , 0.006437014786  , 6.0437457e-05  , 0.020208400519  , 0.006390200133  , 0.020906220667  , 0.021247546719  , 0.000176260015  , 0.066760989356  , 0.021111016298  , 0.05376344086  , 0.055555555556  , 0.000925444049  , 0.173437449275  , 0.054838709677 );
                        kernels[18] = compute_kernel(x,   0.084183673469  , 0.086734693878  , 0.001344505808  , 0.270275766587  , 0.085459183673  , 0.071979434447  , 0.074550128535  , 0.000812924848  , 0.234947938838  , 0.074293059126  , 0.025641025641  , 0.025641025641  , 0.0  , 0.081084042568  , 0.025641025641  , 0.10824742268  , 0.110824742268  , 0.001330922112  , 0.347221484157  , 0.109793814433  , 0.000702219795  , 0.001521476222  , 0.00025907163  , 0.004618129674  , 0.001439550579  , 0.0  , 0.003071934465  , 0.000971430973  , 0.009215803396  , 0.002764741019  , 0.025089605735  , 0.028673835125  , 0.001133432853  , 0.08620798187  , 0.027240143369 );
                        kernels[19] = compute_kernel(x,   0.06887755102  , 0.06887755102  , 0.0  , 0.217809940879  , 0.06887755102  , 0.051413881748  , 0.051413881748  , 0.0  , 0.162584969674  , 0.051413881748  , 0.010256410256  , 0.010256410256  , 0.0  , 0.032433617027  , 0.010256410256  , 0.115979381443  , 0.118556701031  , 0.001086693354  , 0.373293402988  , 0.118041237113  , 0.003706160028  , 0.003901221082  , 9.4223441e-05  , 0.011908313603  , 0.003764678344  , 0.012202406349  , 0.012799726939  , 0.000288533257  , 0.039163632033  , 0.012381602526  , 0.041218637993  , 0.041218637993  , 0.0  , 0.130344778107  , 0.041218637993 );
                        kernels[20] = compute_kernel(x,   0.038265306122  , 0.038265306122  , 0.0  , 0.121005522711  , 0.038265306122  , 0.023136246787  , 0.025706940874  , 0.000812924848  , 0.080516502639  , 0.025449871465  , 0.002564102564  , 0.005128205128  , 0.000810840426  , 0.00924500327  , 0.002820512821  , 0.113402061856  , 0.115979381443  , 0.001086693354  , 0.360253598046  , 0.113917525773  , 0.004525416455  , 0.00475948972  , 9.8693954e-05  , 0.014461695528  , 0.004572231108  , 0.015018346275  , 0.015956992917  , 0.000395768174  , 0.048100489028  , 0.015206075604  , 0.05376344086  , 0.055555555556  , 0.000755621902  , 0.174563378665  , 0.055197132616 );
                        kernels[21] = compute_kernel(x,   0.053571428571  , 0.053571428571  , 0.0  , 0.169407731795  , 0.053571428571  , 0.038560411311  , 0.041131105398  , 0.000812924848  , 0.122775875951  , 0.03881748072  , 0.007692307692  , 0.010256410256  , 0.001238579209  , 0.027014496802  , 0.008461538462  , 0.092783505155  , 0.095360824742  , 0.001244963638  , 0.295875839649  , 0.093556701031  , 0.005734794991  , 0.006593063629  , 0.000361877832  , 0.020335280949  , 0.006421409901  , 0.019114258896  , 0.021674204284  , 0.001079367748  , 0.066999095792  , 0.021162215206  , 0.043010752688  , 0.043010752688  , 0.0  , 0.136011942373  , 0.043010752688 );
                        kernels[22] = compute_kernel(x,   0.073979591837  , 0.076530612245  , 0.001232259927  , 0.236393028429  , 0.074744897959  , 0.053984575835  , 0.053984575835  , 0.0  , 0.170714218158  , 0.053984575835  , 0.010256410256  , 0.010256410256  , 0.0  , 0.032433617027  , 0.010256410256  , 0.118556701031  , 0.121134020619  , 0.001086693354  , 0.381443298969  , 0.120618556701  , 0.003706160028  , 0.003706160028  , 0.0  , 0.011719907062  , 0.003706160028  , 0.012117074836  , 0.012202406349  , 3.5978925e-05  , 0.038371675257  , 0.012134141138  , 0.039426523297  , 0.043010752688  , 0.001133432853  , 0.131522172989  , 0.041577060932 );
                        kernels[23] = compute_kernel(x,   0.063775510204  , 0.063775510204  , 0.0  , 0.201675871184  , 0.063775510204  , 0.043701799486  , 0.046272493573  , 0.001241763217  , 0.140685329486  , 0.044473007712  , 0.0  , 0.0  , 0.0  , 0.0  , 0.0  , 0.100515463918  , 0.105670103093  , 0.001718213058  , 0.326048754657  , 0.103092783505  , 0.003472086763  , 0.003940233293  , 0.000226136258  , 0.012035124773  , 0.003799789334  , 0.011263759706  , 0.012970389965  , 0.000824380735  , 0.039474472246  , 0.012458400887  , 0.05376344086  , 0.057347670251  , 0.000844810969  , 0.175700372456  , 0.055555555556 );
                        kernels[24] = compute_kernel(x,   0.099489795918  , 0.102040816327  , 0.001317341274  , 0.317865741686  , 0.100510204082  , 0.084832904884  , 0.084832904884  , 0.0  , 0.268265199963  , 0.084832904884  , 0.025641025641  , 0.025641025641  , 0.0  , 0.081084042568  , 0.025641025641  , 0.144329896907  , 0.144329896907  , 0.0  , 0.456411208684  , 0.144329896907  , 0.000624195373  , 0.000702219795  , 3.2897985e-05  , 0.002025631801  , 0.000639800257  , 0.0  , 0.0  , 0.0  , 0.0  , 0.0  , 0.025089605735  , 0.02688172043  , 0.000865673641  , 0.081082050365  , 0.025627240143 );
                        kernels[25] = compute_kernel(x,   0.05612244898  , 0.063775510204  , 0.002233660806  , 0.186468947741  , 0.058928571429  , 0.043701799486  , 0.046272493573  , 0.000812924848  , 0.145533983082  , 0.046015424165  , 0.002564102564  , 0.005128205128  , 0.001238579209  , 0.011176663958  , 0.003333333333  , 0.105670103093  , 0.110824742268  , 0.001739558138  , 0.339903411036  , 0.107474226804  , 0.003628135606  , 0.003901221082  , 0.000115142947  , 0.011651008355  , 0.003682752702  , 0.01194641181  , 0.012885058452  , 0.000395768174  , 0.038389888039  , 0.012134141138  , 0.051971326165  , 0.05376344086  , 0.000755621902  , 0.168896708292  , 0.053405017921 );
                        kernels[26] = compute_kernel(x,   0.043367346939  , 0.043367346939  , 0.0  , 0.137139592405  , 0.043367346939  , 0.030848329049  , 0.033419023136  , 0.000812924848  , 0.098394134751  , 0.031105398458  , 0.007692307692  , 0.007692307692  , 0.0  , 0.024325212771  , 0.007692307692  , 0.092783505155  , 0.10824742268  , 0.005323688448  , 0.305235605029  , 0.096391752577  , 0.004369367612  , 0.00522763625  , 0.000414583139  , 0.014684146403  , 0.004626848203  , 0.014506357198  , 0.01749296015  , 0.001442666286  , 0.048898381962  , 0.015402338083  , 0.043010752688  , 0.044802867384  , 0.000755621902  , 0.140563953772  , 0.044444444444 );
                        kernels[27] = compute_kernel(x,   0.061224489796  , 0.061224489796  , 0.0  , 0.193608836337  , 0.061224489796  , 0.048843187661  , 0.051413881748  , 0.001327500718  , 0.157757696582  , 0.049871465296  , 0.002564102564  , 0.005128205128  , 0.001081120568  , 0.014951158705  , 0.004615384615  , 0.110824742268  , 0.115979381443  , 0.001822440158  , 0.362725113437  , 0.114690721649  , 0.004135294347  , 0.004564428666  , 0.000135704187  , 0.013218923673  , 0.004178207779  , 0.013653042068  , 0.015274340814  , 0.00051269968  , 0.043714477085  , 0.013815171943  , 0.05376344086  , 0.055555555556  , 0.000865673641  , 0.174001324682  , 0.055017921147 );
                        kernels[28] = compute_kernel(x,   0.045918367347  , 0.048469387755  , 0.001075604646  , 0.146855489435  , 0.046428571429  , 0.030848329049  , 0.033419023136  , 0.000812924848  , 0.10489565945  , 0.033161953728  , 0.0  , 0.0  , 0.0  , 0.0  , 0.0  , 0.113402061856  , 0.121134020619  , 0.002173386708  , 0.371706317058  , 0.117525773196  , 0.00475948972  , 0.004915538564  , 7.5378753e-05  , 0.015200551138  , 0.004806304373  , 0.015956992917  , 0.016383650482  , 0.000206095184  , 0.050868962739  , 0.016084990187  , 0.055555555556  , 0.055555555556  , 0.0  , 0.175682092232  , 0.055555555556 );
                        kernels[29] = compute_kernel(x,   0.043367346939  , 0.043367346939  , 0.0  , 0.137139592405  , 0.043367346939  , 0.028277634961  , 0.030848329049  , 0.001083899798  , 0.091105630574  , 0.028791773779  , 0.0  , 0.002564102564  , 0.001081120568  , 0.003626188621  , 0.000512820513  , 0.103092783505  , 0.105670103093  , 0.001330922112  , 0.330922214681  , 0.104639175258  , 0.00475948972  , 0.00522763625  , 0.000246734886  , 0.0158083717  , 0.004993562985  , 0.015871661405  , 0.01749296015  , 0.000854499467  , 0.052816346454  , 0.016682310777  , 0.05376344086  , 0.055555555556  , 0.000566716427  , 0.175123628762  , 0.055376344086 );
                        kernels[30] = compute_kernel(x,   0.086734693878  , 0.089285714286  , 0.001075604646  , 0.280751356984  , 0.088775510204  , 0.074550128535  , 0.077120822622  , 0.001327500718  , 0.240658709274  , 0.076092544987  , 0.025641025641  , 0.025641025641  , 0.0  , 0.081084042568  , 0.025641025641  , 0.10824742268  , 0.113402061856  , 0.001630040031  , 0.352122604229  , 0.111340206186  , 0.000819256427  , 0.000819256427  , 0.0  , 0.002590716298  , 0.000819256427  , 0.0  , 0.0  , 0.0  , 0.0  , 0.0  , 0.025089605735  , 0.028673835125  , 0.001209585229  , 0.086783512637  , 0.027419354839 );
                        kernels[31] = compute_kernel(x,   0.079081632653  , 0.081632653061  , 0.001075604646  , 0.251712171093  , 0.079591836735  , 0.056555269923  , 0.05912596401  , 0.001241763217  , 0.184571539001  , 0.058354755784  , 0.010256410256  , 0.010256410256  , 0.0  , 0.032433617027  , 0.010256410256  , 0.126288659794  , 0.128865979381  , 0.000815020016  , 0.406702337552  , 0.128608247423  , 0.003589123396  , 0.003940233293  , 0.000111030698  , 0.011465674823  , 0.003624234385  , 0.011690417271  , 0.012970389965  , 0.000404762906  , 0.037392829789  , 0.01181841454  , 0.041218637993  , 0.043010752688  , 0.000755621902  , 0.134897557466  , 0.042652329749 );
                        kernels[32] = compute_kernel(x,   0.043367346939  , 0.045918367347  , 0.001075604646  , 0.143629472043  , 0.045408163265  , 0.030848329049  , 0.030848329049  , 0.0  , 0.097550981805  , 0.030848329049  , 0.0  , 0.002564102564  , 0.001081120568  , 0.003626188621  , 0.000512820513  , 0.110824742268  , 0.113402061856  , 0.001086693354  , 0.356993652692  , 0.112886597938  , 0.004837514142  , 0.005266648461  , 0.000221604009  , 0.01585432441  , 0.00500916787  , 0.016212987456  , 0.017663623176  , 0.000749105065  , 0.053152423354  , 0.016793241744  , 0.05376344086  , 0.055555555556  , 0.000566716427  , 0.175123628762  , 0.055376344086 );
                        kernels[33] = compute_kernel(x,   0.035714285714  , 0.038265306122  , 0.001232259927  , 0.11541781659  , 0.036479591837  , 0.023136246787  , 0.023136246787  , 0.0  , 0.073163236354  , 0.023136246787  , 0.002564102564  , 0.005128205128  , 0.00132409687  , 0.012026707076  , 0.00358974359  , 0.115979381443  , 0.121134020619  , 0.001822440158  , 0.379023741612  , 0.119845360825  , 0.004915538564  , 0.00522763625  , 9.8693954e-05  , 0.016435210563  , 0.005196426481  , 0.016383650482  , 0.01749296015  , 0.000350794518  , 0.054976876016  , 0.017382029183  , 0.055555555556  , 0.057347670251  , 0.000755621902  , 0.176830055678  , 0.055913978495 );
                        kernels[34] = compute_kernel(x,   0.061224489796  , 0.063775510204  , 0.001075604646  , 0.200088485216  , 0.063265306122  , 0.051413881748  , 0.051413881748  , 0.0  , 0.162584969674  , 0.051413881748  , 0.002564102564  , 0.005128205128  , 0.000810840426  , 0.015596827001  , 0.004871794872  , 0.115979381443  , 0.121134020619  , 0.001214960105  , 0.374926924541  , 0.118556701031  , 0.004564428666  , 0.004564428666  , 0.0  , 0.014433990802  , 0.004564428666  , 0.015274340814  , 0.015274340814  , 0.0  , 0.04830170673  , 0.015274340814  , 0.051971326165  , 0.055555555556  , 0.001017287119  , 0.169475692215  , 0.053584229391 );
                        kernels[35] = compute_kernel(x,   0.079081632653  , 0.079081632653  , 0.0  , 0.250078080268  , 0.079081632653  , 0.06940874036  , 0.071979434447  , 0.001327500718  , 0.224402599926  , 0.070951156812  , 0.025641025641  , 0.025641025641  , 0.0  , 0.081084042568  , 0.025641025641  , 0.154639175258  , 0.164948453608  , 0.003531753401  , 0.504608636124  , 0.159536082474  , 0.006241953732  , 0.018413763508  , 0.005879542705  , 0.035915650687  , 0.009893496664  , 0.020650226129  , 0.039081832921  , 0.008903311936  , 0.086989607813  , 0.026179708166  , 0.028673835125  , 0.030465949821  , 0.000944527378  , 0.093551133592  , 0.029569892473 );
                        kernels[36] = compute_kernel(x,   0.045918367347  , 0.048469387755  , 0.001344505808  , 0.149294641718  , 0.047193877551  , 0.033419023136  , 0.035989717224  , 0.000812924848  , 0.113022868571  , 0.035732647815  , 0.007692307692  , 0.007692307692  , 0.0  , 0.024325212771  , 0.007692307692  , 0.095360824742  , 0.09793814433  , 0.001244963638  , 0.304025407841  , 0.096134020619  , 0.005032575196  , 0.005032575196  , 0.0  , 0.015914400116  , 0.005032575196  , 0.01689563956  , 0.01689563956  , 0.0  , 0.053428703534  , 0.01689563956  , 0.043010752688  , 0.044802867384  , 0.000566716427  , 0.136589240231  , 0.043189964158 );
                        kernels[37] = compute_kernel(x,   0.114795918367  , 0.117346938776  , 0.001317341274  , 0.367878017467  , 0.116326530612  , 0.095115681234  , 0.097686375321  , 0.001327500718  , 0.305685686297  , 0.096658097686  , 0.025641025641  , 0.025641025641  , 0.0  , 0.081084042568  , 0.025641025641  , 0.149484536082  , 0.15206185567  , 0.001330922112  , 0.477618418625  , 0.151030927835  , 0.001053329692  , 0.001170366325  , 6.0437457e-05  , 0.003557605622  , 0.001123551672  , 0.000767983616  , 0.001365304207  , 0.000308455027  , 0.003680153367  , 0.001126375971  , 0.023297491039  , 0.02688172043  , 0.001413639136  , 0.080585401993  , 0.025448028674 );
                        kernels[38] = compute_kernel(x,   0.079081632653  , 0.081632653061  , 0.000806703485  , 0.257349791209  , 0.08137755102  , 0.06940874036  , 0.071979434447  , 0.001327500718  , 0.224402599926  , 0.070951156812  , 0.025641025641  , 0.025641025641  , 0.0  , 0.081084042568  , 0.025641025641  , 0.103092783505  , 0.105670103093  , 0.001244963638  , 0.328474300576  , 0.103865979381  , 0.000858268638  , 0.001131354114  , 0.000115142947  , 0.002907391391  , 0.000912885733  , 0.0  , 0.001194641181  , 0.000503704949  , 0.00168947776  , 0.000238928236  , 0.028673835125  , 0.030465949821  , 0.000566716427  , 0.091257183201  , 0.028853046595 );
                        kernels[39] = compute_kernel(x,   0.112244897959  , 0.112244897959  , 0.0  , 0.354949533284  , 0.112244897959  , 0.092544987147  , 0.095115681234  , 0.001241763217  , 0.295115233377  , 0.093316195373  , 0.025641025641  , 0.028205128205  , 0.001081120568  , 0.082769294316  , 0.026153846154  , 0.15206185567  , 0.157216494845  , 0.001822440158  , 0.484967728332  , 0.153350515464  , 0.000702219795  , 0.000819256427  , 6.0437457e-05  , 0.002449395256  , 0.000772441774  , 0.0  , 0.0  , 0.0  , 0.0  , 0.0  , 0.025089605735  , 0.02688172043  , 0.000865673641  , 0.083347784618  , 0.026344086022 );
                        kernels[40] = compute_kernel(x,   0.025510204082  , 0.02806122449  , 0.000806703485  , 0.081512986269  , 0.025765306122  , 0.015424164524  , 0.015424164524  , 0.0  , 0.048775490902  , 0.015424164524  , 0.002564102564  , 0.005128205128  , 0.00132409687  , 0.013567955441  , 0.004102564103  , 0.121134020619  , 0.131443298969  , 0.003447148221  , 0.397049445664  , 0.125515463918  , 0.006319978153  , 0.006398002575  , 3.7689376e-05  , 0.020158557245  , 0.006374595248  , 0.020906220667  , 0.021076883693  , 8.2438073e-05  , 0.066489513243  , 0.021025684785  , 0.05376344086  , 0.055555555556  , 0.000755621902  , 0.174563378665  , 0.055197132616 );
                        kernels[41] = compute_kernel(x,   0.081632653061  , 0.084183673469  , 0.000806703485  , 0.258963127281  , 0.081887755102  , 0.06940874036  , 0.071979434447  , 0.000812924848  , 0.226819144008  , 0.071722365039  , 0.023076923077  , 0.025641025641  , 0.000810840426  , 0.080310050069  , 0.025384615385  , 0.103092783505  , 0.105670103093  , 0.001244963638  , 0.33173417196  , 0.104896907216  , 0.001131354114  , 0.001365427379  , 9.8693954e-05  , 0.003737443097  , 0.001178168767  , 0.001194641181  , 0.002303950849  , 0.000467726024  , 0.004694008888  , 0.001416503115  , 0.02688172043  , 0.028673835125  , 0.000944527378  , 0.08788673717  , 0.027777777778 );
                        kernels[42] = compute_kernel(x,   0.040816326531  , 0.040816326531  , 0.0  , 0.129072557558  , 0.040816326531  , 0.025706940874  , 0.028277634961  , 0.001241763217  , 0.087062695228  , 0.027506426735  , 0.002564102564  , 0.002564102564  , 0.0  , 0.008108404257  , 0.002564102564  , 0.10824742268  , 0.110824742268  , 0.001244963638  , 0.34803358752  , 0.110051546392  , 0.003940233293  , 0.00425233098  , 0.000150757505  , 0.013158744109  , 0.004158701674  , 0.013055721478  , 0.014165031146  , 0.000535847478  , 0.043770907479  , 0.013832238246  , 0.05376344086  , 0.055555555556  , 0.000566716427  , 0.175123628762  , 0.055376344086 );
                        kernels[43] = compute_kernel(x,   0.084183673469  , 0.084183673469  , 0.0  , 0.266212149963  , 0.084183673469  , 0.05912596401  , 0.061696658098  , 0.001327500718  , 0.191891594926  , 0.060668380463  , 0.010256410256  , 0.010256410256  , 0.0  , 0.032433617027  , 0.010256410256  , 0.126288659794  , 0.128865979381  , 0.000815020016  , 0.406702337552  , 0.128608247423  , 0.004174306558  , 0.004174306558  , 0.0  , 0.013200316375  , 0.004174306558  , 0.013909036607  , 0.013909036607  , 0.0  , 0.043984235737  , 0.013909036607  , 0.041218637993  , 0.043010752688  , 0.000865673641  , 0.134336898437  , 0.04247311828 );
                        kernels[44] = compute_kernel(x,   0.05612244898  , 0.058673469388  , 0.001075604646  , 0.183956697728  , 0.058163265306  , 0.041131105398  , 0.043701799486  , 0.000812924848  , 0.137405943598  , 0.043444730077  , 0.010256410256  , 0.010256410256  , 0.0  , 0.032433617027  , 0.010256410256  , 0.100515463918  , 0.105670103093  , 0.001802077059  , 0.329312465552  , 0.10412371134  , 0.005149611829  , 0.006358990364  , 0.000584185333  , 0.017519697179  , 0.005512425389  , 0.017151634098  , 0.02099155218  , 0.001854856653  , 0.05814796346  , 0.018303609523  , 0.041218637993  , 0.043010752688  , 0.000755621902  , 0.134897557466  , 0.042652329749 );
                        kernels[45] = compute_kernel(x,   0.061224489796  , 0.061224489796  , 0.0  , 0.193608836337  , 0.061224489796  , 0.043701799486  , 0.046272493573  , 0.000812924848  , 0.145533983082  , 0.046015424165  , 0.010256410256  , 0.010256410256  , 0.0  , 0.032433617027  , 0.010256410256  , 0.110824742268  , 0.113402061856  , 0.001358366693  , 0.354557126088  , 0.112113402062  , 0.003979245504  , 0.004369367612  , 0.00020145819  , 0.013090907608  , 0.004135294347  , 0.013226384504  , 0.014591688711  , 0.000705040061  , 0.04360381864  , 0.013772506187  , 0.041218637993  , 0.043010752688  , 0.000865673641  , 0.134336898437  , 0.04247311828 );
                        kernels[46] = compute_kernel(x,   0.030612244898  , 0.030612244898  , 0.0  , 0.096804418168  , 0.030612244898  , 0.017994858612  , 0.017994858612  , 0.0  , 0.056904739386  , 0.017994858612  , 0.002564102564  , 0.002564102564  , 0.0  , 0.008108404257  , 0.002564102564  , 0.092783505155  , 0.100515463918  , 0.002716733385  , 0.309814826809  , 0.09793814433  , 0.004720477509  , 0.005110599618  , 0.000188446882  , 0.015308005774  , 0.004837514142  , 0.015700998379  , 0.017066302586  , 0.000659504588  , 0.050984561413  , 0.016110589641  , 0.05376344086  , 0.055555555556  , 0.000865673641  , 0.174001324682  , 0.055017921147 );
                        kernels[47] = compute_kernel(x,   0.035714285714  , 0.038265306122  , 0.000806703485  , 0.120223180285  , 0.038010204082  , 0.023136246787  , 0.025706940874  , 0.000812924848  , 0.074016349866  , 0.023393316195  , 0.002564102564  , 0.005128205128  , 0.00132409687  , 0.012026707076  , 0.00358974359  , 0.121134020619  , 0.123711340206  , 0.001330922112  , 0.386340120218  , 0.122164948454  , 0.00522763625  , 0.005617758358  , 0.000123367443  , 0.017645426079  , 0.005578746148  , 0.01749296015  , 0.018687601331  , 0.000377778712  , 0.058728542008  , 0.018568137213  , 0.05376344086  , 0.055555555556  , 0.000865673641  , 0.174001324682  , 0.055017921147 );
                        kernels[48] = compute_kernel(x,   0.02806122449  , 0.02806122449  , 0.0  , 0.088737383321  , 0.02806122449  , 0.017994858612  , 0.017994858612  , 0.0  , 0.056904739386  , 0.017994858612  , 0.002564102564  , 0.002564102564  , 0.0  , 0.008108404257  , 0.002564102564  , 0.100515463918  , 0.103092783505  , 0.000815020016  , 0.325202178013  , 0.102835051546  , 0.005266648461  , 0.005578746148  , 0.000164489924  , 0.017155173358  , 0.005422697304  , 0.017578291663  , 0.018602269818  , 0.000539683874  , 0.057229397174  , 0.018090280741  , 0.055555555556  , 0.055555555556  , 0.0  , 0.175682092232  , 0.055555555556 );
                        kernels[49] = compute_kernel(x,   0.030612244898  , 0.033163265306  , 0.001232259927  , 0.099293369674  , 0.03137755102  , 0.020565552699  , 0.020565552699  , 0.0  , 0.06503398787  , 0.020565552699  , 0.002564102564  , 0.002564102564  , 0.0  , 0.008108404257  , 0.002564102564  , 0.095360824742  , 0.103092783505  , 0.002173386708  , 0.314665285158  , 0.099484536082  , 0.004603440877  , 0.00475948972  , 6.5795969e-05  , 0.014953436896  , 0.004728279952  , 0.015359672327  , 0.015956992917  , 0.000251852475  , 0.050088362438  , 0.015837528799  , 0.05376344086  , 0.055555555556  , 0.000925444049  , 0.173437449275  , 0.054838709677 );
                        kernels[50] = compute_kernel(x,   0.066326530612  , 0.06887755102  , 0.001317341274  , 0.214619516493  , 0.067857142857  , 0.048843187661  , 0.051413881748  , 0.001083899798  , 0.160991962076  , 0.050899742931  , 0.010256410256  , 0.010256410256  , 0.0  , 0.032433617027  , 0.010256410256  , 0.115979381443  , 0.118556701031  , 0.000815020016  , 0.374102177425  , 0.118298969072  , 0.003706160028  , 0.004135294347  , 0.000221604009  , 0.01255175066  , 0.00396364062  , 0.012202406349  , 0.013823705094  , 0.000837235072  , 0.041739235954  , 0.013175185596  , 0.039426523297  , 0.041218637993  , 0.000944527378  , 0.127542676334  , 0.040322580645 );
                        kernels[51] = compute_kernel(x,   0.06887755102  , 0.071428571429  , 0.001075604646  , 0.224286782044  , 0.070918367347  , 0.051413881748  , 0.051413881748  , 0.0  , 0.162584969674  , 0.051413881748  , 0.010256410256  , 0.012820512821  , 0.001081120568  , 0.034209395036  , 0.010769230769  , 0.118556701031  , 0.121134020619  , 0.001330922112  , 0.378190364712  , 0.119587628866  , 0.003667147817  , 0.003901221082  , 0.000113068129  , 0.012119430715  , 0.003830999103  , 0.012031743323  , 0.012799726939  , 0.000370971331  , 0.03976329476  , 0.012569331854  , 0.039426523297  , 0.041218637993  , 0.000865673641  , 0.128670839913  , 0.040681003584 );
                        kernels[52] = compute_kernel(x,   0.107142857143  , 0.109693877551  , 0.000806703485  , 0.339630789686  , 0.107397959184  , 0.087403598972  , 0.089974293059  , 0.000812924848  , 0.283721253727  , 0.08971722365  , 0.025641025641  , 0.025641025641  , 0.0  , 0.081084042568  , 0.025641025641  , 0.144329896907  , 0.154639175258  , 0.003531753401  , 0.472015519055  , 0.149226804124  , 0.000897280849  , 0.001209378535  , 0.000150757505  , 0.003557177794  , 0.00111574923  , 0.0  , 0.001621298746  , 0.000783161698  , 0.004289553282  , 0.001134909122  , 0.025089605735  , 0.02688172043  , 0.000755621902  , 0.083904658858  , 0.026523297491 );
                        kernels[53] = compute_kernel(x,   0.040816326531  , 0.043367346939  , 0.000806703485  , 0.129901806699  , 0.041071428571  , 0.025706940874  , 0.028277634961  , 0.000812924848  , 0.088642363237  , 0.028020565553  , 0.0  , 0.002564102564  , 0.000810840426  , 0.007692307692  , 0.002307692308  , 0.103092783505  , 0.10824742268  , 0.00190171337  , 0.335021806769  , 0.105927835052  , 0.004213318769  , 0.00425233098  , 2.0145819e-05  , 0.013373167363  , 0.004228923653  , 0.01399436812  , 0.014165031146  , 8.8130008e-05  , 0.044470737165  , 0.01406263333  , 0.05376344086  , 0.055555555556  , 0.000865673641  , 0.171734714811  , 0.054301075269 );
                        kernels[54] = compute_kernel(x,   0.094387755102  , 0.09693877551  , 0.001344505808  , 0.302540695697  , 0.095663265306  , 0.07969151671  , 0.082262210797  , 0.001241763217  , 0.254472746721  , 0.080462724936  , 0.025641025641  , 0.025641025641  , 0.0  , 0.081084042568  , 0.025641025641  , 0.126288659794  , 0.128865979381  , 0.001244963638  , 0.405082166074  , 0.128092783505  , 0.000897280849  , 0.000975305271  , 2.4673489e-05  , 0.003060407858  , 0.000967502828  , 8.5331513e-05  , 0.000511989078  , 0.000134920969  , 0.001538335726  , 0.000469323321  , 0.025089605735  , 0.028673835125  , 0.001133432853  , 0.08620798187  , 0.027240143369 );
                        kernels[55] = compute_kernel(x,   0.02806122449  , 0.02806122449  , 0.0  , 0.088737383321  , 0.02806122449  , 0.017994858612  , 0.017994858612  , 0.0  , 0.056904739386  , 0.017994858612  , 0.002564102564  , 0.002564102564  , 0.0  , 0.008108404257  , 0.002564102564  , 0.095360824742  , 0.100515463918  , 0.001718213058  , 0.309750498713  , 0.09793814433  , 0.004798501931  , 0.005266648461  , 0.000241749828  , 0.016078805901  , 0.005079389849  , 0.01604232443  , 0.017578291663  , 0.000793170068  , 0.053697325066  , 0.01696390477  , 0.05376344086  , 0.055555555556  , 0.000925444049  , 0.172304162605  , 0.054480286738 );
                        kernels[56] = compute_kernel(x,   0.045918367347  , 0.045918367347  , 0.0  , 0.145206627253  , 0.045918367347  , 0.033419023136  , 0.033419023136  , 0.0  , 0.105680230288  , 0.033419023136  , 0.007692307692  , 0.007692307692  , 0.0  , 0.024325212771  , 0.007692307692  , 0.092783505155  , 0.095360824742  , 0.001244963638  , 0.295875839649  , 0.093556701031  , 0.004681465299  , 0.005032575196  , 0.000111030698  , 0.014918842756  , 0.004716576288  , 0.015615666866  , 0.01689563956  , 0.000404762906  , 0.049800643581  , 0.015743664135  , 0.041218637993  , 0.044802867384  , 0.001209585229  , 0.134360803926  , 0.04247311828 );
                        kernels[57] = compute_kernel(x,   0.051020408163  , 0.051020408163  , 0.0  , 0.161340696947  , 0.051020408163  , 0.038560411311  , 0.038560411311  , 0.0  , 0.121938727256  , 0.038560411311  , 0.007692307692  , 0.010256410256  , 0.00132409687  , 0.027853283311  , 0.008717948718  , 0.100515463918  , 0.105670103093  , 0.002256688237  , 0.325263450209  , 0.102835051546  , 0.005149611829  , 0.005461709515  , 9.8693954e-05  , 0.017175300272  , 0.005430499746  , 0.017236965611  , 0.018260943767  , 0.000323810324  , 0.057430580606  , 0.018158545951  , 0.043010752688  , 0.043010752688  , 0.0  , 0.136011942373  , 0.043010752688 );
                        kernels[58] = compute_kernel(x,   0.061224489796  , 0.061224489796  , 0.0  , 0.193608836337  , 0.061224489796  , 0.041131105398  , 0.043701799486  , 0.000812924848  , 0.137405943598  , 0.043444730077  , 0.0  , 0.0  , 0.0  , 0.0  , 0.0  , 0.10824742268  , 0.113402061856  , 0.001214960105  , 0.350477560109  , 0.110824742268  , 0.003823196661  , 0.004174306558  , 0.000148040931  , 0.012320078414  , 0.00389341864  , 0.0125437324  , 0.013823705094  , 0.000539683874  , 0.040508658646  , 0.012799726939  , 0.05376344086  , 0.057347670251  , 0.001017287119  , 0.175141967275  , 0.055376344086 );
                        kernels[59] = compute_kernel(x,   0.033163265306  , 0.033163265306  , 0.0  , 0.104871453016  , 0.033163265306  , 0.020565552699  , 0.020565552699  , 0.0  , 0.06503398787  , 0.020565552699  , 0.002564102564  , 0.002564102564  , 0.0  , 0.008108404257  , 0.002564102564  , 0.103092783505  , 0.105670103093  , 0.001330922112  , 0.32929229389  , 0.10412371134  , 0.004369367612  , 0.004876526353  , 0.000160377676  , 0.013985809567  , 0.004420083486  , 0.014506357198  , 0.016298318969  , 0.000566668068  , 0.046470902655  , 0.014685553375  , 0.05376344086  , 0.055555555556  , 0.000925444049  , 0.173437449275  , 0.054838709677 );
                        kernels[60] = compute_kernel(x,   0.05612244898  , 0.05612244898  , 0.0  , 0.177474766642  , 0.05612244898  , 0.041131105398  , 0.043701799486  , 0.000812924848  , 0.130903620118  , 0.041388174807  , 0.010256410256  , 0.010256410256  , 0.0  , 0.032433617027  , 0.010256410256  , 0.09793814433  , 0.100515463918  , 0.001330922112  , 0.312993154294  , 0.098969072165  , 0.006358990364  , 0.007256271213  , 0.000433427828  , 0.021000422017  , 0.006628174619  , 0.02099155218  , 0.023551497568  , 0.001236571102  , 0.068909621633  , 0.021759535797  , 0.041218637993  , 0.043010752688  , 0.000865673641  , 0.132070463641  , 0.041756272401 );
                        kernels[61] = compute_kernel(x,   0.066326530612  , 0.066326530612  , 0.0  , 0.209742906032  , 0.066326530612  , 0.048843187661  , 0.048843187661  , 0.0  , 0.154455721191  , 0.048843187661  , 0.010256410256  , 0.010256410256  , 0.0  , 0.032433617027  , 0.010256410256  , 0.118556701031  , 0.118556701031  , 0.0  , 0.374909207133  , 0.118556701031  , 0.003823196661  , 0.004135294347  , 0.000161166552  , 0.012494143972  , 0.003948035735  , 0.0125437324  , 0.013823705094  , 0.000660975057  , 0.041333408102  , 0.013055721478  , 0.041218637993  , 0.043010752688  , 0.000925444049  , 0.13264070301  , 0.041935483871 );
                        kernels[62] = compute_kernel(x,   0.043367346939  , 0.043367346939  , 0.0  , 0.137139592405  , 0.043367346939  , 0.030848329049  , 0.033419023136  , 0.001354874747  , 0.10169686604  , 0.032133676093  , 0.007692307692  , 0.007692307692  , 0.0  , 0.024325212771  , 0.007692307692  , 0.092783505155  , 0.092783505155  , 0.0  , 0.293407205583  , 0.092783505155  , 0.004876526353  , 0.00522763625  , 0.000148040931  , 0.016315221869  , 0.005157414271  , 0.016383650482  , 0.01749296015  , 0.000467726024  , 0.054634030098  , 0.017271098217  , 0.041218637993  , 0.044802867384  , 0.001322338329  , 0.135503307855  , 0.042831541219 );
                        kernels[63] = compute_kernel(x,   0.022959183673  , 0.022959183673  , 0.0  , 0.072603313626  , 0.022959183673  , 0.012853470437  , 0.012853470437  , 0.0  , 0.040646242419  , 0.012853470437  , 0.007692307692  , 0.007692307692  , 0.0  , 0.024325212771  , 0.007692307692  , 0.118556701031  , 0.126288659794  , 0.002770535309  , 0.388038552967  , 0.122680412371  , 0.006007880467  , 0.006437014786  , 0.000221604009  , 0.019552708345  , 0.006179534194  , 0.019967574025  , 0.021247546719  , 0.000660975057  , 0.064792414996  , 0.020479563103  , 0.051971326165  , 0.05376344086  , 0.000944527378  , 0.167205357517  , 0.052867383513 );
                        kernels[64] = compute_kernel(x,   0.038265306122  , 0.038265306122  , 0.0  , 0.121005522711  , 0.038265306122  , 0.023136246787  , 0.025706940874  , 0.001354874747  , 0.077334750419  , 0.02442159383  , 0.002564102564  , 0.002564102564  , 0.0  , 0.008108404257  , 0.002564102564  , 0.113402061856  , 0.118556701031  , 0.002368393256  , 0.365198091566  , 0.115463917526  , 0.00475948972  , 0.005617758358  , 0.000271408374  , 0.01534385514  , 0.004845316584  , 0.015956992917  , 0.018687601331  , 0.000863494199  , 0.051389269797  , 0.016230053759  , 0.05376344086  , 0.055555555556  , 0.000865673641  , 0.174001324682  , 0.055017921147 );
                        kernels[65] = compute_kernel(x,   0.043367346939  , 0.043367346939  , 0.0  , 0.137139592405  , 0.043367346939  , 0.035989717224  , 0.038560411311  , 0.001083899798  , 0.120356811421  , 0.038046272494  , 0.010256410256  , 0.010256410256  , 0.0  , 0.032433617027  , 0.010256410256  , 0.128865979381  , 0.144329896907  , 0.005976813447  , 0.420932392521  , 0.132989690722  , 0.005500721726  , 0.005500721726  , 0.0  , 0.017394809429  , 0.005500721726  , 0.018346275279  , 0.018346275279  , 0.0  , 0.058016016464  , 0.018346275279  , 0.044802867384  , 0.046594982079  , 0.000755621902  , 0.142830529356  , 0.045161290323 );
                        kernels[66] = compute_kernel(x,   0.030612244898  , 0.030612244898  , 0.0  , 0.096804418168  , 0.030612244898  , 0.017994858612  , 0.020565552699  , 0.001327500718  , 0.061910511973  , 0.019537275064  , 0.0  , 0.002564102564  , 0.001081120568  , 0.007252377243  , 0.002051282051  , 0.090206185567  , 0.095360824742  , 0.001718213058  , 0.293452480979  , 0.092783505155  , 0.004681465299  , 0.00475948972  , 3.2897985e-05  , 0.014853767991  , 0.004697070183  , 0.015700998379  , 0.015956992917  , 0.000107936775  , 0.049813874038  , 0.015752197286  , 0.05376344086  , 0.055555555556  , 0.000755621902  , 0.174563378665  , 0.055197132616 );
                        kernels[67] = compute_kernel(x,   0.107142857143  , 0.112244897959  , 0.001202562553  , 0.346901258476  , 0.109693877551  , 0.089974293059  , 0.092544987147  , 0.001327500718  , 0.289428646685  , 0.091516709512  , 0.025641025641  , 0.028205128205  , 0.001081120568  , 0.082769294316  , 0.026153846154  , 0.154639175258  , 0.159793814433  , 0.001214960105  , 0.497175570264  , 0.157216494845  , 0.000702219795  , 0.001209378535  , 0.000244980946  , 0.002799924607  , 0.000854367417  , 0.0  , 0.001621298746  , 0.000783161698  , 0.002808171802  , 0.000486389624  , 0.023297491039  , 0.02688172043  , 0.001413639136  , 0.078321768399  , 0.024731182796 );
                        kernels[68] = compute_kernel(x,   0.007653061224  , 0.007653061224  , 0.0  , 0.024201104542  , 0.007653061224  , 0.005141388175  , 0.005141388175  , 0.0  , 0.016258496967  , 0.005141388175  , 0.020512820513  , 0.020512820513  , 0.0  , 0.064867234055  , 0.020512820513  , 0.061855670103  , 0.064432989691  , 0.001086693354  , 0.197261784723  , 0.062371134021  , 0.001170366325  , 0.001794561698  , 0.000263183878  , 0.004171206306  , 0.001295205399  , 0.00145063572  , 0.004437238672  , 0.001259262373  , 0.007497527993  , 0.00204795631  , 0.02688172043  , 0.028673835125  , 0.000925444049  , 0.087318478244  , 0.027598566308 );
                        kernels[69] = compute_kernel(x,   0.007653061224  , 0.007653061224  , 0.0  , 0.024201104542  , 0.007653061224  , 0.005141388175  , 0.005141388175  , 0.0  , 0.016258496967  , 0.005141388175  , 0.017948717949  , 0.020512820513  , 0.000810840426  , 0.057621038601  , 0.018205128205  , 0.05412371134  , 0.056701030928  , 0.001330922112  , 0.174459979389  , 0.055154639175  , 0.001482464011  , 0.001755549487  , 0.000141020733  , 0.005223267386  , 0.001646315297  , 0.002986602952  , 0.004181244133  , 0.000616910053  , 0.011856475185  , 0.003703387661  , 0.028673835125  , 0.028673835125  , 0.0  , 0.090674628249  , 0.028673835125 );
                        kernels[70] = compute_kernel(x,   0.354591836735  , 0.364795918367  , 0.003411973239  , 1.139917981698  , 0.360459183673  , 0.298200514139  , 0.305912596401  , 0.00276341311  , 0.956035566667  , 0.302313624679  , 0.14358974359  , 0.151282051282  , 0.002477158418  , 0.467103205233  , 0.147692307692  , 0.09793814433  , 0.100515463918  , 0.001330922112  , 0.312993154294  , 0.098969072165  , 0.002808879179  , 0.002964928022  , 7.5378753e-05  , 0.009230655122  , 0.002918113369  , 0.008618482806  , 0.009215803396  , 0.000288533257  , 0.028589368011  , 0.009036607219  , 0.037634408602  , 0.039426523297  , 0.000925444049  , 0.122442228334  , 0.038709677419 );
                        kernels[71] = compute_kernel(x,   0.163265306122  , 0.165816326531  , 0.001317341274  , 0.519532075695  , 0.164285714286  , 0.141388174807  , 0.143958868895  , 0.001327500718  , 0.450377974135  , 0.142416452442  , 0.074358974359  , 0.074358974359  , 0.0  , 0.235143723448  , 0.074358974359  , 0.056701030928  , 0.059278350515  , 0.001244963638  , 0.18178783479  , 0.057474226804  , 0.017945616978  , 0.026060156829  , 0.003421390412  , 0.062726588443  , 0.019568524948  , 0.038740506869  , 0.043945729158  , 0.002194714421  , 0.125972493832  , 0.039781551327  , 0.037634408602  , 0.039426523297  , 0.000566716427  , 0.124122541727  , 0.039247311828 );
                        kernels[72] = compute_kernel(x,   0.295918367347  , 0.303571428571  , 0.002536808485  , 0.951133856113  , 0.300765306122  , 0.293059125964  , 0.298200514139  , 0.002423673629  , 0.934891850847  , 0.295629820051  , 0.125641025641  , 0.128205128205  , 0.000810840426  , 0.398130080269  , 0.125897435897  , 0.095360824742  , 0.09793814433  , 0.000815020016  , 0.302382311279  , 0.095618556701  , 0.005773807202  , 0.005773807202  , 0.0  , 0.018258381528  , 0.005773807202  , 0.019284921922  , 0.019284921922  , 0.0  , 0.060984277771  , 0.019284921922  , 0.039426523297  , 0.039426523297  , 0.0  , 0.124677613842  , 0.039426523297 );
                        kernels[73] = compute_kernel(x,   0.010204081633  , 0.010204081633  , 0.0  , 0.032268139389  , 0.010204081633  , 0.005141388175  , 0.005141388175  , 0.0  , 0.016258496967  , 0.005141388175  , 0.020512820513  , 0.020512820513  , 0.0  , 0.064867234055  , 0.020512820513  , 0.051546391753  , 0.05412371134  , 0.000815020016  , 0.163837268818  , 0.051804123711  , 0.001560488433  , 0.001833573909  , 0.000143928683  , 0.00538382644  , 0.001697031171  , 0.003242597491  , 0.004522570185  , 0.000674604843  , 0.012443488171  , 0.003882583838  , 0.025089605735  , 0.028673835125  , 0.001646839755  , 0.086282459622  , 0.027240143369 );
                        kernels[74] = compute_kernel(x,   0.007653061224  , 0.010204081633  , 0.001075604646  , 0.030824096871  , 0.009693877551  , 0.005141388175  , 0.005141388175  , 0.0  , 0.016258496967  , 0.005141388175  , 0.023076923077  , 0.028205128205  , 0.00120872954  , 0.081165086109  , 0.025641025641  , 0.059278350515  , 0.061855670103  , 0.001330922112  , 0.192386160892  , 0.060824742268  , 0.001599500644  , 0.001677525065  , 4.0291638e-05  , 0.005207509127  , 0.001646315297  , 0.003413260517  , 0.003669255056  , 0.000132195011  , 0.011286362807  , 0.00356685724  , 0.030465949821  , 0.032258064516  , 0.000755621902  , 0.100900991113  , 0.031899641577 );
                        kernels[75] = compute_kernel(x,   0.005102040816  , 0.005102040816  , 0.0  , 0.016134069695  , 0.005102040816  , 0.005141388175  , 0.005141388175  , 0.0  , 0.016258496967  , 0.005141388175  , 0.015384615385  , 0.015384615385  , 0.0  , 0.048650425541  , 0.015384615385  , 0.170103092784  , 0.185567010309  , 0.004618446755  , 0.56171969413  , 0.177577319588  , 0.003901221082  , 0.003901221082  , 0.0  , 0.012336744276  , 0.003901221082  , 0.012970389965  , 0.012970389965  , 0.0  , 0.04101597443  , 0.012970389965  , 0.02688172043  , 0.032258064516  , 0.001511243804  , 0.093052007066  , 0.029390681004 );
                        kernels[76] = compute_kernel(x,   0.007653061224  , 0.007653061224  , 0.0  , 0.024201104542  , 0.007653061224  , 0.002570694087  , 0.002570694087  , 0.0  , 0.008129248484  , 0.002570694087  , 0.007692307692  , 0.010256410256  , 0.001238579209  , 0.027014496802  , 0.008461538462  , 0.046391752577  , 0.048969072165  , 0.001244963638  , 0.152454499187  , 0.048195876289  , 0.000819256427  , 0.000897280849  , 4.0291638e-05  , 0.002741423336  , 0.00086607108  , 0.0  , 0.0  , 0.0  , 0.0  , 0.0  , 0.032258064516  , 0.034050179211  , 0.000865673641  , 0.10374161748  , 0.032795698925 );
                        kernels[77] = compute_kernel(x,   0.005102040816  , 0.005102040816  , 0.0  , 0.016134069695  , 0.005102040816  , 0.005141388175  , 0.005141388175  , 0.0  , 0.016258496967  , 0.005141388175  , 0.015384615385  , 0.017948717949  , 0.000810840426  , 0.056000845302  , 0.017692307692  , 0.19587628866  , 0.198453608247  , 0.001330922112  , 0.622688093078  , 0.196907216495  , 0.003745172239  , 0.004135294347  , 0.000123367443  , 0.011972363811  , 0.00378418445  , 0.012373069375  , 0.013738373581  , 0.000431747099  , 0.039580026786  , 0.012509599795  , 0.028673835125  , 0.032258064516  , 0.001017287119  , 0.096956551934  , 0.03064516129 );
                        kernels[78] = compute_kernel(x,   0.002551020408  , 0.005102040816  , 0.000806703485  , 0.015517251353  , 0.004846938776  , 0.005141388175  , 0.005141388175  , 0.0  , 0.016258496967  , 0.005141388175  , 0.015384615385  , 0.017948717949  , 0.001081120568  , 0.050376622319  , 0.015897435897  , 0.164948453608  , 0.182989690722  , 0.005705140109  , 0.552033940018  , 0.174484536082  , 0.003550111185  , 0.003862208871  , 0.000131591939  , 0.012022472199  , 0.003799789334  , 0.011605085758  , 0.012714395426  , 0.000467726024  , 0.039529771557  , 0.012492533493  , 0.028673835125  , 0.030465949821  , 0.000566716427  , 0.095790164981  , 0.030286738351 );
                        kernels[79] = compute_kernel(x,   0.005102040816  , 0.005102040816  , 0.0  , 0.016134069695  , 0.005102040816  , 0.002570694087  , 0.005141388175  , 0.000812924848  , 0.009268769346  , 0.002827763496  , 0.015384615385  , 0.015384615385  , 0.0  , 0.048650425541  , 0.015384615385  , 0.067010309278  , 0.069587628866  , 0.001086693354  , 0.21356012872  , 0.067525773196  , 0.001170366325  , 0.001482464011  , 9.8693954e-05  , 0.003811235436  , 0.001201576093  , 0.001365304207  , 0.002815939927  , 0.000458731293  , 0.004970514849  , 0.001510367779  , 0.02688172043  , 0.028673835125  , 0.000566716427  , 0.090123949539  , 0.028494623656 );
                        kernels[80] = compute_kernel(x,   0.010204081633  , 0.010204081633  , 0.0  , 0.032268139389  , 0.010204081633  , 0.005141388175  , 0.005141388175  , 0.0  , 0.016258496967  , 0.005141388175  , 0.020512820513  , 0.020512820513  , 0.0  , 0.064867234055  , 0.020512820513  , 0.051546391753  , 0.05412371134  , 0.001244963638  , 0.165491213986  , 0.052319587629  , 0.00140443959  , 0.001833573909  , 0.000226173645  , 0.005164515388  , 0.001619006749  , 0.002559945388  , 0.004522570185  , 0.001034394092  , 0.011620447812  , 0.003541257787  , 0.02688172043  , 0.028673835125  , 0.000865673641  , 0.089012372317  , 0.028136200717 );
                        kernels[81] = compute_kernel(x,   0.005102040816  , 0.005102040816  , 0.0  , 0.016134069695  , 0.005102040816  , 0.005141388175  , 0.007712082262  , 0.000812924848  , 0.017244740186  , 0.005398457584  , 0.015384615385  , 0.017948717949  , 0.001081120568  , 0.050376622319  , 0.015897435897  , 0.177835051546  , 0.19587628866  , 0.006520160124  , 0.596915228834  , 0.188659793814  , 0.003589123396  , 0.003745172239  , 4.9346977e-05  , 0.011400112975  , 0.00360472828  , 0.011690417271  , 0.012373069375  , 0.00021587355  , 0.037189858154  , 0.011758682481  , 0.030465949821  , 0.032258064516  , 0.000865673641  , 0.098076331846  , 0.031003584229 );
                        kernels[82] = compute_kernel(x,   0.0  , 0.002551020408  , 0.000806703485  , 0.007653061224  , 0.002295918367  , 0.002570694087  , 0.002570694087  , 0.0  , 0.008129248484  , 0.002570694087  , 0.015384615385  , 0.017948717949  , 0.00132409687  , 0.05204559777  , 0.01641025641  , 0.092783505155  , 0.09793814433  , 0.002256688237  , 0.302448206528  , 0.095618556701  , 0.002223696017  , 0.002925915812  , 0.000370102328  , 0.008217605281  , 0.002574805914  , 0.006143868931  , 0.00904514037  , 0.00152910431  , 0.024450121652  , 0.007594504651  , 0.025089605735  , 0.030465949821  , 0.001511243804  , 0.088523935736  , 0.027956989247 );
                        kernels[83] = compute_kernel(x,   0.005102040816  , 0.005102040816  , 0.0  , 0.016134069695  , 0.005102040816  , 0.002570694087  , 0.002570694087  , 0.0  , 0.008129248484  , 0.002570694087  , 0.015384615385  , 0.017948717949  , 0.000810840426  , 0.049521045938  , 0.015641025641  , 0.077319587629  , 0.092783505155  , 0.005494253249  , 0.270274695626  , 0.085309278351  , 0.00140443959  , 0.001560488433  , 6.5795969e-05  , 0.004840030404  , 0.001529278664  , 0.002559945388  , 0.003157265978  , 0.000251852475  , 0.009636040081  , 0.00303780186  , 0.02688172043  , 0.028673835125  , 0.000566716427  , 0.090123949539  , 0.028494623656 );
                        kernels[84] = compute_kernel(x,   0.005102040816  , 0.005102040816  , 0.0  , 0.016134069695  , 0.005102040816  , 0.002570694087  , 0.002570694087  , 0.0  , 0.008129248484  , 0.002570694087  , 0.015384615385  , 0.015384615385  , 0.0  , 0.048650425541  , 0.015384615385  , 0.09793814433  , 0.100515463918  , 0.001244963638  , 0.31217500903  , 0.098711340206  , 0.001755549487  , 0.001989622752  , 9.8693954e-05  , 0.006150829014  , 0.001942808099  , 0.004181244133  , 0.005205222289  , 0.000431747099  , 0.015865696253  , 0.005000426658  , 0.02688172043  , 0.030465949821  , 0.001017287119  , 0.090159578696  , 0.028494623656 );
                        kernels[85] = compute_kernel(x,   0.002551020408  , 0.005102040816  , 0.001075604646  , 0.014874877283  , 0.004591836735  , 0.005141388175  , 0.005141388175  , 0.0  , 0.016258496967  , 0.005141388175  , 0.015384615385  , 0.015384615385  , 0.0  , 0.048650425541  , 0.015384615385  , 0.167525773196  , 0.177835051546  , 0.003851634325  , 0.543741139342  , 0.171907216495  , 0.003277025709  , 0.003550111185  , 0.000115142947  , 0.01105911888  , 0.00349549409  , 0.010581107603  , 0.011519754245  , 0.000395768174  , 0.035854673045  , 0.011332024917  , 0.028673835125  , 0.030465949821  , 0.000755621902  , 0.095235342334  , 0.030107526882 );
                        kernels[86] = compute_kernel(x,   0.765306122449  , 0.77806122449  , 0.004507604857  , 2.441928891632  , 0.772193877551  , 0.760925449871  , 0.771208226221  , 0.003725289652  , 2.42172891081  , 0.765809768638  , 0.517948717949  , 0.535897435897  , 0.005927706285  , 1.664750377641  , 0.52641025641  , 0.582474226804  , 0.603092783505  , 0.007315028508  , 1.870599665258  , 0.591494845361  , 0.677486053135  , 0.785237779425  , 0.045432116919  , 2.21474503228  , 0.699036398393  , 0.58409420599  , 0.715846061951  , 0.055551460105  , 1.937575676094  , 0.610444577182  , 0.041218637993  , 0.043010752688  , 0.000755621902  , 0.131497751454  , 0.041577060932 );
                        kernels[87] = compute_kernel(x,   0.303571428571  , 0.313775510204  , 0.003054130101  , 0.975347549628  , 0.308418367347  , 0.300771208226  , 0.308483290488  , 0.003017449334  , 0.964171366148  , 0.304884318766  , 0.125641025641  , 0.130769230769  , 0.001730637327  , 0.407885778961  , 0.128974358974  , 0.095360824742  , 0.09793814433  , 0.001330922112  , 0.306473536004  , 0.096907216495  , 0.005773807202  , 0.006593063629  , 0.00025907163  , 0.0206046898  , 0.006511137986  , 0.019284921922  , 0.021674204284  , 0.000755557424  , 0.067822182179  , 0.021435276047  , 0.037634408602  , 0.041218637993  , 0.00119474313  , 0.124729122877  , 0.039426523297 );
                        kernels[88] = compute_kernel(x,   0.385204081633  , 0.387755102041  , 0.001232259927  , 1.223774769976  , 0.386989795918  , 0.372750642674  , 0.375321336761  , 0.001083899798  , 1.185248889411  , 0.374807197943  , 0.297435897436  , 0.307692307692  , 0.003069792307  , 0.957646825543  , 0.302820512821  , 0.170103092784  , 0.175257731959  , 0.001739558138  , 0.548533295893  , 0.173453608247  , 0.004486404245  , 0.005383685093  , 0.000378326824  , 0.014798334864  , 0.004665860414  , 0.015018346275  , 0.018004949228  , 0.001259262373  , 0.049525369177  , 0.015615666866  , 0.055555555556  , 0.055555555556  , 0.0  , 0.175682092232  , 0.055555555556 );
                        kernels[89] = compute_kernel(x,   0.336734693878  , 0.344387755102  , 0.002994356609  , 1.077793291797  , 0.340816326531  , 0.280205655527  , 0.287917737789  , 0.002980724444  , 0.896700695906  , 0.283547557841  , 0.135897435897  , 0.138461538462  , 0.00132409687  , 0.433007008065  , 0.136923076923  , 0.090206185567  , 0.092783505155  , 0.001244963638  , 0.287726307258  , 0.090979381443  , 0.002613818125  , 0.002730854758  , 5.6534064e-05  , 0.008378366157  , 0.002648929115  , 0.007850499189  , 0.008362488267  , 0.00024731422  , 0.025322045587  , 0.008004095913  , 0.037634408602  , 0.039426523297  , 0.000865673641  , 0.120738532349  , 0.038172043011 );
                        kernels[90] = compute_kernel(x,   0.0  , 0.0  , 0.0  , 0.0  , 0.0  , 0.002570694087  , 0.002570694087  , 0.0  , 0.008129248484  , 0.002570694087  , 0.020512820513  , 0.023076923077  , 0.001081120568  , 0.066567974286  , 0.021025641026  , 0.074742268041  , 0.074742268041  , 0.0  , 0.236355804497  , 0.074742268041  , 0.001872586119  , 0.001989622752  , 4.9346977e-05  , 0.006219481257  , 0.001966215425  , 0.004693233211  , 0.005205222289  , 0.00021587355  , 0.016149538338  , 0.005102824473  , 0.028673835125  , 0.030465949821  , 0.000755621902  , 0.095235342334  , 0.030107526882 );
                        kernels[91] = compute_kernel(x,   0.0  , 0.0  , 0.0  , 0.0  , 0.0  , 0.002570694087  , 0.002570694087  , 0.0  , 0.008129248484  , 0.002570694087  , 0.015384615385  , 0.017948717949  , 0.001351400709  , 0.052860328534  , 0.016666666667  , 0.074742268041  , 0.079896907216  , 0.001214960105  , 0.244533170477  , 0.077319587629  , 0.001482464011  , 0.002028634963  , 0.000263825634  , 0.005949841789  , 0.001864783677  , 0.00290127144  , 0.005290553802  , 0.001154133029  , 0.014872183585  , 0.004573769093  , 0.02688172043  , 0.030465949821  , 0.001267216454  , 0.087923272918  , 0.027777777778 );
                        kernels[92] = compute_kernel(x,   0.0  , 0.002551020408  , 0.001075604646  , 0.007215375318  , 0.002040816327  , 0.002570694087  , 0.002570694087  , 0.0  , 0.008129248484  , 0.002570694087  , 0.012820512821  , 0.015384615385  , 0.00132409687  , 0.045580484191  , 0.014358974359  , 0.100515463918  , 0.110824742268  , 0.003803426739  , 0.332723873348  , 0.105154639175  , 0.002925915812  , 0.003277025709  , 0.000181312371  , 0.009711925144  , 0.003066359771  , 0.00904514037  , 0.010581107603  , 0.000793170068  , 0.030638647789  , 0.009659527263  , 0.028673835125  , 0.030465949821  , 0.000865673641  , 0.09241127659  , 0.029211469534 );
                        kernels[93] = compute_kernel(x,   0.0  , 0.002551020408  , 0.001075604646  , 0.003607687659  , 0.000510204082  , 0.002570694087  , 0.002570694087  , 0.0  , 0.008129248484  , 0.002570694087  , 0.017948717949  , 0.020512820513  , 0.000810840426  , 0.057621038601  , 0.018205128205  , 0.079896907216  , 0.082474226804  , 0.001086693354  , 0.259196867769  , 0.081958762887  , 0.001794561698  , 0.002145671595  , 0.000181312371  , 0.006143153628  , 0.001935005657  , 0.004266575646  , 0.005887874392  , 0.000837235072  , 0.015744531301  , 0.004915095145  , 0.025089605735  , 0.028673835125  , 0.001209585229  , 0.083386309134  , 0.026344086022 );
                        kernels[94] = compute_kernel(x,   0.002551020408  , 0.005102040816  , 0.000806703485  , 0.015517251353  , 0.004846938776  , 0.005141388175  , 0.005141388175  , 0.0  , 0.016258496967  , 0.005141388175  , 0.015384615385  , 0.015384615385  , 0.0  , 0.048650425541  , 0.015384615385  , 0.177835051546  , 0.180412371134  , 0.000815020016  , 0.563184138346  , 0.178092783505  , 0.003277025709  , 0.003277025709  , 0.0  , 0.010362865192  , 0.003277025709  , 0.010581107603  , 0.010581107603  , 0.0  , 0.033460400193  , 0.010581107603  , 0.030465949821  , 0.032258064516  , 0.000755621902  , 0.097501580708  , 0.03082437276 );
                        kernels[95] = compute_kernel(x,   0.387755102041  , 0.390306122449  , 0.001075604646  , 1.227806943991  , 0.388265306122  , 0.367609254499  , 0.370179948586  , 0.000812924848  , 1.169801398961  , 0.369922879177  , 0.302564102564  , 0.305128205128  , 0.001238579209  , 0.959231420366  , 0.303333333333  , 0.170103092784  , 0.170103092784  , 0.0  , 0.537913210235  , 0.170103092784  , 0.004915538564  , 0.005032575196  , 5.6534064e-05  , 0.015656247153  , 0.004950649553  , 0.016468981995  , 0.01689563956  , 0.000206095184  , 0.052487898454  , 0.016596979264  , 0.05376344086  , 0.055555555556  , 0.000566716427  , 0.175123628762  , 0.055376344086 );
                        kernels[96] = compute_kernel(x,   0.0  , 0.0  , 0.0  , 0.0  , 0.0  , 0.002570694087  , 0.002570694087  , 0.0  , 0.008129248484  , 0.002570694087  , 0.017948717949  , 0.017948717949  , 0.0  , 0.056758829798  , 0.017948717949  , 0.077319587629  , 0.079896907216  , 0.000815020016  , 0.251853053736  , 0.079639175258  , 0.002028634963  , 0.002145671595  , 6.0437457e-05  , 0.00663964448  , 0.002098856942  , 0.005290553802  , 0.005887874392  , 0.000308455027  , 0.017887488008  , 0.005648946156  , 0.02688172043  , 0.028673835125  , 0.000944527378  , 0.08788673717  , 0.027777777778 );
                        kernels[97] = compute_kernel(x,   0.005102040816  , 0.007653061224  , 0.001232259927  , 0.018918873692  , 0.005867346939  , 0.002570694087  , 0.005141388175  , 0.000812924848  , 0.015636921672  , 0.004884318766  , 0.017948717949  , 0.017948717949  , 0.0  , 0.056758829798  , 0.017948717949  , 0.069587628866  , 0.072164948454  , 0.001330922112  , 0.224980957142  , 0.071134020619  , 0.001092341903  , 0.001092341903  , 0.0  , 0.003454288397  , 0.001092341903  , 0.001109309668  , 0.001109309668  , 0.0  , 0.003507945182  , 0.001109309668  , 0.02688172043  , 0.028673835125  , 0.000566716427  , 0.090123949539  , 0.028494623656 );
                        kernels[98] = compute_kernel(x,   0.002551020408  , 0.002551020408  , 0.0  , 0.008067034847  , 0.002551020408  , 0.002570694087  , 0.002570694087  , 0.0  , 0.008129248484  , 0.002570694087  , 0.015384615385  , 0.017948717949  , 0.001081120568  , 0.050376622319  , 0.015897435897  , 0.128865979381  , 0.170103092784  , 0.01441661647  , 0.481179423922  , 0.151546391753  , 0.002145671595  , 0.002886903601  , 0.000358049075  , 0.007565050123  , 0.002368041197  , 0.005802542879  , 0.00904514037  , 0.001566323396  , 0.021934680759  , 0.006775322126  , 0.028673835125  , 0.030465949821  , 0.000944527378  , 0.093551133592  , 0.029569892473 );
                        kernels[99] = compute_kernel(x,   0.002551020408  , 0.002551020408  , 0.0  , 0.008067034847  , 0.002551020408  , 0.002570694087  , 0.002570694087  , 0.0  , 0.008129248484  , 0.002570694087  , 0.017948717949  , 0.020512820513  , 0.001081120568  , 0.05847053462  , 0.018461538462  , 0.082474226804  , 0.087628865979  , 0.001739558138  , 0.271451834432  , 0.085824742268  , 0.001794561698  , 0.001872586119  , 4.1122481e-05  , 0.005799582081  , 0.001833573909  , 0.004266575646  , 0.004778564724  , 0.000269841937  , 0.014324515449  , 0.004522570185  , 0.025089605735  , 0.030465949821  , 0.001926465412  , 0.088596466626  , 0.027956989247 );
                        kernels[100] = compute_kernel(x,   0.002551020408  , 0.002551020408  , 0.0  , 0.008067034847  , 0.002551020408  , 0.002570694087  , 0.005141388175  , 0.001083899798  , 0.01028277635  , 0.003084832905  , 0.015384615385  , 0.015384615385  , 0.0  , 0.048650425541  , 0.015384615385  , 0.123711340206  , 0.136597938144  , 0.003880271406  , 0.410934999239  , 0.129896907216  , 0.003042952444  , 0.003550111185  , 0.000261895648  , 0.010614046111  , 0.003347247689  , 0.009642460961  , 0.011605085758  , 0.001013495087  , 0.034350783197  , 0.010820035839  , 0.028673835125  , 0.028673835125  , 0.0  , 0.090674628249  , 0.028673835125 );
                        kernels[101] = compute_kernel(x,   0.0  , 0.0  , 0.0  , 0.0  , 0.0  , 0.002570694087  , 0.002570694087  , 0.0  , 0.008129248484  , 0.002570694087  , 0.015384615385  , 0.017948717949  , 0.001238579209  , 0.054453232261  , 0.017179487179  , 0.074742268041  , 0.074742268041  , 0.0  , 0.236355804497  , 0.074742268041  , 0.001482464011  , 0.00191159833  , 0.00020729157  , 0.005132886258  , 0.001611204307  , 0.00290127144  , 0.004863896237  , 0.000948037845  , 0.011397108913  , 0.003490058879  , 0.028673835125  , 0.030465949821  , 0.000865673641  , 0.094677268401  , 0.029928315412 );
                        kernels[102] = compute_kernel(x,   0.19387755102  , 0.198979591837  , 0.001882308131  , 0.62199402075  , 0.196683673469  , 0.179948586118  , 0.185089974293  , 0.001735086267  , 0.574761438687  , 0.181748071979  , 0.097435897436  , 0.1  , 0.000810840426  , 0.315426305354  , 0.099743589744  , 0.095360824742  , 0.09793814433  , 0.001358366693  , 0.305659671942  , 0.096649484536  , 0.003589123396  , 0.00378418445  , 0.000100729095  , 0.011723802229  , 0.003706160028  , 0.011775748784  , 0.012373069375  , 0.000308455027  , 0.038382679846  , 0.012134141138  , 0.032258064516  , 0.034050179211  , 0.000566716427  , 0.102589761874  , 0.032437275986 );
                        kernels[103] = compute_kernel(x,   0.0  , 0.0  , 0.0  , 0.0  , 0.0  , 0.002570694087  , 0.002570694087  , 0.0  , 0.008129248484  , 0.002570694087  , 0.020512820513  , 0.023076923077  , 0.001238579209  , 0.070640909302  , 0.022307692308  , 0.074742268041  , 0.077319587629  , 0.001358366693  , 0.240465436841  , 0.076030927835  , 0.001872586119  , 0.002301720438  , 0.000135704187  , 0.006071006996  , 0.001915499551  , 0.004693233211  , 0.006485194983  , 0.000566668068  , 0.015501473985  , 0.004872429388  , 0.02688172043  , 0.028673835125  , 0.000925444049  , 0.088451345371  , 0.027956989247 );
                        kernels[104] = compute_kernel(x,   0.150510204082  , 0.15306122449  , 0.001344505808  , 0.480005520671  , 0.151785714286  , 0.12853470437  , 0.131105398458  , 0.001354874747  , 0.410547169837  , 0.129820051414  , 0.069230769231  , 0.071794871795  , 0.000810840426  , 0.219751219088  , 0.069487179487  , 0.061855670103  , 0.064432989691  , 0.000815020016  , 0.196435041364  , 0.062113402062  , 0.130183747513  , 0.130183747513  , 0.0  , 0.411677156477  , 0.130183747513  , 0.089598088574  , 0.089598088574  , 0.0  , 0.283334033892  , 0.089598088574  , 0.039426523297  , 0.041218637993  , 0.000755621902  , 0.125831467251  , 0.039784946237 );
                        kernels[105] = compute_kernel(x,   0.005102040816  , 0.005102040816  , 0.0  , 0.016134069695  , 0.005102040816  , 0.002570694087  , 0.005141388175  , 0.001083899798  , 0.01498959356  , 0.004627249357  , 0.015384615385  , 0.017948717949  , 0.001238579209  , 0.054453232261  , 0.017179487179  , 0.072164948454  , 0.074742268041  , 0.001086693354  , 0.234748402819  , 0.074226804124  , 0.001248390746  , 0.001248390746  , 0.0  , 0.003947758168  , 0.001248390746  , 0.001791961771  , 0.001791961771  , 0.0  , 0.005666680678  , 0.001791961771  , 0.02688172043  , 0.028673835125  , 0.000925444049  , 0.087318478244  , 0.027598566308 );
                        kernels[106] = compute_kernel(x,   0.002551020408  , 0.002551020408  , 0.0  , 0.008067034847  , 0.002551020408  , 0.002570694087  , 0.002570694087  , 0.0  , 0.008129248484  , 0.002570694087  , 0.015384615385  , 0.017948717949  , 0.001351400709  , 0.052860328534  , 0.016666666667  , 0.103092783505  , 0.105670103093  , 0.001244963638  , 0.328474300576  , 0.103865979381  , 0.001482464011  , 0.002262708228  , 0.000411224809  , 0.00604878007  , 0.001872586119  , 0.00290127144  , 0.006314531957  , 0.001798946247  , 0.015538772441  , 0.004607901698  , 0.02688172043  , 0.030465949821  , 0.001017287119  , 0.091292370086  , 0.028853046595 );
                        kernels[107] = compute_kernel(x,   0.670918367347  , 0.709183673469  , 0.013713959241  , 2.208330713878  , 0.698214285714  , 0.542416452442  , 0.616966580977  , 0.025025237117  , 1.863923403275  , 0.588946015424  , 0.687179487179  , 0.712820512821  , 0.008391752279  , 2.225088552486  , 0.70358974359  , 0.430412371134  , 0.476804123711  , 0.015757053633  , 1.462909846302  , 0.462371134021  , 0.012561931885  , 0.01283501736  , 0.000141020733  , 0.040071978721  , 0.012671166075  , 0.034900588787  , 0.035071251813  , 8.8130008e-05  , 0.110581541865  , 0.034968853998  , 0.05017921147  , 0.051971326165  , 0.000566716427  , 0.16378987134  , 0.051792114695 );
                        kernels[108] = compute_kernel(x,   0.002551020408  , 0.005102040816  , 0.000806703485  , 0.015517251353  , 0.004846938776  , 0.005141388175  , 0.005141388175  , 0.0  , 0.016258496967  , 0.005141388175  , 0.015384615385  , 0.015384615385  , 0.0  , 0.048650425541  , 0.015384615385  , 0.162371134021  , 0.167525773196  , 0.002173386708  , 0.518393735537  , 0.163917525773  , 0.003355050131  , 0.003355050131  , 0.0  , 0.010609600077  , 0.003355050131  , 0.010837102142  , 0.010837102142  , 0.0  , 0.034269926004  , 0.010837102142  , 0.030465949821  , 0.032258064516  , 0.000566716427  , 0.096923421383  , 0.03064516129 );
                        kernels[109] = compute_kernel(x,   0.005102040816  , 0.005102040816  , 0.0  , 0.016134069695  , 0.005102040816  , 0.005141388175  , 0.005141388175  , 0.0  , 0.016258496967  , 0.005141388175  , 0.015384615385  , 0.017948717949  , 0.00132409687  , 0.05204559777  , 0.01641025641  , 0.185567010309  , 0.190721649485  , 0.001739558138  , 0.597432464807  , 0.188917525773  , 0.003979245504  , 0.003979245504  , 0.0  , 0.012583479161  , 0.003979245504  , 0.013226384504  , 0.013226384504  , 0.0  , 0.041825500241  , 0.013226384504  , 0.028673835125  , 0.032258064516  , 0.001133432853  , 0.097534514869  , 0.03082437276 );
                        kernels[110] = compute_kernel(x,   0.002551020408  , 0.002551020408  , 0.0  , 0.008067034847  , 0.002551020408  , 0.002570694087  , 0.002570694087  , 0.0  , 0.008129248484  , 0.002570694087  , 0.015384615385  , 0.015384615385  , 0.0  , 0.048650425541  , 0.015384615385  , 0.09793814433  , 0.121134020619  , 0.008680802803  , 0.337609191211  , 0.106443298969  , 0.001833573909  , 0.002145671595  , 0.000150757505  , 0.006111110597  , 0.001927203215  , 0.004437238672  , 0.005802542879  , 0.000659504588  , 0.01545419428  , 0.004846829934  , 0.02688172043  , 0.030465949821  , 0.001511243804  , 0.093052007066  , 0.029390681004 );
                        kernels[111] = compute_kernel(x,   0.329081632653  , 0.336734693878  , 0.002536808485  , 1.049548826135  , 0.331887755102  , 0.272493573265  , 0.27763496144  , 0.001896824646  , 0.870661108728  , 0.275321336761  , 0.130769230769  , 0.135897435897  , 0.001455503108  , 0.422470427755  , 0.13358974359  , 0.087628865979  , 0.090206185567  , 0.001086693354  , 0.278755909447  , 0.088144329897  , 0.002613818125  , 0.002886903601  , 0.000141020733  , 0.008793944233  , 0.002777669411  , 0.007850499189  , 0.008959808857  , 0.000572845049  , 0.026985003218  , 0.00851608499  , 0.039426523297  , 0.039426523297  , 0.0  , 0.124677613842  , 0.039426523297 );
                        kernels[112] = compute_kernel(x,   0.010204081633  , 0.012755102041  , 0.001075604646  , 0.038855985234  , 0.012244897959  , 0.005141388175  , 0.007712082262  , 0.000812924848  , 0.023700628425  , 0.007455012853  , 0.023076923077  , 0.025641025641  , 0.001081120568  , 0.074667793736  , 0.02358974359  , 0.048969072165  , 0.051546391753  , 0.001086693354  , 0.161406889813  , 0.051030927835  , 0.001092341903  , 0.001716537276  , 0.000322333105  , 0.004352615981  , 0.001342020052  , 0.001023978155  , 0.003925249595  , 0.001498210129  , 0.008241451638  , 0.002184486731  , 0.02688172043  , 0.028673835125  , 0.000755621902  , 0.089569885302  , 0.028315412186 );
                        kernels[113] = compute_kernel(x,   0.0  , 0.002551020408  , 0.000806703485  , 0.007653061224  , 0.002295918367  , 0.002570694087  , 0.002570694087  , 0.0  , 0.008129248484  , 0.002570694087  , 0.012820512821  , 0.015384615385  , 0.001081120568  , 0.047140452079  , 0.014871794872  , 0.113402061856  , 0.123711340206  , 0.003531753401  , 0.374244198852  , 0.118298969072  , 0.003277025709  , 0.003550111185  , 0.000141020733  , 0.010716647922  , 0.003386259899  , 0.010581107603  , 0.011605085758  , 0.000528780046  , 0.034791825052  , 0.010990698865  , 0.02688172043  , 0.028673835125  , 0.000925444049  , 0.088451345371  , 0.027956989247 );
                        kernels[114] = compute_kernel(x,   0.002551020408  , 0.005102040816  , 0.001232259927  , 0.014203480517  , 0.004336734694  , 0.005141388175  , 0.005141388175  , 0.0  , 0.016258496967  , 0.005141388175  , 0.015384615385  , 0.015384615385  , 0.0  , 0.048650425541  , 0.015384615385  , 0.15206185567  , 0.162371134021  , 0.003803426739  , 0.498922742162  , 0.157731958763  , 0.003355050131  , 0.003355050131  , 0.0  , 0.010609600077  , 0.003355050131  , 0.010837102142  , 0.010837102142  , 0.0  , 0.034269926004  , 0.010837102142  , 0.028673835125  , 0.030465949821  , 0.000925444049  , 0.092982951764  , 0.029390681004 );
                        kernels[115] = compute_kernel(x,   0.168367346939  , 0.173469387755  , 0.001202562553  , 0.54050337499  , 0.170918367347  , 0.149100257069  , 0.151670951157  , 0.001083899798  , 0.473133435845  , 0.149614395887  , 0.076923076923  , 0.079487179487  , 0.00132409687  , 0.246527494189  , 0.077948717949  , 0.059278350515  , 0.059278350515  , 0.0  , 0.187454603567  , 0.059278350515  , 0.017282409394  , 0.020637459525  , 0.001620643182  , 0.062268597004  , 0.019630944486  , 0.038313849305  , 0.040532468641  , 0.001071694955  , 0.126111142427  , 0.03986688284  , 0.037634408602  , 0.039426523297  , 0.000865673641  , 0.123004883268  , 0.038888888889 );
                        kernels[116] = compute_kernel(x,   0.0  , 0.0  , 0.0  , 0.0  , 0.0  , 0.002570694087  , 0.002570694087  , 0.0  , 0.008129248484  , 0.002570694087  , 0.023076923077  , 0.023076923077  , 0.0  , 0.072975638312  , 0.023076923077  , 0.079896907216  , 0.082474226804  , 0.001244963638  , 0.255128604316  , 0.080670103093  , 0.002028634963  , 0.002028634963  , 0.0  , 0.006415107023  , 0.002028634963  , 0.005375885314  , 0.005375885314  , 0.0  , 0.017000042034  , 0.005375885314  , 0.028673835125  , 0.028673835125  , 0.0  , 0.090674628249  , 0.028673835125 );
                        kernels[117] = compute_kernel(x,   0.311224489796  , 0.31887755102  , 0.002689011616  , 1.000344848911  , 0.316326530612  , 0.311053984576  , 0.318766066838  , 0.002980724444  , 0.994247302935  , 0.314395886889  , 0.130769230769  , 0.138461538462  , 0.002432521277  , 0.427375212956  , 0.135128205128  , 0.09793814433  , 0.100515463918  , 0.001330922112  , 0.314623062375  , 0.099484536082  , 0.005968868256  , 0.006593063629  , 0.000197387908  , 0.019081797146  , 0.006031287793  , 0.019796910999  , 0.021674204284  , 0.000593652261  , 0.063222071283  , 0.019984640328  , 0.039426523297  , 0.041218637993  , 0.000865673641  , 0.128670839913  , 0.040681003584 );
                        kernels[118] = compute_kernel(x,   0.0  , 0.0  , 0.0  , 0.0  , 0.0  , 0.002570694087  , 0.002570694087  , 0.0  , 0.008129248484  , 0.002570694087  , 0.023076923077  , 0.023076923077  , 0.0  , 0.072975638312  , 0.023076923077  , 0.079896907216  , 0.082474226804  , 0.001330922112  , 0.257577273168  , 0.081443298969  , 0.002262708228  , 0.002262708228  , 0.0  , 0.00715531168  , 0.002262708228  , 0.00639986347  , 0.00639986347  , 0.0  , 0.020238145278  , 0.00639986347  , 0.02688172043  , 0.028673835125  , 0.000944527378  , 0.08788673717  , 0.027777777778 );
                        kernels[119] = compute_kernel(x,   0.002551020408  , 0.005102040816  , 0.001317341274  , 0.013498731179  , 0.004081632653  , 0.002570694087  , 0.005141388175  , 0.000812924848  , 0.009268769346  , 0.002827763496  , 0.015384615385  , 0.015384615385  , 0.0  , 0.048650425541  , 0.015384615385  , 0.087628865979  , 0.092783505155  , 0.002256688237  , 0.286152123035  , 0.090463917526  , 0.002262708228  , 0.002262708228  , 0.0  , 0.00715531168  , 0.002262708228  , 0.006485194983  , 0.006485194983  , 0.0  , 0.020507987215  , 0.006485194983  , 0.02688172043  , 0.028673835125  , 0.000566716427  , 0.090123949539  , 0.028494623656 );
                        kernels[120] = compute_kernel(x,   0.34693877551  , 0.354591836735  , 0.003237998769  , 1.109259825972  , 0.350765306122  , 0.287917737789  , 0.295629820051  , 0.002655001437  , 0.925142765382  , 0.292544987147  , 0.141025641026  , 0.146153846154  , 0.001813094311  , 0.450049306963  , 0.142307692308  , 0.092783505155  , 0.095360824742  , 0.001086693354  , 0.29994508301  , 0.094845360825  , 0.002730854758  , 0.002964928022  , 0.000113068129  , 0.008864274842  , 0.002801076737  , 0.008362488267  , 0.009215803396  , 0.000412190367  , 0.027282074093  , 0.008618482806  , 0.039426523297  , 0.039426523297  , 0.0  , 0.124677613842  , 0.039426523297 );
                        kernels[121] = compute_kernel(x,   0.007653061224  , 0.007653061224  , 0.0  , 0.024201104542  , 0.007653061224  , 0.005141388175  , 0.005141388175  , 0.0  , 0.016258496967  , 0.005141388175  , 0.017948717949  , 0.020512820513  , 0.000810840426  , 0.057621038601  , 0.018205128205  , 0.056701030928  , 0.059278350515  , 0.001330922112  , 0.18260814004  , 0.057731958763  , 0.001482464011  , 0.001677525065  , 9.4223441e-05  , 0.004881205573  , 0.001540982327  , 0.002986602952  , 0.003669255056  , 0.000329752294  , 0.010140457503  , 0.003191398583  , 0.025089605735  , 0.028673835125  , 0.000844810969  , 0.085045236686  , 0.02688172043 );
                        kernels[122] = compute_kernel(x,   0.002551020408  , 0.005102040816  , 0.000806703485  , 0.009197834886  , 0.002806122449  , 0.002570694087  , 0.002570694087  , 0.0  , 0.008129248484  , 0.002570694087  , 0.015384615385  , 0.015384615385  , 0.0  , 0.048650425541  , 0.015384615385  , 0.085051546392  , 0.087628865979  , 0.001358366693  , 0.273062114696  , 0.086340206186  , 0.001989622752  , 0.002106659384  , 6.1683721e-05  , 0.006479433793  , 0.002048141068  , 0.005119890776  , 0.005802542879  , 0.000359789249  , 0.017303581337  , 0.005461216827  , 0.02688172043  , 0.030465949821  , 0.000844810969  , 0.09071004111  , 0.028673835125 );
                        kernels[123] = compute_kernel(x,   0.002551020408  , 0.002551020408  , 0.0  , 0.008067034847  , 0.002551020408  , 0.002570694087  , 0.002570694087  , 0.0  , 0.008129248484  , 0.002570694087  , 0.017948717949  , 0.017948717949  , 0.0  , 0.056758829798  , 0.017948717949  , 0.087628865979  , 0.092783505155  , 0.001463005702  , 0.28610569238  , 0.090463917526  , 0.001872586119  , 0.002223696017  , 0.000185051164  , 0.006500539497  , 0.002048141068  , 0.004778564724  , 0.006143868931  , 0.000719578499  , 0.017404281982  , 0.005461216827  , 0.028673835125  , 0.028673835125  , 0.0  , 0.090674628249  , 0.028673835125 );
                        kernels[124] = compute_kernel(x,   0.002551020408  , 0.005102040816  , 0.001075604646  , 0.014874877283  , 0.004591836735  , 0.002570694087  , 0.005141388175  , 0.001327500718  , 0.013602834504  , 0.00411311054  , 0.015384615385  , 0.017948717949  , 0.001351400709  , 0.052860328534  , 0.016666666667  , 0.172680412371  , 0.193298969072  , 0.007000532229  , 0.575787270592  , 0.181958762887  , 0.002886903601  , 0.003550111185  , 0.00027963287  , 0.009585420077  , 0.003019545118  , 0.00904514037  , 0.011605085758  , 0.001079367748  , 0.030395271762  , 0.009557129448  , 0.028673835125  , 0.030465949821  , 0.000944527378  , 0.093551133592  , 0.029569892473 );
                        kernels[125] = compute_kernel(x,   0.002551020408  , 0.002551020408  , 0.0  , 0.008067034847  , 0.002551020408  , 0.002570694087  , 0.002570694087  , 0.0  , 0.008129248484  , 0.002570694087  , 0.015384615385  , 0.015384615385  , 0.0  , 0.048650425541  , 0.015384615385  , 0.085051546392  , 0.087628865979  , 0.001086693354  , 0.270606283472  , 0.085567010309  , 0.002184683806  , 0.002262708228  , 4.0291638e-05  , 0.007008313213  , 0.002215893575  , 0.006143868931  , 0.006485194983  , 0.000176260015  , 0.019867404674  , 0.006280399351  , 0.02688172043  , 0.028673835125  , 0.000944527378  , 0.08788673717  , 0.027777777778 );
                        kernels[126] = compute_kernel(x,   0.0  , 0.0  , 0.0  , 0.0  , 0.0  , 0.002570694087  , 0.002570694087  , 0.0  , 0.008129248484  , 0.002570694087  , 0.020512820513  , 0.023076923077  , 0.000810840426  , 0.072205783797  , 0.022820512821  , 0.077319587629  , 0.079896907216  , 0.000815020016  , 0.24533320905  , 0.077577319588  , 0.002106659384  , 0.002301720438  , 6.1683721e-05  , 0.007219367462  , 0.002282214333  , 0.005717211366  , 0.006485194983  , 0.000242857743  , 0.020278222098  , 0.006408396621  , 0.028673835125  , 0.030465949821  , 0.000566716427  , 0.091257183201  , 0.028853046595 );
                        kernels[127] = compute_kernel(x,   0.0  , 0.0  , 0.0  , 0.0  , 0.0  , 0.002570694087  , 0.002570694087  , 0.0  , 0.008129248484  , 0.002570694087  , 0.023076923077  , 0.023076923077  , 0.0  , 0.072975638312  , 0.023076923077  , 0.079896907216  , 0.082474226804  , 0.000815020016  , 0.253483017443  , 0.080154639175  , 0.002145671595  , 0.002145671595  , 0.0  , 0.006785209352  , 0.002145671595  , 0.005887874392  , 0.005887874392  , 0.0  , 0.018619093656  , 0.005887874392  , 0.025089605735  , 0.028673835125  , 0.001267216454  , 0.087923272918  , 0.027777777778 );
                        kernels[128] = compute_kernel(x,   0.010204081633  , 0.010204081633  , 0.0  , 0.032268139389  , 0.010204081633  , 0.005141388175  , 0.005141388175  , 0.0  , 0.016258496967  , 0.005141388175  , 0.028205128205  , 0.030769230769  , 0.001238579209  , 0.091700280729  , 0.028974358974  , 0.061855670103  , 0.064432989691  , 0.001330922112  , 0.198904962697  , 0.062886597938  , 0.001599500644  , 0.001872586119  , 0.000131912817  , 0.005331843254  , 0.001681426286  , 0.003413260517  , 0.004607901698  , 0.000577066514  , 0.01205200007  , 0.003771652871  , 0.030465949821  , 0.032258064516  , 0.000925444049  , 0.099780723348  , 0.031541218638 );
                        kernels[129] = compute_kernel(x,   0.005102040816  , 0.005102040816  , 0.0  , 0.016134069695  , 0.005102040816  , 0.002570694087  , 0.002570694087  , 0.0  , 0.008129248484  , 0.002570694087  , 0.015384615385  , 0.015384615385  , 0.0  , 0.048650425541  , 0.015384615385  , 0.067010309278  , 0.074742268041  , 0.002836352924  , 0.219405446908  , 0.069329896907  , 0.001170366325  , 0.00140443959  , 7.4020466e-05  , 0.004372849458  , 0.001381032263  , 0.001365304207  , 0.002559945388  , 0.000377778712  , 0.007800252501  , 0.00244048127  , 0.025089605735  , 0.028673835125  , 0.001322338329  , 0.084533881112  , 0.026702508961 );
                        kernels[130] = compute_kernel(x,   0.002551020408  , 0.002551020408  , 0.0  , 0.008067034847  , 0.002551020408  , 0.002570694087  , 0.002570694087  , 0.0  , 0.008129248484  , 0.002570694087  , 0.015384615385  , 0.017948717949  , 0.000810840426  , 0.049521045938  , 0.015641025641  , 0.09793814433  , 0.100515463918  , 0.001086693354  , 0.311354713938  , 0.098453608247  , 0.0014434518  , 0.00191159833  , 0.000241749828  , 0.005207509127  , 0.001630710412  , 0.002730608414  , 0.00494922775  , 0.001145690099  , 0.01194641181  , 0.003618056148  , 0.02688172043  , 0.030465949821  , 0.00119474313  , 0.090745440152  , 0.028673835125 );
                        kernels[131] = compute_kernel(x,   0.364795918367  , 0.375  , 0.003411973239  , 1.172184855953  , 0.370663265306  , 0.305912596401  , 0.313624678663  , 0.00255637256  , 0.982856062778  , 0.310796915167  , 0.151282051282  , 0.153846153846  , 0.001351400709  , 0.482467087444  , 0.152564102564  , 0.100515463918  , 0.105670103093  , 0.001739558138  , 0.328494522468  , 0.103865979381  , 0.002808879179  , 0.003199001287  , 0.000164489924  , 0.009142518057  , 0.002886903601  , 0.008618482806  , 0.010239781551  , 0.000683599574  , 0.028353698514  , 0.008942742555  , 0.037634408602  , 0.039426523297  , 0.000566716427  , 0.124122541727  , 0.039247311828 );
                        kernels[132] = compute_kernel(x,   0.005102040816  , 0.005102040816  , 0.0  , 0.016134069695  , 0.005102040816  , 0.002570694087  , 0.005141388175  , 0.001241763217  , 0.014313018928  , 0.004370179949  , 0.015384615385  , 0.017948717949  , 0.001081120568  , 0.050376622319  , 0.015897435897  , 0.072164948454  , 0.074742268041  , 0.001358366693  , 0.232316448161  , 0.073453608247  , 0.001482464011  , 0.001482464011  , 0.0  , 0.004687962825  , 0.001482464011  , 0.002815939927  , 0.002815939927  , 0.0  , 0.008904783922  , 0.002815939927  , 0.02688172043  , 0.028673835125  , 0.000566716427  , 0.090123949539  , 0.028494623656 );
                        kernels[133] = compute_kernel(x,   0.0  , 0.002551020408  , 0.000806703485  , 0.002551020408  , 0.000255102041  , 0.002570694087  , 0.002570694087  , 0.0  , 0.008129248484  , 0.002570694087  , 0.017948717949  , 0.020512820513  , 0.001238579209  , 0.062545184193  , 0.019743589744  , 0.074742268041  , 0.074742268041  , 0.0  , 0.236355804497  , 0.074742268041  , 0.00191159833  , 0.00191159833  , 0.0  , 0.006045004695  , 0.00191159833  , 0.004863896237  , 0.004863896237  , 0.0  , 0.015380990411  , 0.004863896237  , 0.02688172043  , 0.028673835125  , 0.000925444049  , 0.088451345371  , 0.027956989247 );
                        kernels[134] = compute_kernel(x,   0.158163265306  , 0.163265306122  , 0.001202562553  , 0.50823600004  , 0.160714285714  , 0.13881748072  , 0.141388174807  , 0.001327500718  , 0.442249049317  , 0.139845758355  , 0.071794871795  , 0.074358974359  , 0.001238579209  , 0.229497922682  , 0.072564102564  , 0.056701030928  , 0.059278350515  , 0.001244963638  , 0.18178783479  , 0.057474226804  , 0.026060156829  , 0.083603167792  , 0.024262263742  , 0.139327073899  , 0.037568759022  , 0.043945729158  , 0.072019796911  , 0.011837066305  , 0.160696979386  , 0.049560542708  , 0.037634408602  , 0.039426523297  , 0.000944527378  , 0.121876975885  , 0.03853046595 );
                        kernels[135] = compute_kernel(x,   0.005102040816  , 0.007653061224  , 0.001232259927  , 0.02209248479  , 0.006887755102  , 0.005141388175  , 0.005141388175  , 0.0  , 0.016258496967  , 0.005141388175  , 0.017948717949  , 0.017948717949  , 0.0  , 0.056758829798  , 0.017948717949  , 0.069587628866  , 0.072164948454  , 0.001244963638  , 0.222531808949  , 0.070360824742  , 0.001092341903  , 0.001326415168  , 7.4020466e-05  , 0.00412645194  , 0.001303007841  , 0.001109309668  , 0.002218619336  , 0.000350794518  , 0.006747667283  , 0.002107688369  , 0.025089605735  , 0.028673835125  , 0.001209585229  , 0.086783512637  , 0.027419354839 );
                        kernels[136] = compute_kernel(x,   0.002551020408  , 0.005102040816  , 0.001075604646  , 0.010204081633  , 0.00306122449  , 0.005141388175  , 0.005141388175  , 0.0  , 0.016258496967  , 0.005141388175  , 0.015384615385  , 0.015384615385  , 0.0  , 0.048650425541  , 0.015384615385  , 0.146907216495  , 0.15206185567  , 0.001802077059  , 0.467852725559  , 0.14793814433  , 0.003355050131  , 0.003550111185  , 6.1683721e-05  , 0.011166287037  , 0.003530605079  , 0.010837102142  , 0.011605085758  , 0.000242857743  , 0.036462925307  , 0.011528287397  , 0.030465949821  , 0.030465949821  , 0.0  , 0.096341792514  , 0.030465949821 );
                        kernels[137] = compute_kernel(x,   0.002551020408  , 0.002551020408  , 0.0  , 0.008067034847  , 0.002551020408  , 0.002570694087  , 0.002570694087  , 0.0  , 0.008129248484  , 0.002570694087  , 0.015384615385  , 0.017948717949  , 0.001238579209  , 0.051217908604  , 0.016153846154  , 0.090206185567  , 0.103092783505  , 0.004243673208  , 0.305083232102  , 0.096391752577  , 0.001989622752  , 0.002262708228  , 0.000143928683  , 0.006737376054  , 0.00212616549  , 0.005119890776  , 0.006314531957  , 0.000629631186  , 0.018177815516  , 0.005717211366  , 0.028673835125  , 0.030465949821  , 0.000865673641  , 0.094677268401  , 0.029928315412 );
                        kernels[138] = compute_kernel(x,   0.0  , 0.0  , 0.0  , 0.0  , 0.0  , 0.002570694087  , 0.002570694087  , 0.0  , 0.008129248484  , 0.002570694087  , 0.020512820513  , 0.020512820513  , 0.0  , 0.064867234055  , 0.020512820513  , 0.072164948454  , 0.074742268041  , 0.001086693354  , 0.234748402819  , 0.074226804124  , 0.001638512855  , 0.001989622752  , 0.000148040931  , 0.005421714893  , 0.001708734834  , 0.003583923543  , 0.005205222289  , 0.000683599574  , 0.012527758852  , 0.003908183292  , 0.02688172043  , 0.030465949821  , 0.00119474313  , 0.090745440152  , 0.028673835125 );
                        kernels[139] = compute_kernel(x,   0.005102040816  , 0.005102040816  , 0.0  , 0.016134069695  , 0.005102040816  , 0.005141388175  , 0.005141388175  , 0.0  , 0.016258496967  , 0.005141388175  , 0.015384615385  , 0.017948717949  , 0.00132409687  , 0.05204559777  , 0.01641025641  , 0.185567010309  , 0.193298969072  , 0.002836352924  , 0.603989772633  , 0.190979381443  , 0.003550111185  , 0.003862208871  , 0.000131591939  , 0.011430644344  , 0.003612530722  , 0.011605085758  , 0.012714395426  , 0.000467726024  , 0.037426405461  , 0.011826947692  , 0.02688172043  , 0.030465949821  , 0.001253057166  , 0.093017485823  , 0.029390681004 );
                        kernels[140] = compute_kernel(x,   0.178571428571  , 0.186224489796  , 0.002755416964  , 0.576852222018  , 0.182397959184  , 0.141388174807  , 0.149100257069  , 0.002980724444  , 0.457764038231  , 0.144730077121  , 0.220512820513  , 0.233333333333  , 0.004054202128  , 0.717696842265  , 0.226923076923  , 0.175257731959  , 0.260309278351  , 0.029566248247  , 0.687105861476  , 0.215463917526  , 0.000897280849  , 0.007568368899  , 0.002109583271  , 0.008032821677  , 0.001564389654  , 0.0  , 0.024404812697  , 0.007717479399  , 0.024404812697  , 0.00244048127  , 0.340501792115  , 0.34229390681  , 0.000865673641  , 1.080731345791  , 0.341756272401 );
                        kernels[141] = compute_kernel(x,   0.188775510204  , 0.198979591837  , 0.003887458997  , 0.612399002714  , 0.19362244898  , 0.149100257069  , 0.154241645244  , 0.002027790843  , 0.478038519983  , 0.151156812339  , 0.233333333333  , 0.246153846154  , 0.004264948701  , 0.761486659725  , 0.240769230769  , 0.270618556701  , 0.332474226804  , 0.02019174508  , 0.960375818757  , 0.303092783505  , 0.007568368899  , 0.007568368899  , 0.0  , 0.023933283895  , 0.007568368899  , 0.024404812697  , 0.024404812697  , 0.0  , 0.077174793993  , 0.024404812697  , 0.340501792115  , 0.344086021505  , 0.001569166731  , 1.081871900105  , 0.342114695341 );
                        kernels[142] = compute_kernel(x,   0.433673469388  , 0.441326530612  , 0.002420110454  , 1.381902141897  , 0.436989795918  , 0.354755784062  , 0.359897172237  , 0.001896824646  , 1.129166953145  , 0.35706940874  , 0.341025641026  , 0.34358974359  , 0.001238579209  , 1.080856674383  , 0.341794871795  , 0.134020618557  , 0.144329896907  , 0.003531753401  , 0.439423541937  , 0.138917525773  , 0.000390122108  , 0.000546170952  , 7.5378753e-05  , 0.001595213069  , 0.000499356299  , 0.0  , 0.0  , 0.0  , 0.0  , 0.0  , 0.345878136201  , 0.347670250896  , 0.000925444049  , 1.097166514507  , 0.346953405018 );
                        kernels[143] = compute_kernel(x,   0.487244897959  , 0.492346938776  , 0.001721807545  , 1.546459206936  , 0.489030612245  , 0.491002570694  , 0.501285347044  , 0.003522674343  , 1.568167642344  , 0.49588688946  , 0.45641025641  , 0.471794871795  , 0.005128205128  , 1.467701804338  , 0.464102564103  , 0.317010309278  , 0.335051546392  , 0.005976813447  , 1.03034132801  , 0.325773195876  , 0.004876526353  , 0.006710100261  , 0.000773102641  , 0.016742011981  , 0.005243241134  , 0.016298318969  , 0.022100861848  , 0.002446566896  , 0.055695401952  , 0.017458827545  , 0.344086021505  , 0.345878136201  , 0.000755621902  , 1.089231330695  , 0.344444444444 );
                        decisions[0] = -1.513909522984
                        + kernels[0]
                        + kernels[1]
                        + kernels[2]
                        + kernels[3]
                        + kernels[4]
                        + kernels[5]
                        + kernels[6]
                        + kernels[7]
                        + kernels[8]
                        + kernels[9]
                        + kernels[10]
                        + kernels[11]
                        + kernels[12]
                        + kernels[13]
                        + kernels[15]
                        + kernels[16]
                        + kernels[17]
                        + kernels[18]
                        + kernels[19]
                        + kernels[20]
                        + kernels[21]
                        + kernels[22]
                        + kernels[23]
                        + kernels[24]
                        + kernels[25]
                        + kernels[26]
                        + kernels[27]
                        + kernels[28] * 0.835567518645
                        + kernels[29]
                        + kernels[30]
                        + kernels[31]
                        + kernels[32]
                        + kernels[33]
                        + kernels[34]
                        + kernels[35]
                        + kernels[36]
                        + kernels[37]
                        + kernels[38]
                        + kernels[39]
                        + kernels[40]
                        + kernels[41]
                        + kernels[42]
                        + kernels[43]
                        + kernels[44]
                        + kernels[45]
                        + kernels[46]
                        + kernels[47]
                        + kernels[48]
                        + kernels[49]
                        + kernels[50]
                        + kernels[51]
                        + kernels[52]
                        + kernels[53]
                        + kernels[54]
                        + kernels[55]
                        + kernels[56]
                        + kernels[57]
                        + kernels[58]
                        + kernels[59]
                        + kernels[60]
                        + kernels[61]
                        + kernels[62]
                        + kernels[63]
                        + kernels[64]
                        + kernels[65]
                        + kernels[66]
                        + kernels[67]
                        - kernels[68]
                        - kernels[69]
                        + kernels[70] * -0.299881249578
                        - kernels[71]
                        - kernels[72]
                        - kernels[73]
                        - kernels[74]
                        - kernels[75]
                        - kernels[76]
                        - kernels[77]
                        - kernels[78]
                        - kernels[79]
                        - kernels[80]
                        - kernels[81]
                        - kernels[82]
                        - kernels[83]
                        - kernels[84]
                        - kernels[85]
                        + kernels[86] * -0.096961057324
                        - kernels[87]
                        - kernels[89]
                        - kernels[90]
                        - kernels[91]
                        - kernels[92]
                        - kernels[93]
                        - kernels[94]
                        - kernels[96]
                        - kernels[97]
                        - kernels[98]
                        - kernels[99]
                        - kernels[100]
                        - kernels[101]
                        - kernels[102]
                        - kernels[103]
                        - kernels[104]
                        - kernels[105]
                        - kernels[106]
                        - kernels[108]
                        - kernels[109]
                        - kernels[110]
                        - kernels[111]
                        - kernels[112]
                        - kernels[113]
                        - kernels[114]
                        + kernels[115] * -0.438725211743
                        - kernels[116]
                        - kernels[117]
                        - kernels[118]
                        - kernels[119]
                        - kernels[120]
                        - kernels[121]
                        - kernels[122]
                        - kernels[123]
                        - kernels[124]
                        - kernels[125]
                        - kernels[126]
                        - kernels[127]
                        - kernels[128]
                        - kernels[129]
                        - kernels[130]
                        - kernels[131]
                        - kernels[132]
                        - kernels[133]
                        - kernels[134]
                        - kernels[135]
                        - kernels[136]
                        - kernels[137]
                        - kernels[138]
                        - kernels[139]
