#pragma once
#include <math.h>
namespace Eloquent {
    namespace ML {
        namespace Port {
            class SVM {
                public:
                    /**
                    * Predict class for features vector
                    */
                    int* predict(float *x) {
                        float kernels[344] = { 0 };
                        float decisions[6] = { 0 };
                        int votes[4] = { 0 };
                        kernels[0] = compute_kernel(x,   0.046683046683  , 0.046683046683  , 0.0  , 0.147624755634  , 0.046683046683  , 0.027638190955  , 0.027638190955  , 0.0  , 0.087399633824  , 0.027638190955  , 0.069230769231  , 0.071794871795  , 0.001238579209  , 0.22463353164  , 0.071025641026  , 0.064432989691  , 0.067010309278  , 0.001086693354  , 0.210300434421  , 0.066494845361  , 0.001716537276  , 0.001833573909  , 3.7010233e-05  , 0.005762329366  , 0.001821870245  , 0.004010581108  , 0.004522570185  , 0.000161905162  , 0.014148057483  , 0.004471371277  , 0.508960573477  , 0.510752688172  , 0.000925444049  , 1.611743908325  , 0.509677419355 );
                        kernels[1] = compute_kernel(x,   0.044226044226  , 0.046683046683  , 0.000776972398  , 0.140651319719  , 0.044471744472  , 0.027638190955  , 0.027638190955  , 0.0  , 0.087399633824  , 0.027638190955  , 0.069230769231  , 0.069230769231  , 0.0  , 0.218926914935  , 0.069230769231  , 0.061855670103  , 0.061855670103  , 0.0  , 0.195604803722  , 0.061855670103  , 0.001599500644  , 0.001599500644  , 0.0  , 0.005058065153  , 0.001599500644  , 0.00349859203  , 0.00349859203  , 0.0  , 0.011063519419  , 0.00349859203  , 0.507168458781  , 0.510752688172  , 0.001267216454  , 1.612312715479  , 0.509856630824 );
                        kernels[2] = compute_kernel(x,   0.078624078624  , 0.078624078624  , 0.0  , 0.248631167384  , 0.078624078624  , 0.05527638191  , 0.05527638191  , 0.0  , 0.174799267647  , 0.05527638191  , 0.007692307692  , 0.007692307692  , 0.0  , 0.024325212771  , 0.007692307692  , 0.090206185567  , 0.092783505155  , 0.000815020016  , 0.292602401517  , 0.092525773196  , 0.004486404245  , 0.004876526353  , 0.000164489924  , 0.015182217237  , 0.004798501931  , 0.014933014762  , 0.016383650482  , 0.000611641724  , 0.050925257827  , 0.016093523338  , 0.043010752688  , 0.044802867384  , 0.000925444049  , 0.139439882896  , 0.044086021505 );
                        kernels[3] = compute_kernel(x,   0.076167076167  , 0.078624078624  , 0.001186844942  , 0.246325984524  , 0.077886977887  , 0.050251256281  , 0.050251256281  , 0.0  , 0.158908425134  , 0.050251256281  , 0.0  , 0.002564102564  , 0.00132409687  , 0.005128205128  , 0.001025641026  , 0.100515463918  , 0.103092783505  , 0.001330922112  , 0.321142708095  , 0.101546391753  , 0.004213318769  , 0.004720477509  , 0.000261895648  , 0.014307538841  , 0.004517614013  , 0.01399436812  , 0.015786329892  , 0.00092536508  , 0.047734878496  , 0.015069545183  , 0.055555555556  , 0.055555555556  , 0.0  , 0.175682092232  , 0.055555555556 );
                        kernels[4] = compute_kernel(x,   0.088452088452  , 0.090909090909  , 0.001035963197  , 0.28128117824  , 0.088943488943  , 0.060301507538  , 0.062814070352  , 0.000794542126  , 0.197855347966  , 0.06256281407  , 0.007692307692  , 0.010256410256  , 0.001081120568  , 0.026148818018  , 0.008205128205  , 0.092783505155  , 0.095360824742  , 0.001086693354  , 0.295055256556  , 0.093298969072  , 0.006593063629  , 0.007256271213  , 0.00027963287  , 0.022542509872  , 0.007123629696  , 0.021674204284  , 0.023551497568  , 0.000791536349  , 0.073327529375  , 0.023176038911  , 0.039426523297  , 0.043010752688  , 0.001017287119  , 0.130947062811  , 0.041397849462 );
                        kernels[5] = compute_kernel(x,   0.100737100737  , 0.103194103194  , 0.001268790613  , 0.323242929488  , 0.102211302211  , 0.070351758794  , 0.072864321608  , 0.001059389501  , 0.228850201743  , 0.072361809045  , 0.010256410256  , 0.010256410256  , 0.0  , 0.032433617027  , 0.010256410256  , 0.115979381443  , 0.118556701031  , 0.000815020016  , 0.374102177425  , 0.118298969072  , 0.003706160028  , 0.004135294347  , 0.000221604009  , 0.01255175066  , 0.00396364062  , 0.012202406349  , 0.013823705094  , 0.000837235072  , 0.041739235954  , 0.013175185596  , 0.039426523297  , 0.041218637993  , 0.000944527378  , 0.127542676334  , 0.040322580645 );
                        kernels[6] = compute_kernel(x,   0.04914004914  , 0.04914004914  , 0.0  , 0.155394479615  , 0.04914004914  , 0.030150753769  , 0.030150753769  , 0.0  , 0.09534505508  , 0.030150753769  , 0.071794871795  , 0.071794871795  , 0.0  , 0.227035319192  , 0.071794871795  , 0.038659793814  , 0.04381443299  , 0.001718213058  , 0.130505040218  , 0.041237113402  , 0.001170366325  , 0.001287402957  , 6.0437457e-05  , 0.003927272282  , 0.001240588304  , 0.00145063572  , 0.00204795631  , 0.000308455027  , 0.005795008737  , 0.001809028074  , 0.508960573477  , 0.510752688172  , 0.000755621902  , 1.610609679525  , 0.509318996416 );
                        kernels[7] = compute_kernel(x,   0.066339066339  , 0.066339066339  , 0.0  , 0.20978254748  , 0.066339066339  , 0.040201005025  , 0.042713567839  , 0.001297481858  , 0.131951417141  , 0.041708542714  , 0.0  , 0.002564102564  , 0.001081120568  , 0.007252377243  , 0.002051282051  , 0.090206185567  , 0.095360824742  , 0.001718213058  , 0.293452480979  , 0.092783505155  , 0.004681465299  , 0.00475948972  , 3.2897985e-05  , 0.014853767991  , 0.004697070183  , 0.015700998379  , 0.015956992917  , 0.000107936775  , 0.049813874038  , 0.015752197286  , 0.05376344086  , 0.055555555556  , 0.000755621902  , 0.174563378665  , 0.055197132616 );
                        kernels[8] = compute_kernel(x,   0.054054054054  , 0.054054054054  , 0.0  , 0.170933927577  , 0.054054054054  , 0.032663316583  , 0.032663316583  , 0.0  , 0.103290476337  , 0.032663316583  , 0.071794871795  , 0.074358974359  , 0.001238579209  , 0.232740865174  , 0.07358974359  , 0.036082474227  , 0.038659793814  , 0.000815020016  , 0.114943830521  , 0.036340206186  , 0.000819256427  , 0.000819256427  , 0.0  , 0.002590716298  , 0.000819256427  , 0.0  , 0.0  , 0.0  , 0.0  , 0.0  , 0.505376344086  , 0.508960573477  , 0.001133432853  , 1.602677661395  , 0.506810035842 );
                        kernels[9] = compute_kernel(x,   0.054054054054  , 0.056511056511  , 0.001035963197  , 0.177176966853  , 0.05601965602  , 0.032663316583  , 0.035175879397  , 0.000794542126  , 0.104112308317  , 0.032914572864  , 0.074358974359  , 0.074358974359  , 0.0  , 0.235143723448  , 0.074358974359  , 0.036082474227  , 0.036082474227  , 0.0  , 0.114102802171  , 0.036082474227  , 0.000819256427  , 0.001131354114  , 0.000131591939  , 0.002815914241  , 0.000881675965  , 0.0  , 0.001194641181  , 0.000503704949  , 0.00168947776  , 0.000238928236  , 0.505376344086  , 0.508960573477  , 0.000844810969  , 1.603809489677  , 0.507168458781 );
                        kernels[10] = compute_kernel(x,   0.130221130221  , 0.130221130221  , 0.0  , 0.41179537098  , 0.130221130221  , 0.103015075377  , 0.103015075377  , 0.0  , 0.325762271525  , 0.103015075377  , 0.025641025641  , 0.025641025641  , 0.0  , 0.081084042568  , 0.025641025641  , 0.128865979381  , 0.139175257732  , 0.003489707218  , 0.419865849145  , 0.132731958763  , 0.000975305271  , 0.001209378535  , 7.4020466e-05  , 0.003756938694  , 0.001185971209  , 0.000511989078  , 0.001535967233  , 0.000323810324  , 0.004636258284  , 0.001433569417  , 0.025089605735  , 0.02688172043  , 0.000944527378  , 0.0822227222  , 0.025985663082 );
                        kernels[11] = compute_kernel(x,   0.110565110565  , 0.110565110565  , 0.0  , 0.349637579134  , 0.110565110565  , 0.075376884422  , 0.077889447236  , 0.001324236876  , 0.242367909344  , 0.076633165829  , 0.010256410256  , 0.010256410256  , 0.0  , 0.032433617027  , 0.010256410256  , 0.121134020619  , 0.126288659794  , 0.001630040031  , 0.392870082728  , 0.124226804124  , 0.003433074552  , 0.003706160028  , 0.000115142947  , 0.011552358157  , 0.003651542933  , 0.011178428194  , 0.012202406349  , 0.000431747099  , 0.037961879291  , 0.011997610718  , 0.041218637993  , 0.043010752688  , 0.000865673641  , 0.132070463641  , 0.041756272401 );
                        kernels[12] = compute_kernel(x,   0.068796068796  , 0.071253071253  , 0.001268790613  , 0.222246703699  , 0.07027027027  , 0.042713567839  , 0.045226130653  , 0.000794542126  , 0.135887610884  , 0.042964824121  , 0.002564102564  , 0.002564102564  , 0.0  , 0.008108404257  , 0.002564102564  , 0.103092783505  , 0.10824742268  , 0.001822440158  , 0.338277491382  , 0.106958762887  , 0.004525416455  , 0.004525416455  , 0.0  , 0.01431062336  , 0.004525416455  , 0.015103677788  , 0.015103677788  , 0.0  , 0.047762022856  , 0.015103677788  , 0.05376344086  , 0.055555555556  , 0.000925444049  , 0.172304162605  , 0.054480286738 );
                        kernels[13] = compute_kernel(x,   0.07371007371  , 0.076167076167  , 0.000776972398  , 0.233880307399  , 0.073955773956  , 0.045226130653  , 0.045226130653  , 0.0  , 0.143017582621  , 0.045226130653  , 0.074358974359  , 0.076923076923  , 0.001238579209  , 0.240848270798  , 0.076153846154  , 0.064432989691  , 0.069587628866  , 0.00190171337  , 0.211167266431  , 0.06675257732  , 0.003120976866  , 0.00378418445  , 0.000320359699  , 0.010542468023  , 0.003319939141  , 0.009983787013  , 0.012373069375  , 0.001154133029  , 0.034014857916  , 0.010700571721  , 0.496415770609  , 0.498207885305  , 0.000944527378  , 1.572640636461  , 0.497311827957 );
                        kernels[14] = compute_kernel(x,   0.140049140049  , 0.142506142506  , 0.001268790613  , 0.447552287924  , 0.141523341523  , 0.090452261307  , 0.092964824121  , 0.001059389501  , 0.292408774391  , 0.092462311558  , 0.092307692308  , 0.092307692308  , 0.0  , 0.291902553246  , 0.092307692308  , 0.131443298969  , 0.134020618557  , 0.001244963638  , 0.418121949319  , 0.132216494845  , 0.002457769282  , 0.002769866968  , 0.000131591939  , 0.008570797155  , 0.002707447431  , 0.007253178599  , 0.00844781978  , 0.000503704949  , 0.026002739699  , 0.008208891544  , 0.487455197133  , 0.489247311828  , 0.000865673641  , 1.545437877286  , 0.488709677419 );
                        kernels[15] = compute_kernel(x,   0.066339066339  , 0.068796068796  , 0.000776972398  , 0.216787830514  , 0.06855036855  , 0.042713567839  , 0.042713567839  , 0.0  , 0.135072161364  , 0.042713567839  , 0.0  , 0.002564102564  , 0.000810840426  , 0.007692307692  , 0.002307692308  , 0.100515463918  , 0.103092783505  , 0.001330922112  , 0.322772622772  , 0.10206185567  , 0.004369367612  , 0.004603440877  , 7.4020466e-05  , 0.014485040024  , 0.004580033551  , 0.014506357198  , 0.015359672327  , 0.000269841937  , 0.04830848999  , 0.015274340814  , 0.055555555556  , 0.055555555556  , 0.0  , 0.175682092232  , 0.055555555556 );
                        kernels[16] = compute_kernel(x,   0.04914004914  , 0.051597051597  , 0.001268790613  , 0.160101568134  , 0.050614250614  , 0.030150753769  , 0.030150753769  , 0.0  , 0.09534505508  , 0.030150753769  , 0.069230769231  , 0.071794871795  , 0.00132409687  , 0.223827208644  , 0.070769230769  , 0.033505154639  , 0.033505154639  , 0.0  , 0.105952602016  , 0.033505154639  , 0.001170366325  , 0.00140443959  , 0.000123367443  , 0.004087913829  , 0.001287402957  , 0.00145063572  , 0.002559945388  , 0.00058465753  , 0.006579386134  , 0.002005290554  , 0.507168458781  , 0.508960573477  , 0.000865673641  , 1.607776599601  , 0.508422939068 );
                        kernels[17] = compute_kernel(x,   0.076167076167  , 0.076167076167  , 0.0  , 0.240861443403  , 0.076167076167  , 0.047738693467  , 0.047738693467  , 0.0  , 0.150963003877  , 0.047738693467  , 0.002564102564  , 0.002564102564  , 0.0  , 0.008108404257  , 0.002564102564  , 0.110824742268  , 0.110824742268  , 0.0  , 0.350458606668  , 0.110824742268  , 0.003940233293  , 0.004642453088  , 0.000339204387  , 0.013165681936  , 0.004150899231  , 0.013055721478  , 0.015530335353  , 0.001195352065  , 0.043780554949  , 0.01379810564  , 0.05376344086  , 0.055555555556  , 0.000755621902  , 0.171163372516  , 0.054121863799 );
                        kernels[18] = compute_kernel(x,   0.120393120393  , 0.120393120393  , 0.0  , 0.380716475057  , 0.120393120393  , 0.095477386935  , 0.095477386935  , 0.0  , 0.301926007755  , 0.095477386935  , 0.023076923077  , 0.025641025641  , 0.000810840426  , 0.080310050069  , 0.025384615385  , 0.10824742268  , 0.10824742268  , 0.0  , 0.342308406513  , 0.10824742268  , 0.000702219795  , 0.000819256427  , 3.7010233e-05  , 0.002260352817  , 0.000713923458  , 0.0  , 0.0  , 0.0  , 0.0  , 0.0  , 0.028673835125  , 0.028673835125  , 0.0  , 0.090674628249  , 0.028673835125 );
                        kernels[19] = compute_kernel(x,   0.068796068796  , 0.071253071253  , 0.000776972398  , 0.224557120904  , 0.071007371007  , 0.042713567839  , 0.045226130653  , 0.001213683145  , 0.140681082203  , 0.044472361809  , 0.002564102564  , 0.002564102564  , 0.0  , 0.008108404257  , 0.002564102564  , 0.100515463918  , 0.105670103093  , 0.001630040031  , 0.32441482428  , 0.102577319588  , 0.004954550774  , 0.004954550774  , 0.0  , 0.01566766523  , 0.004954550774  , 0.016554313508  , 0.016554313508  , 0.0  , 0.052349335786  , 0.016554313508  , 0.055555555556  , 0.057347670251  , 0.000755621902  , 0.176830055678  , 0.055913978495 );
                        kernels[20] = compute_kernel(x,   0.120393120393  , 0.12285012285  , 0.001035963197  , 0.386944735525  , 0.122358722359  , 0.06783919598  , 0.070351758794  , 0.001324236876  , 0.218535197126  , 0.069095477387  , 0.102564102564  , 0.102564102564  , 0.0  , 0.324336170274  , 0.102564102564  , 0.159793814433  , 0.180412371134  , 0.007192933226  , 0.548932770689  , 0.173453608247  , 0.001170366325  , 0.002028634963  , 0.000443208019  , 0.004967895254  , 0.00151367378  , 0.001365304207  , 0.005375885314  , 0.002071055178  , 0.011259880333  , 0.00296953665  , 0.494623655914  , 0.498207885305  , 0.001253057166  , 1.57207586176  , 0.497132616487 );
                        kernels[21] = compute_kernel(x,   0.061425061425  , 0.063882063882  , 0.001035963197  , 0.195821708552  , 0.061916461916  , 0.037688442211  , 0.037688442211  , 0.0  , 0.119181318851  , 0.037688442211  , 0.002564102564  , 0.005128205128  , 0.001238579209  , 0.011176663958  , 0.003333333333  , 0.118556701031  , 0.121134020619  , 0.001086693354  , 0.376553359801  , 0.119072164948  , 0.006319978153  , 0.006398002575  , 4.0291638e-05  , 0.020084583414  , 0.006351187922  , 0.020906220667  , 0.021076883693  , 8.8130008e-05  , 0.066327675072  , 0.020974485878  , 0.05376344086  , 0.057347670251  , 0.001017287119  , 0.175141967275  , 0.055376344086 );
                        kernels[22] = compute_kernel(x,   0.120393120393  , 0.12285012285  , 0.001035963197  , 0.386944735525  , 0.122358722359  , 0.095477386935  , 0.097989949749  , 0.001297481858  , 0.306717960306  , 0.096984924623  , 0.025641025641  , 0.025641025641  , 0.0  , 0.081084042568  , 0.025641025641  , 0.10824742268  , 0.113402061856  , 0.001630040031  , 0.352122604229  , 0.111340206186  , 0.000819256427  , 0.000819256427  , 0.0  , 0.002590716298  , 0.000819256427  , 0.0  , 0.0  , 0.0  , 0.0  , 0.0  , 0.025089605735  , 0.028673835125  , 0.001209585229  , 0.086783512637  , 0.027419354839 );
                        kernels[23] = compute_kernel(x,   0.125307125307  , 0.127764127764  , 0.001186844942  , 0.401710509399  , 0.127027027027  , 0.100502512563  , 0.100502512563  , 0.0  , 0.317816850268  , 0.100502512563  , 0.025641025641  , 0.025641025641  , 0.0  , 0.081084042568  , 0.025641025641  , 0.118556701031  , 0.123711340206  , 0.002033017108  , 0.381478126022  , 0.120618556701  , 0.000897280849  , 0.000897280849  , 0.0  , 0.002837451183  , 0.000897280849  , 8.5331513e-05  , 8.5331513e-05  , 0.0  , 0.000269841937  , 8.5331513e-05  , 0.025089605735  , 0.028673835125  , 0.001133432853  , 0.08620798187  , 0.027240143369 );
                        kernels[24] = compute_kernel(x,   0.081081081081  , 0.081081081081  , 0.0  , 0.256400891365  , 0.081081081081  , 0.047738693467  , 0.050251256281  , 0.001297481858  , 0.154190311483  , 0.048743718593  , 0.082051282051  , 0.084615384615  , 0.000810840426  , 0.266777590342  , 0.084358974359  , 0.079896907216  , 0.085051546392  , 0.00190171337  , 0.261683623162  , 0.082731958763  , 0.00046814653  , 0.001326415168  , 0.000271408374  , 0.004006688901  , 0.001240588304  , 0.0  , 0.002133287823  , 0.000674604843  , 0.00639986347  , 0.001919959041  , 0.501792114695  , 0.503584229391  , 0.000865673641  , 1.58850826654  , 0.502329749104 );
                        kernels[25] = compute_kernel(x,   0.078624078624  , 0.081081081081  , 0.001035963197  , 0.250204415098  , 0.079115479115  , 0.052763819095  , 0.05527638191  , 0.000794542126  , 0.174021050964  , 0.055025125628  , 0.007692307692  , 0.007692307692  , 0.0  , 0.024325212771  , 0.007692307692  , 0.087628865979  , 0.090206185567  , 0.000815020016  , 0.284452494072  , 0.089948453608  , 0.004486404245  , 0.004564428666  , 3.2897985e-05  , 0.014236944983  , 0.004502009129  , 0.014933014762  , 0.015274340814  , 0.0001439157  , 0.04744017721  , 0.015001279973  , 0.041218637993  , 0.043010752688  , 0.000925444049  , 0.133773889652  , 0.04229390681 );
                        kernels[26] = compute_kernel(x,   0.081081081081  , 0.081081081081  , 0.0  , 0.256400891365  , 0.081081081081  , 0.05527638191  , 0.05527638191  , 0.0  , 0.174799267647  , 0.05527638191  , 0.007692307692  , 0.007692307692  , 0.0  , 0.024325212771  , 0.007692307692  , 0.092783505155  , 0.095360824742  , 0.001244963638  , 0.295875839649  , 0.093556701031  , 0.004681465299  , 0.005032575196  , 0.000111030698  , 0.014918842756  , 0.004716576288  , 0.015615666866  , 0.01689563956  , 0.000404762906  , 0.049800643581  , 0.015743664135  , 0.041218637993  , 0.044802867384  , 0.001209585229  , 0.134360803926  , 0.04247311828 );
                        kernels[27] = compute_kernel(x,   0.07371007371  , 0.076167076167  , 0.001035963197  , 0.234666245367  , 0.074201474201  , 0.045226130653  , 0.045226130653  , 0.0  , 0.143017582621  , 0.045226130653  , 0.079487179487  , 0.082051282051  , 0.000810840426  , 0.258669533728  , 0.081794871795  , 0.056701030928  , 0.061855670103  , 0.001718213058  , 0.18752546148  , 0.059278350515  , 0.001248390746  , 0.001521476222  , 0.000141020733  , 0.004313981492  , 0.001357624937  , 0.001791961771  , 0.002986602952  , 0.000616910053  , 0.00741255359  , 0.002269818244  , 0.503584229391  , 0.505376344086  , 0.000865673641  , 1.594175423259  , 0.504121863799 );
                        kernels[28] = compute_kernel(x,   0.068796068796  , 0.068796068796  , 0.0  , 0.217552271461  , 0.068796068796  , 0.042713567839  , 0.042713567839  , 0.0  , 0.135072161364  , 0.042713567839  , 0.079487179487  , 0.079487179487  , 0.0  , 0.251360531962  , 0.079487179487  , 0.051546391753  , 0.05412371134  , 0.001358366693  , 0.167128792133  , 0.052835051546  , 0.000507158741  , 0.000663207584  , 8.0583276e-05  , 0.001915177733  , 0.000600788047  , 0.0  , 0.0  , 0.0  , 0.0  , 0.0  , 0.501792114695  , 0.503584229391  , 0.000925444049  , 1.589075285374  , 0.502508960573 );
                        kernels[29] = compute_kernel(x,   0.07371007371  , 0.076167076167  , 0.001294953997  , 0.237008422405  , 0.074938574939  , 0.047738693467  , 0.047738693467  , 0.0  , 0.150963003877  , 0.047738693467  , 0.002564102564  , 0.005128205128  , 0.000810840426  , 0.00924500327  , 0.002820512821  , 0.113402061856  , 0.115979381443  , 0.001086693354  , 0.360253598046  , 0.113917525773  , 0.004525416455  , 0.004603440877  , 3.2897985e-05  , 0.014508346958  , 0.004587835993  , 0.015018346275  , 0.015359672327  , 0.0001439157  , 0.048357602522  , 0.015291407117  , 0.051971326165  , 0.055555555556  , 0.001209585229  , 0.171753415166  , 0.054301075269 );
                        kernels[30] = compute_kernel(x,   0.083538083538  , 0.083538083538  , 0.0  , 0.264170615346  , 0.083538083538  , 0.057788944724  , 0.057788944724  , 0.0  , 0.182744688904  , 0.057788944724  , 0.007692307692  , 0.007692307692  , 0.0  , 0.024325212771  , 0.007692307692  , 0.09793814433  , 0.105670103093  , 0.002489927276  , 0.321204754666  , 0.101546391753  , 0.005032575196  , 0.005032575196  , 0.0  , 0.015914400116  , 0.005032575196  , 0.01689563956  , 0.01689563956  , 0.0  , 0.053428703534  , 0.01689563956  , 0.041218637993  , 0.044802867384  , 0.001322338329  , 0.136636258904  , 0.043189964158 );
                        kernels[31] = compute_kernel(x,   0.066339066339  , 0.068796068796  , 0.001035963197  , 0.211359343171  , 0.06683046683  , 0.040201005025  , 0.042713567839  , 0.001297481858  , 0.130363032875  , 0.041206030151  , 0.079487179487  , 0.079487179487  , 0.0  , 0.251360531962  , 0.079487179487  , 0.046391752577  , 0.051546391753  , 0.001463005702  , 0.155730683918  , 0.049226804124  , 0.000858268638  , 0.001326415168  , 0.000226136258  , 0.003811235436  , 0.001185971209  , 0.0  , 0.002218619336  , 0.001071694955  , 0.005869915017  , 0.001553033535  , 0.501792114695  , 0.505376344086  , 0.001133432853  , 1.593610219094  , 0.50394265233 );
                        kernels[32] = compute_kernel(x,   0.09828009828  , 0.09828009828  , 0.0  , 0.31078895923  , 0.09828009828  , 0.06783919598  , 0.070351758794  , 0.001297481858  , 0.217739337119  , 0.068844221106  , 0.010256410256  , 0.010256410256  , 0.0  , 0.032433617027  , 0.010256410256  , 0.115979381443  , 0.118556701031  , 0.001358366693  , 0.37085649704  , 0.117268041237  , 0.004174306558  , 0.00425233098  , 4.1122481e-05  , 0.013324254951  , 0.004213318769  , 0.013909036607  , 0.014165031146  , 0.000134920969  , 0.044390844028  , 0.014037033877  , 0.043010752688  , 0.043010752688  , 0.0  , 0.136011942373  , 0.043010752688 );
                        kernels[33] = compute_kernel(x,   0.056511056511  , 0.061425061425  , 0.001158242066  , 0.186505746578  , 0.058968058968  , 0.035175879397  , 0.035175879397  , 0.0  , 0.111235897594  , 0.035175879397  , 0.007692307692  , 0.007692307692  , 0.0  , 0.024325212771  , 0.007692307692  , 0.115979381443  , 0.121134020619  , 0.001739558138  , 0.372500705272  , 0.117783505155  , 0.006007880467  , 0.006202941521  , 0.000100729095  , 0.019371045709  , 0.006124917099  , 0.019967574025  , 0.020479563103  , 0.000264390023  , 0.06411935027  , 0.020274767472  , 0.051971326165  , 0.055555555556  , 0.001017287119  , 0.169475692215  , 0.053584229391 );
                        kernels[34] = compute_kernel(x,   0.095823095823  , 0.095823095823  , 0.0  , 0.30301923525  , 0.095823095823  , 0.057788944724  , 0.057788944724  , 0.0  , 0.182744688904  , 0.057788944724  , 0.084615384615  , 0.087179487179  , 0.001238579209  , 0.273278485862  , 0.08641025641  , 0.085051546392  , 0.092783505155  , 0.002783823324  , 0.281305902794  , 0.088917525773  , 0.001482464011  , 0.001482464011  , 0.0  , 0.004687962825  , 0.001482464011  , 0.002815939927  , 0.00290127144  , 3.5978925e-05  , 0.008959402508  , 0.002833006229  , 0.491039426523  , 0.492831541219  , 0.000755621902  , 1.553938095048  , 0.491397849462 );
                        kernels[35] = compute_kernel(x,   0.068796068796  , 0.071253071253  , 0.001035963197  , 0.219128256919  , 0.069287469287  , 0.042713567839  , 0.042713567839  , 0.0  , 0.135072161364  , 0.042713567839  , 0.079487179487  , 0.079487179487  , 0.0  , 0.251360531962  , 0.079487179487  , 0.05412371134  , 0.056701030928  , 0.001330922112  , 0.174459979389  , 0.055154639175  , 0.000663207584  , 0.000858268638  , 0.000102806202  , 0.002425354979  , 0.000760738111  , 0.0  , 0.0  , 0.0  , 0.0  , 0.0  , 0.503584229391  , 0.505376344086  , 0.000944527378  , 1.595309257249  , 0.504480286738 );
                        kernels[36] = compute_kernel(x,   0.095823095823  , 0.095823095823  , 0.0  , 0.30301923525  , 0.095823095823  , 0.065326633166  , 0.06783919598  , 0.000794542126  , 0.213745122989  , 0.067587939698  , 0.010256410256  , 0.010256410256  , 0.0  , 0.032433617027  , 0.010256410256  , 0.110824742268  , 0.113402061856  , 0.001358366693  , 0.354557126088  , 0.112113402062  , 0.003979245504  , 0.004369367612  , 0.00020145819  , 0.013090907608  , 0.004135294347  , 0.013226384504  , 0.014591688711  , 0.000705040061  , 0.04360381864  , 0.013772506187  , 0.041218637993  , 0.043010752688  , 0.000865673641  , 0.134336898437  , 0.04247311828 );
                        kernels[37] = compute_kernel(x,   0.093366093366  , 0.095823095823  , 0.001268790613  , 0.299935499267  , 0.09484029484  , 0.070351758794  , 0.070351758794  , 0.0  , 0.222471795188  , 0.070351758794  , 0.002564102564  , 0.005128205128  , 0.001351400709  , 0.012820512821  , 0.003846153846  , 0.110824742268  , 0.113402061856  , 0.001330922112  , 0.353741221128  , 0.111855670103  , 0.003706160028  , 0.004135294347  , 0.000135704187  , 0.011862599155  , 0.00374907346  , 0.012202406349  , 0.013653042068  , 0.000458731293  , 0.03907037297  , 0.012347469921  , 0.051971326165  , 0.055555555556  , 0.001322338329  , 0.170627766239  , 0.05394265233 );
                        kernels[38] = compute_kernel(x,   0.063882063882  , 0.063882063882  , 0.0  , 0.2020128235  , 0.063882063882  , 0.037688442211  , 0.040201005025  , 0.000794542126  , 0.126354683022  , 0.039949748744  , 0.0  , 0.002564102564  , 0.000810840426  , 0.007692307692  , 0.002307692308  , 0.095360824742  , 0.09793814433  , 0.001330922112  , 0.304843635053  , 0.096391752577  , 0.004798501931  , 0.005539733937  , 0.000382770562  , 0.016152657152  , 0.005094994733  , 0.01604232443  , 0.018431606792  , 0.001233820106  , 0.053879806557  , 0.016998037375  , 0.055555555556  , 0.055555555556  , 0.0  , 0.175682092232  , 0.055555555556 );
                        kernels[39] = compute_kernel(x,   0.078624078624  , 0.078624078624  , 0.0  , 0.248631167384  , 0.078624078624  , 0.050251256281  , 0.052763819095  , 0.001059389501  , 0.160528973316  , 0.050753768844  , 0.0  , 0.002564102564  , 0.001081120568  , 0.003626188621  , 0.000512820513  , 0.103092783505  , 0.105670103093  , 0.001330922112  , 0.330922214681  , 0.104639175258  , 0.00475948972  , 0.00522763625  , 0.000246734886  , 0.0158083717  , 0.004993562985  , 0.015871661405  , 0.01749296015  , 0.000854499467  , 0.052816346454  , 0.016682310777  , 0.05376344086  , 0.055555555556  , 0.000566716427  , 0.175123628762  , 0.055376344086 );
                        kernels[40] = compute_kernel(x,   0.125307125307  , 0.127764127764  , 0.000776972398  , 0.39703973758  , 0.125552825553  , 0.070351758794  , 0.072864321608  , 0.001297481858  , 0.227272382929  , 0.071859296482  , 0.102564102564  , 0.102564102564  , 0.0  , 0.324336170274  , 0.102564102564  , 0.15206185567  , 0.159793814433  , 0.002730283262  , 0.49478495121  , 0.156443298969  , 0.000663207584  , 0.000663207584  , 0.0  , 0.002097246527  , 0.000663207584  , 0.0  , 0.0  , 0.0  , 0.0  , 0.0  , 0.496415770609  , 0.498207885305  , 0.000865673641  , 1.57150679671  , 0.496953405018 );
                        kernels[41] = compute_kernel(x,   0.063882063882  , 0.063882063882  , 0.0  , 0.2020128235  , 0.063882063882  , 0.037688442211  , 0.040201005025  , 0.001324236876  , 0.123218088796  , 0.038944723618  , 0.002564102564  , 0.002564102564  , 0.0  , 0.008108404257  , 0.002564102564  , 0.103092783505  , 0.105670103093  , 0.001244963638  , 0.33173417196  , 0.104896907216  , 0.005578746148  , 0.005890843834  , 0.000164489924  , 0.018141726717  , 0.005734794991  , 0.018602269818  , 0.01954091646  , 0.000494710218  , 0.06032793128  , 0.019071593139  , 0.05376344086  , 0.055555555556  , 0.000865673641  , 0.171734714811  , 0.054301075269 );
                        kernels[42] = compute_kernel(x,   0.12285012285  , 0.125307125307  , 0.001268790613  , 0.391612587536  , 0.123832923833  , 0.070351758794  , 0.070351758794  , 0.0  , 0.222471795188  , 0.070351758794  , 0.102564102564  , 0.102564102564  , 0.0  , 0.324336170274  , 0.102564102564  , 0.149484536082  , 0.159793814433  , 0.003260080062  , 0.484220669439  , 0.153092783505  , 0.000663207584  , 0.001170366325  , 0.000261895648  , 0.002849227111  , 0.00086607108  , 0.0  , 0.001365304207  , 0.000705040061  , 0.002730608414  , 0.000546121683  , 0.496415770609  , 0.498207885305  , 0.000755621902  , 1.574339864977  , 0.497849462366 );
                        kernels[43] = compute_kernel(x,   0.063882063882  , 0.066339066339  , 0.001035963197  , 0.203590491262  , 0.064373464373  , 0.037688442211  , 0.040201005025  , 0.000794542126  , 0.126354683022  , 0.039949748744  , 0.076923076923  , 0.079487179487  , 0.000810840426  , 0.250561499614  , 0.079230769231  , 0.04381443299  , 0.046391752577  , 0.000815020016  , 0.139389868897  , 0.044072164948  , 0.001131354114  , 0.001365427379  , 9.8693954e-05  , 0.003737443097  , 0.001178168767  , 0.001109309668  , 0.002389282362  , 0.000539683874  , 0.004611061041  , 0.001365304207  , 0.503584229391  , 0.505376344086  , 0.000925444049  , 1.594742441021  , 0.504301075269 );
                        kernels[44] = compute_kernel(x,   0.078624078624  , 0.078624078624  , 0.0  , 0.248631167384  , 0.078624078624  , 0.057788944724  , 0.060301507538  , 0.001059389501  , 0.189127731322  , 0.059798994975  , 0.010256410256  , 0.010256410256  , 0.0  , 0.032433617027  , 0.010256410256  , 0.128865979381  , 0.144329896907  , 0.005976813447  , 0.420932392521  , 0.132989690722  , 0.005500721726  , 0.005500721726  , 0.0  , 0.017394809429  , 0.005500721726  , 0.018346275279  , 0.018346275279  , 0.0  , 0.058016016464  , 0.018346275279  , 0.044802867384  , 0.046594982079  , 0.000755621902  , 0.142830529356  , 0.045161290323 );
                        kernels[45] = compute_kernel(x,   0.066339066339  , 0.066339066339  , 0.0  , 0.20978254748  , 0.066339066339  , 0.040201005025  , 0.042713567839  , 0.001213683145  , 0.129561538536  , 0.040954773869  , 0.074358974359  , 0.074358974359  , 0.0  , 0.235143723448  , 0.074358974359  , 0.064432989691  , 0.069587628866  , 0.002033017108  , 0.21036359719  , 0.066494845361  , 0.00425233098  , 0.004369367612  , 6.0437457e-05  , 0.013670315103  , 0.004322552959  , 0.014165031146  , 0.014591688711  , 0.000220325019  , 0.045608077202  , 0.014421025685  , 0.501792114695  , 0.501792114695  , 0.0  , 1.58680599435  , 0.501792114695 );
                        kernels[46] = compute_kernel(x,   0.093366093366  , 0.095823095823  , 0.001035963197  , 0.301481310077  , 0.095331695332  , 0.057788944724  , 0.060301507538  , 0.001059389501  , 0.189127731322  , 0.059798994975  , 0.087179487179  , 0.087179487179  , 0.0  , 0.275685744733  , 0.087179487179  , 0.092783505155  , 0.09793814433  , 0.001822440158  , 0.297532542378  , 0.094072164948  , 0.002457769282  , 0.002730854758  , 0.000141020733  , 0.008128594582  , 0.002567003472  , 0.007253178599  , 0.008362488267  , 0.000572845049  , 0.024400336858  , 0.007696902466  , 0.498207885305  , 0.5  , 0.000925444049  , 1.578874405366  , 0.499283154122 );
                        kernels[47] = compute_kernel(x,   0.090909090909  , 0.090909090909  , 0.0  , 0.287479787288  , 0.090909090909  , 0.062814070352  , 0.065326633166  , 0.000794542126  , 0.199444317814  , 0.063065326633  , 0.010256410256  , 0.010256410256  , 0.0  , 0.032433617027  , 0.010256410256  , 0.09793814433  , 0.100515463918  , 0.001330922112  , 0.312993154294  , 0.098969072165  , 0.006358990364  , 0.007256271213  , 0.000433427828  , 0.021000422017  , 0.006628174619  , 0.02099155218  , 0.023551497568  , 0.001236571102  , 0.068909621633  , 0.021759535797  , 0.041218637993  , 0.043010752688  , 0.000865673641  , 0.132070463641  , 0.041756272401 );
                        kernels[48] = compute_kernel(x,   0.081081081081  , 0.081081081081  , 0.0  , 0.256400891365  , 0.081081081081  , 0.052763819095  , 0.05527638191  , 0.001059389501  , 0.168472910696  , 0.053266331658  , 0.0  , 0.002564102564  , 0.001081120568  , 0.003626188621  , 0.000512820513  , 0.110824742268  , 0.113402061856  , 0.000815020016  , 0.357802141129  , 0.113144329897  , 0.00475948972  , 0.005266648461  , 0.000261895648  , 0.016032357458  , 0.005063784965  , 0.015956992917  , 0.017663623176  , 0.000881300076  , 0.053763593575  , 0.016980971073  , 0.05376344086  , 0.055555555556  , 0.000925444049  , 0.172304162605  , 0.054480286738 );
                        kernels[49] = compute_kernel(x,   0.798525798526  , 0.805896805897  , 0.003316700529  , 2.536057426771  , 0.801965601966  , 0.603015075377  , 0.610552763819  , 0.002594963716  , 1.921218632355  , 0.607537688442  , 0.212820512821  , 0.217948717949  , 0.002093580977  , 0.681134915546  , 0.215384615385  , 0.958762886598  , 0.963917525773  , 0.001739558138  , 3.04573426889  , 0.963144329897  , 0.143525923614  , 0.174228533531  , 0.009709017745  , 0.464491979091  , 0.146596184606  , 0.094205990272  , 0.104104445772  , 0.00313016647  , 0.301182092857  , 0.095195835822  , 0.030465949821  , 0.034050179211  , 0.001209585229  , 0.100374422688  , 0.031720430108 );
                        kernels[50] = compute_kernel(x,   0.046683046683  , 0.04914004914  , 0.001268790613  , 0.150780697716  , 0.047665847666  , 0.027638190955  , 0.030150753769  , 0.001324236876  , 0.091458666951  , 0.028894472362  , 0.071794871795  , 0.071794871795  , 0.0  , 0.227035319192  , 0.071794871795  , 0.05412371134  , 0.05412371134  , 0.0  , 0.171154203257  , 0.05412371134  , 0.001521476222  , 0.001716537276  , 9.4223441e-05  , 0.005250730542  , 0.00165801896  , 0.003071934465  , 0.003925249595  , 0.000412190367  , 0.011668908893  , 0.003669255056  , 0.508960573477  , 0.510752688172  , 0.000865673641  , 1.611176893734  , 0.509498207885 );
                        kernels[51] = compute_kernel(x,   0.054054054054  , 0.056511056511  , 0.001035963197  , 0.177176966853  , 0.05601965602  , 0.032663316583  , 0.035175879397  , 0.001213683145  , 0.105736811118  , 0.033417085427  , 0.071794871795  , 0.074358974359  , 0.001081120568  , 0.233544564856  , 0.073846153846  , 0.033505154639  , 0.036082474227  , 0.001086693354  , 0.107632025865  , 0.034020618557  , 0.001131354114  , 0.001365427379  , 9.8693954e-05  , 0.003737443097  , 0.001178168767  , 0.001194641181  , 0.002389282362  , 0.000503704949  , 0.004778564724  , 0.001433569417  , 0.505376344086  , 0.507168458781  , 0.000755621902  , 1.602675657451  , 0.506810035842 );
                        kernels[52] = compute_kernel(x,   0.078624078624  , 0.081081081081  , 0.001268790613  , 0.253321600369  , 0.080098280098  , 0.060301507538  , 0.062814070352  , 0.001213683145  , 0.193108065553  , 0.061055276382  , 0.010256410256  , 0.010256410256  , 0.0  , 0.032433617027  , 0.010256410256  , 0.134020618557  , 0.139175257732  , 0.00190171337  , 0.432813231102  , 0.136855670103  , 0.00616392931  , 0.00616392931  , 0.0  , 0.019492055955  , 0.00616392931  , 0.02039423159  , 0.02039423159  , 0.0  , 0.064492222952  , 0.02039423159  , 0.043010752688  , 0.044802867384  , 0.000865673641  , 0.14000304647  , 0.044265232975 );
                        kernels[53] = compute_kernel(x,   0.081081081081  , 0.083538083538  , 0.000776972398  , 0.263403956539  , 0.083292383292  , 0.050251256281  , 0.050251256281  , 0.0  , 0.158908425134  , 0.050251256281  , 0.084615384615  , 0.084615384615  , 0.0  , 0.267577340476  , 0.084615384615  , 0.087628865979  , 0.090206185567  , 0.000815020016  , 0.277932580476  , 0.087886597938  , 0.000897280849  , 0.001053329692  , 4.9346977e-05  , 0.002890591589  , 0.000912885733  , 8.5331513e-05  , 0.000853315129  , 0.000242857743  , 0.00089088715  , 0.000162129875  , 0.5  , 0.501792114695  , 0.000755621902  , 1.585674181843  , 0.501433691756 );
                        kernels[54] = compute_kernel(x,   0.105651105651  , 0.108108108108  , 0.000776972398  , 0.341098847072  , 0.107862407862  , 0.072864321608  , 0.075376884422  , 0.000794542126  , 0.237580053266  , 0.075125628141  , 0.010256410256  , 0.010256410256  , 0.0  , 0.032433617027  , 0.010256410256  , 0.118556701031  , 0.121134020619  , 0.000815020016  , 0.382252207214  , 0.12087628866  , 0.003394062342  , 0.003706160028  , 0.000131591939  , 0.010937482239  , 0.003456481879  , 0.011007765168  , 0.012117074836  , 0.000467726024  , 0.035538910465  , 0.011229627101  , 0.039426523297  , 0.041218637993  , 0.000865673641  , 0.128670839913  , 0.040681003584 );
                        kernels[55] = compute_kernel(x,   0.108108108108  , 0.110565110565  , 0.001186844942  , 0.344217187679  , 0.108845208845  , 0.075376884422  , 0.075376884422  , 0.0  , 0.238362637701  , 0.075376884422  , 0.010256410256  , 0.010256410256  , 0.0  , 0.032433617027  , 0.010256410256  , 0.118556701031  , 0.121134020619  , 0.001086693354  , 0.381443298969  , 0.120618556701  , 0.003706160028  , 0.003706160028  , 0.0  , 0.011719907062  , 0.003706160028  , 0.012117074836  , 0.012202406349  , 3.5978925e-05  , 0.038371675257  , 0.012134141138  , 0.039426523297  , 0.043010752688  , 0.001133432853  , 0.131522172989  , 0.041577060932 );
                        kernels[56] = compute_kernel(x,   0.061425061425  , 0.063882063882  , 0.000776972398  , 0.201249350169  , 0.063636363636  , 0.037688442211  , 0.040201005025  , 0.000794542126  , 0.119999537048  , 0.037939698492  , 0.002564102564  , 0.002564102564  , 0.0  , 0.008108404257  , 0.002564102564  , 0.105670103093  , 0.113402061856  , 0.002489927276  , 0.345649210261  , 0.109278350515  , 0.005890843834  , 0.006437014786  , 0.000287857366  , 0.019511176339  , 0.00616392931  , 0.01954091646  , 0.021247546719  , 0.000899473123  , 0.064548650555  , 0.02039423159  , 0.055555555556  , 0.055555555556  , 0.0  , 0.175682092232  , 0.055555555556 );
                        kernels[57] = compute_kernel(x,   0.066339066339  , 0.068796068796  , 0.001268790613  , 0.212924462342  , 0.067321867322  , 0.040201005025  , 0.042713567839  , 0.001297481858  , 0.131951417141  , 0.041708542714  , 0.074358974359  , 0.074358974359  , 0.0  , 0.235143723448  , 0.074358974359  , 0.064432989691  , 0.067010309278  , 0.001330922112  , 0.207053585241  , 0.065463917526  , 0.004096282136  , 0.004369367612  , 0.000141020733  , 0.013305737761  , 0.004205516327  , 0.013567710556  , 0.014591688711  , 0.000528780046  , 0.044228566968  , 0.013977301818  , 0.5  , 0.501792114695  , 0.000865673641  , 1.582841109875  , 0.500537634409 );
                        kernels[58] = compute_kernel(x,   0.061425061425  , 0.063882063882  , 0.001035963197  , 0.200482969423  , 0.063390663391  , 0.037688442211  , 0.037688442211  , 0.0  , 0.119181318851  , 0.037688442211  , 0.002564102564  , 0.005128205128  , 0.001238579209  , 0.011176663958  , 0.003333333333  , 0.113402061856  , 0.118556701031  , 0.00190171337  , 0.367618299251  , 0.116237113402  , 0.006319978153  , 0.006437014786  , 6.0437457e-05  , 0.020208400519  , 0.006390200133  , 0.020906220667  , 0.021247546719  , 0.000176260015  , 0.066760989356  , 0.021111016298  , 0.05376344086  , 0.055555555556  , 0.000925444049  , 0.173437449275  , 0.054838709677 );
                        kernels[59] = compute_kernel(x,   0.130221130221  , 0.132678132678  , 0.001035963197  , 0.418022703498  , 0.132186732187  , 0.103015075377  , 0.105527638191  , 0.001213683145  , 0.331344072257  , 0.104773869347  , 0.025641025641  , 0.025641025641  , 0.0  , 0.081084042568  , 0.025641025641  , 0.139175257732  , 0.146907216495  , 0.002730283262  , 0.454040035822  , 0.143556701031  , 0.000702219795  , 0.001209378535  , 0.000160377676  , 0.002429117166  , 0.000752935669  , 0.0  , 0.001535967233  , 0.000485715487  , 0.001535967233  , 0.000153596723  , 0.025089605735  , 0.028673835125  , 0.000844810969  , 0.085045236686  , 0.02688172043 );
                        kernels[60] = compute_kernel(x,   0.135135135135  , 0.137592137592  , 0.000776972398  , 0.428118136802  , 0.135380835381  , 0.108040201005  , 0.108040201005  , 0.0  , 0.341653114038  , 0.108040201005  , 0.025641025641  , 0.025641025641  , 0.0  , 0.081084042568  , 0.025641025641  , 0.14175257732  , 0.146907216495  , 0.001739558138  , 0.453996143895  , 0.143556701031  , 0.000624195373  , 0.000975305271  , 0.000148040931  , 0.002896377512  , 0.000905083291  , 0.0  , 0.000511989078  , 0.00021587355  , 0.001448123795  , 0.000409591262  , 0.02688172043  , 0.02688172043  , 0.0  , 0.085007463983  , 0.02688172043 );
                        kernels[61] = compute_kernel(x,   0.093366093366  , 0.095823095823  , 0.001186844942  , 0.300709397963  , 0.095085995086  , 0.065326633166  , 0.06783919598  , 0.001059389501  , 0.20819429634  , 0.065829145729  , 0.010256410256  , 0.010256410256  , 0.0  , 0.032433617027  , 0.010256410256  , 0.105670103093  , 0.10824742268  , 0.001358366693  , 0.33825785434  , 0.106958762887  , 0.004369367612  , 0.005344672883  , 0.000503645476  , 0.015126478535  , 0.00475948972  , 0.014591688711  , 0.017919617715  , 0.001718535148  , 0.050615759134  , 0.015922860312  , 0.039426523297  , 0.043010752688  , 0.001511243804  , 0.132689120863  , 0.041935483871 );
                        kernels[62] = compute_kernel(x,   0.078624078624  , 0.078624078624  , 0.0  , 0.248631167384  , 0.078624078624  , 0.052763819095  , 0.05527638191  , 0.000794542126  , 0.167665332871  , 0.053015075377  , 0.007692307692  , 0.007692307692  , 0.0  , 0.024325212771  , 0.007692307692  , 0.092783505155  , 0.10824742268  , 0.005323688448  , 0.305235605029  , 0.096391752577  , 0.004369367612  , 0.00522763625  , 0.000414583139  , 0.014684146403  , 0.004626848203  , 0.014506357198  , 0.01749296015  , 0.001442666286  , 0.048898381962  , 0.015402338083  , 0.043010752688  , 0.044802867384  , 0.000755621902  , 0.140563953772  , 0.044444444444 );
                        kernels[63] = compute_kernel(x,   0.09828009828  , 0.09828009828  , 0.0  , 0.31078895923  , 0.09828009828  , 0.065326633166  , 0.06783919598  , 0.001213683145  , 0.208996297908  , 0.06608040201  , 0.0  , 0.0  , 0.0  , 0.0  , 0.0  , 0.100515463918  , 0.105670103093  , 0.001718213058  , 0.326048754657  , 0.103092783505  , 0.003472086763  , 0.003940233293  , 0.000226136258  , 0.012035124773  , 0.003799789334  , 0.011263759706  , 0.012970389965  , 0.000824380735  , 0.039474472246  , 0.012458400887  , 0.05376344086  , 0.057347670251  , 0.000844810969  , 0.175700372456  , 0.055555555556 );
                        kernels[64] = compute_kernel(x,   0.090909090909  , 0.090909090909  , 0.0  , 0.287479787288  , 0.090909090909  , 0.060301507538  , 0.060301507538  , 0.0  , 0.190690110161  , 0.060301507538  , 0.0  , 0.0  , 0.0  , 0.0  , 0.0  , 0.095360824742  , 0.09793814433  , 0.001358366693  , 0.305659671942  , 0.096649484536  , 0.003159989077  , 0.00378418445  , 0.000197387908  , 0.011784141823  , 0.003721764912  , 0.010154450038  , 0.012458400887  , 0.00072857323  , 0.038730073969  , 0.012228005803  , 0.05376344086  , 0.055555555556  , 0.000755621902  , 0.171163372516  , 0.054121863799 );
                        kernels[65] = compute_kernel(x,   0.071253071253  , 0.07371007371  , 0.001035963197  , 0.231558632007  , 0.073218673219  , 0.042713567839  , 0.045226130653  , 0.000794542126  , 0.142243013615  , 0.044974874372  , 0.079487179487  , 0.082051282051  , 0.00132409687  , 0.254634879312  , 0.080512820513  , 0.056701030928  , 0.056701030928  , 0.0  , 0.179304403412  , 0.056701030928  , 0.000897280849  , 0.00093629306  , 2.0145819e-05  , 0.002887430745  , 0.000912885733  , 0.000170663026  , 0.000341326052  , 8.8130008e-05  , 0.000800480546  , 0.000238928236  , 0.503584229391  , 0.505376344086  , 0.000925444049  , 1.594742441021  , 0.504301075269 );
                        kernels[66] = compute_kernel(x,   0.071253071253  , 0.07371007371  , 0.001186844942  , 0.227680754654  , 0.07199017199  , 0.042713567839  , 0.045226130653  , 0.001324236876  , 0.139101613424  , 0.043969849246  , 0.074358974359  , 0.076923076923  , 0.00132409687  , 0.240041635661  , 0.075897435897  , 0.067010309278  , 0.069587628866  , 0.001244963638  , 0.217642393129  , 0.06881443299  , 0.003277025709  , 0.00378418445  , 0.000261895648  , 0.011352352254  , 0.003581320953  , 0.01049577609  , 0.012458400887  , 0.001013495087  , 0.03703938146  , 0.011673350969  , 0.496415770609  , 0.498207885305  , 0.000865673641  , 1.573773659326  , 0.497670250896 );
                        kernels[67] = compute_kernel(x,   0.044226044226  , 0.044226044226  , 0.0  , 0.139855031654  , 0.044226044226  , 0.027638190955  , 0.027638190955  , 0.0  , 0.087399633824  , 0.027638190955  , 0.069230769231  , 0.069230769231  , 0.0  , 0.218926914935  , 0.069230769231  , 0.059278350515  , 0.061855670103  , 0.000815020016  , 0.194805128667  , 0.061597938144  , 0.001638512855  , 0.001638512855  , 0.0  , 0.005181432596  , 0.001638512855  , 0.003669255056  , 0.003669255056  , 0.0  , 0.011603203293  , 0.003669255056  , 0.510752688172  , 0.510752688172  , 0.0  , 1.615141815677  , 0.510752688172 );
                        kernels[68] = compute_kernel(x,   0.117936117936  , 0.117936117936  , 0.0  , 0.372946751076  , 0.117936117936  , 0.092964824121  , 0.095477386935  , 0.001059389501  , 0.295586757183  , 0.093467336683  , 0.025641025641  , 0.025641025641  , 0.0  , 0.081084042568  , 0.025641025641  , 0.10824742268  , 0.110824742268  , 0.001244963638  , 0.34803358752  , 0.110051546392  , 0.001365427379  , 0.001521476222  , 6.5795969e-05  , 0.004420963153  , 0.001396637147  , 0.002303950849  , 0.003071934465  , 0.000323810324  , 0.007831926892  , 0.002457547572  , 0.028673835125  , 0.028673835125  , 0.0  , 0.090674628249  , 0.028673835125 );
                        kernels[69] = compute_kernel(x,   0.063882063882  , 0.063882063882  , 0.0  , 0.2020128235  , 0.063882063882  , 0.037688442211  , 0.040201005025  , 0.001297481858  , 0.122421384071  , 0.038693467337  , 0.076923076923  , 0.076923076923  , 0.0  , 0.243252127705  , 0.076923076923  , 0.041237113402  , 0.04381443299  , 0.001086693354  , 0.132073484282  , 0.04175257732  , 0.00093629306  , 0.001365427379  , 0.000180938916  , 0.004082698226  , 0.001279600515  , 0.000255994539  , 0.002389282362  , 0.000899473123  , 0.006767601351  , 0.001962624797  , 0.505376344086  , 0.505376344086  , 0.0  , 1.598140322881  , 0.505376344086 );
                        kernels[70] = compute_kernel(x,   0.058968058968  , 0.058968058968  , 0.0  , 0.186473375538  , 0.058968058968  , 0.035175879397  , 0.037688442211  , 0.000794542126  , 0.112055794578  , 0.035427135678  , 0.074358974359  , 0.076923076923  , 0.001238579209  , 0.23760530037  , 0.075128205128  , 0.041237113402  , 0.041237113402  , 0.0  , 0.130403202481  , 0.041237113402  , 0.001131354114  , 0.001131354114  , 0.0  , 0.00357765584  , 0.001131354114  , 0.001194641181  , 0.001194641181  , 0.0  , 0.003777787119  , 0.001194641181  , 0.503584229391  , 0.505376344086  , 0.000925444049  , 1.595875872158  , 0.504659498208 );
                        kernels[71] = compute_kernel(x,   0.085995085995  , 0.088452088452  , 0.000776972398  , 0.272727272727  , 0.086240786241  , 0.052763819095  , 0.052763819095  , 0.0  , 0.166853846391  , 0.052763819095  , 0.079487179487  , 0.082051282051  , 0.001081120568  , 0.253003002739  , 0.08  , 0.061855670103  , 0.061855670103  , 0.0  , 0.195604803722  , 0.061855670103  , 0.001677525065  , 0.001677525065  , 0.0  , 0.005304800039  , 0.001677525065  , 0.003754586569  , 0.003754586569  , 0.0  , 0.01187304523  , 0.003754586569  , 0.492831541219  , 0.492831541219  , 0.0  , 1.558470173022  , 0.492831541219 );
                        kernels[72] = compute_kernel(x,   0.051597051597  , 0.051597051597  , 0.0  , 0.163164203596  , 0.051597051597  , 0.030150753769  , 0.030150753769  , 0.0  , 0.09534505508  , 0.030150753769  , 0.071794871795  , 0.071794871795  , 0.0  , 0.227035319192  , 0.071794871795  , 0.033505154639  , 0.033505154639  , 0.0  , 0.105952602016  , 0.033505154639  , 0.001170366325  , 0.001287402957  , 6.0437457e-05  , 0.003853332259  , 0.001217180978  , 0.00145063572  , 0.001962624797  , 0.000264390023  , 0.005294681136  , 0.001655431351  , 0.507168458781  , 0.508960573477  , 0.000865673641  , 1.607776599601  , 0.508422939068 );
                        kernels[73] = compute_kernel(x,   0.093366093366  , 0.095823095823  , 0.000776972398  , 0.296035660364  , 0.093611793612  , 0.05527638191  , 0.057788944724  , 0.000794542126  , 0.181965759382  , 0.057537688442  , 0.084615384615  , 0.087179487179  , 0.000810840426  , 0.268399204185  , 0.084871794872  , 0.077319587629  , 0.082474226804  , 0.002104372631  , 0.252735065405  , 0.079896907216  , 0.001482464011  , 0.002067647174  , 0.000246734886  , 0.005111939556  , 0.001599500644  , 0.00290127144  , 0.005631879853  , 0.001151325598  , 0.011435696266  , 0.003447393122  , 0.491039426523  , 0.492831541219  , 0.000755621902  , 1.557338389998  , 0.49247311828 );
                        kernels[74] = compute_kernel(x,   0.093366093366  , 0.093366093366  , 0.0  , 0.295249511269  , 0.093366093366  , 0.062814070352  , 0.062814070352  , 0.0  , 0.198635531418  , 0.062814070352  , 0.0  , 0.0  , 0.0  , 0.0  , 0.0  , 0.09793814433  , 0.103092783505  , 0.002104372631  , 0.317920493714  , 0.100515463918  , 0.003823196661  , 0.003862208871  , 1.2336744e-05  , 0.012201096221  , 0.00385830765  , 0.012629063913  , 0.012714395426  , 2.6984194e-05  , 0.040179545976  , 0.012705862275  , 0.05376344086  , 0.055555555556  , 0.000865673641  , 0.174001324682  , 0.055017921147 );
                        kernels[75] = compute_kernel(x,   0.09828009828  , 0.100737100737  , 0.001294953997  , 0.314697800937  , 0.099508599509  , 0.06783919598  , 0.06783919598  , 0.0  , 0.214526373931  , 0.06783919598  , 0.0  , 0.0  , 0.0  , 0.0  , 0.0  , 0.103092783505  , 0.105670103093  , 0.001330922112  , 0.32929229389  , 0.10412371134  , 0.003823196661  , 0.003940233293  , 5.6534064e-05  , 0.012202218821  , 0.00385830765  , 0.0125437324  , 0.012970389965  , 0.000206095184  , 0.0400762973  , 0.01267172967  , 0.05376344086  , 0.055555555556  , 0.000865673641  , 0.174001324682  , 0.055017921147 );
                        kernels[76] = compute_kernel(x,   0.054054054054  , 0.054054054054  , 0.0  , 0.170933927577  , 0.054054054054  , 0.032663316583  , 0.032663316583  , 0.0  , 0.103290476337  , 0.032663316583  , 0.071794871795  , 0.074358974359  , 0.000810840426  , 0.227859144236  , 0.072051282051  , 0.033505154639  , 0.036082474227  , 0.000815020016  , 0.113314164624  , 0.035824742268  , 0.000819256427  , 0.001131354114  , 0.000150757505  , 0.003312593877  , 0.001037724808  , 0.0  , 0.001194641181  , 0.000577066514  , 0.003160723471  , 0.000836248827  , 0.507168458781  , 0.508960573477  , 0.000925444049  , 1.606076752497  , 0.507885304659 );
                        kernels[77] = compute_kernel(x,   0.144963144963  , 0.144963144963  , 0.0  , 0.458413714865  , 0.144963144963  , 0.113065326633  , 0.115577889447  , 0.001213683145  , 0.359945998997  , 0.113819095477  , 0.025641025641  , 0.028205128205  , 0.001081120568  , 0.082769294316  , 0.026153846154  , 0.15206185567  , 0.157216494845  , 0.001822440158  , 0.484967728332  , 0.153350515464  , 0.000702219795  , 0.000819256427  , 6.0437457e-05  , 0.002449395256  , 0.000772441774  , 0.0  , 0.0  , 0.0  , 0.0  , 0.0  , 0.025089605735  , 0.02688172043  , 0.000865673641  , 0.083347784618  , 0.026344086022 );
                        kernels[78] = compute_kernel(x,   0.088452088452  , 0.088452088452  , 0.0  , 0.279710063307  , 0.088452088452  , 0.05527638191  , 0.05527638191  , 0.0  , 0.174799267647  , 0.05527638191  , 0.082051282051  , 0.082051282051  , 0.0  , 0.259468936219  , 0.082051282051  , 0.072164948454  , 0.072164948454  , 0.0  , 0.228205604342  , 0.072164948454  , 0.002535793703  , 0.002808879179  , 0.000115142947  , 0.008198878102  , 0.002590410799  , 0.007509173138  , 0.008703814319  , 0.000503704949  , 0.024548201911  , 0.007748101374  , 0.498207885305  , 0.5  , 0.000566716427  , 1.580573028044  , 0.49982078853 );
                        kernels[79] = compute_kernel(x,   0.063882063882  , 0.063882063882  , 0.0  , 0.2020128235  , 0.063882063882  , 0.040201005025  , 0.040201005025  , 0.0  , 0.127126740107  , 0.040201005025  , 0.002564102564  , 0.002564102564  , 0.0  , 0.008108404257  , 0.002564102564  , 0.095360824742  , 0.100515463918  , 0.001718213058  , 0.309750498713  , 0.09793814433  , 0.004798501931  , 0.005266648461  , 0.000241749828  , 0.016078805901  , 0.005079389849  , 0.01604232443  , 0.017578291663  , 0.000793170068  , 0.053697325066  , 0.01696390477  , 0.05376344086  , 0.055555555556  , 0.000925444049  , 0.172304162605  , 0.054480286738 );
                        kernels[80] = compute_kernel(x,   0.061425061425  , 0.061425061425  , 0.0  , 0.194243099519  , 0.061425061425  , 0.035175879397  , 0.037688442211  , 0.001059389501  , 0.117635174982  , 0.037185929648  , 0.074358974359  , 0.076923076923  , 0.001081120568  , 0.241652213402  , 0.07641025641  , 0.04381443299  , 0.046391752577  , 0.001330922112  , 0.143499081516  , 0.045360824742  , 0.001482464011  , 0.001482464011  , 0.0  , 0.004687962825  , 0.001482464011  , 0.00290127144  , 0.00290127144  , 0.0  , 0.009174625859  , 0.00290127144  , 0.505376344086  , 0.507168458781  , 0.000944527378  , 1.600976412606  , 0.506272401434 );
                        kernels[81] = compute_kernel(x,   0.068796068796  , 0.068796068796  , 0.0  , 0.217552271461  , 0.068796068796  , 0.042713567839  , 0.042713567839  , 0.0  , 0.135072161364  , 0.042713567839  , 0.002564102564  , 0.002564102564  , 0.0  , 0.008108404257  , 0.002564102564  , 0.10824742268  , 0.110824742268  , 0.001086693354  , 0.343953896813  , 0.108762886598  , 0.004525416455  , 0.004876526353  , 0.000111030698  , 0.015313522701  , 0.004841415363  , 0.015103677788  , 0.016298318969  , 0.000377778712  , 0.051174582497  , 0.016178854851  , 0.055555555556  , 0.055555555556  , 0.0  , 0.175682092232  , 0.055555555556 );
                        kernels[82] = compute_kernel(x,   0.071253071253  , 0.071253071253  , 0.0  , 0.225321995442  , 0.071253071253  , 0.042713567839  , 0.045226130653  , 0.001059389501  , 0.136698196068  , 0.043216080402  , 0.074358974359  , 0.076923076923  , 0.001351400709  , 0.239232280755  , 0.075641025641  , 0.069587628866  , 0.072164948454  , 0.001086693354  , 0.221709414099  , 0.070103092784  , 0.003511098974  , 0.00378418445  , 0.000141020733  , 0.011456312837  , 0.003620333164  , 0.011434422732  , 0.012458400887  , 0.000528780046  , 0.037487639963  , 0.011844013994  , 0.498207885305  , 0.5  , 0.000566716427  , 1.580573028044  , 0.49982078853 );
                        kernels[83] = compute_kernel(x,   0.083538083538  , 0.083538083538  , 0.0  , 0.264170615346  , 0.083538083538  , 0.050251256281  , 0.050251256281  , 0.0  , 0.158908425134  , 0.050251256281  , 0.079487179487  , 0.079487179487  , 0.0  , 0.251360531962  , 0.079487179487  , 0.067010309278  , 0.074742268041  , 0.002730283262  , 0.225909082112  , 0.071391752577  , 0.001716537276  , 0.001872586119  , 4.9346977e-05  , 0.005874156041  , 0.001856981235  , 0.004010581108  , 0.004778564724  , 0.000242857743  , 0.014886130733  , 0.004701766362  , 0.491039426523  , 0.492831541219  , 0.000925444049  , 1.556205783861  , 0.492114695341 );
                        kernels[84] = compute_kernel(x,   0.063882063882  , 0.066339066339  , 0.000776972398  , 0.209018572358  , 0.066093366093  , 0.040201005025  , 0.040201005025  , 0.0  , 0.127126740107  , 0.040201005025  , 0.079487179487  , 0.079487179487  , 0.0  , 0.251360531962  , 0.079487179487  , 0.046391752577  , 0.048969072165  , 0.001086693354  , 0.148369463553  , 0.046907216495  , 0.001131354114  , 0.0014434518  , 0.000150757505  , 0.004292407028  , 0.001349822494  , 0.001109309668  , 0.002645276901  , 0.000741942661  , 0.007257694744  , 0.002184486731  , 0.503584229391  , 0.505376344086  , 0.000925444049  , 1.595875872158  , 0.504659498208 );
                        kernels[85] = compute_kernel(x,   0.083538083538  , 0.085995085995  , 0.000776972398  , 0.264957840847  , 0.083783783784  , 0.050251256281  , 0.050251256281  , 0.0  , 0.158908425134  , 0.050251256281  , 0.084615384615  , 0.084615384615  , 0.0  , 0.267577340476  , 0.084615384615  , 0.090206185567  , 0.090206185567  , 0.0  , 0.285257005428  , 0.090206185567  , 0.001053329692  , 0.001053329692  , 0.0  , 0.003330920954  , 0.001053329692  , 0.000853315129  , 0.000853315129  , 0.0  , 0.00269841937  , 0.000853315129  , 0.501792114695  , 0.503584229391  , 0.000755621902  , 1.591341340338  , 0.503225806452 );
                        kernels[86] = compute_kernel(x,   0.142506142506  , 0.144963144963  , 0.001186844942  , 0.456096695602  , 0.144226044226  , 0.092964824121  , 0.092964824121  , 0.0  , 0.293980586498  , 0.092964824121  , 0.092307692308  , 0.094871794872  , 0.00132409687  , 0.295172644742  , 0.093333333333  , 0.136597938144  , 0.149484536082  , 0.005038789793  , 0.453403187014  , 0.143298969072  , 0.002457769282  , 0.002574805914  , 3.7010233e-05  , 0.007809948404  , 0.002469472945  , 0.007253178599  , 0.007679836163  , 0.000134920969  , 0.023075035896  , 0.007295844355  , 0.489247311828  , 0.489247311828  , 0.0  , 1.547135844491  , 0.489247311828 );
                        kernels[87] = compute_kernel(x,   0.058968058968  , 0.061425061425  , 0.001186844942  , 0.191945208674  , 0.060687960688  , 0.035175879397  , 0.037688442211  , 0.001213683145  , 0.116854431701  , 0.036934673367  , 0.074358974359  , 0.076923076923  , 0.001351400709  , 0.239232280755  , 0.075641025641  , 0.041237113402  , 0.04381443299  , 0.001086693354  , 0.136962167583  , 0.043298969072  , 0.001482464011  , 0.001482464011  , 0.0  , 0.004687962825  , 0.001482464011  , 0.00290127144  , 0.00290127144  , 0.0  , 0.009174625859  , 0.00290127144  , 0.503584229391  , 0.507168458781  , 0.001017287119  , 1.597576521453  , 0.505197132616 );
                        kernels[88] = compute_kernel(x,   0.088452088452  , 0.090909090909  , 0.000776972398  , 0.286712290007  , 0.090663390663  , 0.05527638191  , 0.057788944724  , 0.000794542126  , 0.175609987488  , 0.055527638191  , 0.082051282051  , 0.084615384615  , 0.00132409687  , 0.264363823975  , 0.08358974359  , 0.072164948454  , 0.074742268041  , 0.001244963638  , 0.230680901665  , 0.07293814433  , 0.002301720438  , 0.002535793703  , 0.000113068129  , 0.007508406486  , 0.002371942418  , 0.006655858008  , 0.007509173138  , 0.000412190367  , 0.021892148465  , 0.006911852547  , 0.498207885305  , 0.5  , 0.000755621902  , 1.580007023389  , 0.499641577061 );
                        kernels[89] = compute_kernel(x,   0.058968058968  , 0.058968058968  , 0.0  , 0.186473375538  , 0.058968058968  , 0.035175879397  , 0.035175879397  , 0.0  , 0.111235897594  , 0.035175879397  , 0.074358974359  , 0.074358974359  , 0.0  , 0.235143723448  , 0.074358974359  , 0.036082474227  , 0.038659793814  , 0.000815020016  , 0.121462594515  , 0.038402061856  , 0.001131354114  , 0.001131354114  , 0.0  , 0.00357765584  , 0.001131354114  , 0.001279972694  , 0.001279972694  , 0.0  , 0.004047629056  , 0.001279972694  , 0.505376344086  , 0.507168458781  , 0.000865673641  , 1.602109442755  , 0.506630824373 );
                        kernels[90] = compute_kernel(x,   0.07371007371  , 0.076167076167  , 0.001035963197  , 0.239327678858  , 0.075675675676  , 0.047738693467  , 0.047738693467  , 0.0  , 0.150963003877  , 0.047738693467  , 0.002564102564  , 0.005128205128  , 0.001238579209  , 0.011176663958  , 0.003333333333  , 0.113402061856  , 0.113402061856  , 0.0  , 0.358608806823  , 0.113402061856  , 0.004603440877  , 0.004642453088  , 1.6448992e-05  , 0.014656135275  , 0.004634650646  , 0.015359672327  , 0.015530335353  , 7.195785e-05  , 0.049003771257  , 0.015496202748  , 0.05376344086  , 0.055555555556  , 0.000566716427  , 0.175123628762  , 0.055376344086 );
                        kernels[91] = compute_kernel(x,   0.083538083538  , 0.083538083538  , 0.0  , 0.264170615346  , 0.083538083538  , 0.047738693467  , 0.050251256281  , 0.000794542126  , 0.158131849021  , 0.05  , 0.079487179487  , 0.082051282051  , 0.001351400709  , 0.255446908271  , 0.080769230769  , 0.085051546392  , 0.090206185567  , 0.002121836604  , 0.279624328553  , 0.088402061856  , 0.001638512855  , 0.001950610541  , 0.000131591939  , 0.005984020439  , 0.001888191004  , 0.003669255056  , 0.00494922775  , 0.000539683874  , 0.01492935725  , 0.004693233211  , 0.491039426523  , 0.492831541219  , 0.000755621902  , 1.557338389998  , 0.49247311828 );
                        kernels[92] = compute_kernel(x,   0.078624078624  , 0.081081081081  , 0.001035963197  , 0.254865896411  , 0.08058968059  , 0.052763819095  , 0.052763819095  , 0.0  , 0.166853846391  , 0.052763819095  , 0.0  , 0.002564102564  , 0.001081120568  , 0.003626188621  , 0.000512820513  , 0.110824742268  , 0.113402061856  , 0.001086693354  , 0.356993652692  , 0.112886597938  , 0.004837514142  , 0.005266648461  , 0.000221604009  , 0.01585432441  , 0.00500916787  , 0.016212987456  , 0.017663623176  , 0.000749105065  , 0.053152423354  , 0.016793241744  , 0.05376344086  , 0.055555555556  , 0.000566716427  , 0.175123628762  , 0.055376344086 );
                        kernels[93] = compute_kernel(x,   0.081081081081  , 0.081081081081  , 0.0  , 0.256400891365  , 0.081081081081  , 0.05527638191  , 0.05527638191  , 0.0  , 0.174799267647  , 0.05527638191  , 0.007692307692  , 0.007692307692  , 0.0  , 0.024325212771  , 0.007692307692  , 0.090206185567  , 0.092783505155  , 0.001358366693  , 0.28936080197  , 0.091494845361  , 0.004564428666  , 0.004681465299  , 3.7010233e-05  , 0.014471426978  , 0.004576132329  , 0.015274340814  , 0.015615666866  , 0.000107936775  , 0.04841072647  , 0.015308473419  , 0.043010752688  , 0.044802867384  , 0.000925444049  , 0.13830667657  , 0.043727598566 );
                        kernels[94] = compute_kernel(x,   0.100737100737  , 0.100737100737  , 0.0  , 0.318558683211  , 0.100737100737  , 0.070351758794  , 0.070351758794  , 0.0  , 0.222471795188  , 0.070351758794  , 0.010256410256  , 0.010256410256  , 0.0  , 0.032433617027  , 0.010256410256  , 0.118556701031  , 0.118556701031  , 0.0  , 0.374909207133  , 0.118556701031  , 0.003823196661  , 0.004135294347  , 0.000161166552  , 0.012494143972  , 0.003948035735  , 0.0125437324  , 0.013823705094  , 0.000660975057  , 0.041333408102  , 0.013055721478  , 0.041218637993  , 0.043010752688  , 0.000925444049  , 0.13264070301  , 0.041935483871 );
                        kernels[95] = compute_kernel(x,   0.12285012285  , 0.125307125307  , 0.001186844942  , 0.390833335001  , 0.123587223587  , 0.097989949749  , 0.097989949749  , 0.0  , 0.309871429011  , 0.097989949749  , 0.025641025641  , 0.025641025641  , 0.0  , 0.081084042568  , 0.025641025641  , 0.113402061856  , 0.118556701031  , 0.001214960105  , 0.366777118087  , 0.115979381443  , 0.000702219795  , 0.000702219795  , 0.0  , 0.00222061397  , 0.000702219795  , 0.0  , 0.0  , 0.0  , 0.0  , 0.0  , 0.028673835125  , 0.028673835125  , 0.0  , 0.090674628249  , 0.028673835125 );
                        kernels[96] = compute_kernel(x,   0.085995085995  , 0.088452088452  , 0.001035963197  , 0.273511942016  , 0.086486486486  , 0.052763819095  , 0.052763819095  , 0.0  , 0.166853846391  , 0.052763819095  , 0.082051282051  , 0.082051282051  , 0.0  , 0.259468936219  , 0.082051282051  , 0.069587628866  , 0.072164948454  , 0.001086693354  , 0.226599016911  , 0.071649484536  , 0.002535793703  , 0.002769866968  , 9.8693954e-05  , 0.008172289991  , 0.002582608356  , 0.007594504651  , 0.008533151293  , 0.000395768174  , 0.024638209129  , 0.007782233979  , 0.5  , 0.5  , 0.0  , 1.581138830084  , 0.5 );
                        kernels[97] = compute_kernel(x,   0.058968058968  , 0.058968058968  , 0.0  , 0.186473375538  , 0.058968058968  , 0.035175879397  , 0.035175879397  , 0.0  , 0.111235897594  , 0.035175879397  , 0.074358974359  , 0.074358974359  , 0.0  , 0.235143723448  , 0.074358974359  , 0.036082474227  , 0.038659793814  , 0.001244963638  , 0.116607690988  , 0.036855670103  , 0.001092341903  , 0.001131354114  , 1.2336744e-05  , 0.003466822699  , 0.001096243124  , 0.001023978155  , 0.001279972694  , 8.0952581e-05  , 0.003327929004  , 0.001049577609  , 0.503584229391  , 0.507168458781  , 0.000844810969  , 1.598142332512  , 0.505376344086 );
                        kernels[98] = compute_kernel(x,   0.083538083538  , 0.085995085995  , 0.001294953997  , 0.268083627032  , 0.084766584767  , 0.057788944724  , 0.060301507538  , 0.001297481858  , 0.185963598693  , 0.058793969849  , 0.007692307692  , 0.010256410256  , 0.001081120568  , 0.026148818018  , 0.008205128205  , 0.103092783505  , 0.105670103093  , 0.000815020016  , 0.3268321722  , 0.103350515464  , 0.005656770569  , 0.005656770569  , 0.0  , 0.0178882792  , 0.005656770569  , 0.018772932844  , 0.018772932844  , 0.0  , 0.059365226149  , 0.018772932844  , 0.041218637993  , 0.043010752688  , 0.000755621902  , 0.134897557466  , 0.042652329749 );
                        kernels[99] = compute_kernel(x,   0.090909090909  , 0.093366093366  , 0.001294953997  , 0.291390547207  , 0.092137592138  , 0.05527638191  , 0.05527638191  , 0.0  , 0.174799267647  , 0.05527638191  , 0.082051282051  , 0.084615384615  , 0.001081120568  , 0.265975435485  , 0.084102564103  , 0.072164948454  , 0.077319587629  , 0.002104372631  , 0.23644010188  , 0.074742268041  , 0.001950610541  , 0.002067647174  , 3.7010233e-05  , 0.006502412244  , 0.00205594351  , 0.00494922775  , 0.005631879853  , 0.00021587355  , 0.017605609659  , 0.005563614643  , 0.491039426523  , 0.492831541219  , 0.000865673641  , 1.55677218993  , 0.49229390681 );
                        kernels[100] = compute_kernel(x,   0.113022113022  , 0.115479115479  , 0.000776972398  , 0.36440750958  , 0.115233415233  , 0.090452261307  , 0.092964824121  , 0.001297481858  , 0.29082846739  , 0.091959798995  , 0.025641025641  , 0.025641025641  , 0.0  , 0.081084042568  , 0.025641025641  , 0.103092783505  , 0.105670103093  , 0.001244963638  , 0.328474300576  , 0.103865979381  , 0.000858268638  , 0.001131354114  , 0.000115142947  , 0.002907391391  , 0.000912885733  , 0.0  , 0.001194641181  , 0.000503704949  , 0.00168947776  , 0.000238928236  , 0.028673835125  , 0.030465949821  , 0.000566716427  , 0.091257183201  , 0.028853046595 );
                        kernels[101] = compute_kernel(x,   0.066339066339  , 0.066339066339  , 0.0  , 0.20978254748  , 0.066339066339  , 0.040201005025  , 0.040201005025  , 0.0  , 0.127126740107  , 0.040201005025  , 0.002564102564  , 0.002564102564  , 0.0  , 0.008108404257  , 0.002564102564  , 0.092783505155  , 0.100515463918  , 0.002716733385  , 0.309814826809  , 0.09793814433  , 0.004720477509  , 0.005110599618  , 0.000188446882  , 0.015308005774  , 0.004837514142  , 0.015700998379  , 0.017066302586  , 0.000659504588  , 0.050984561413  , 0.016110589641  , 0.05376344086  , 0.055555555556  , 0.000865673641  , 0.174001324682  , 0.055017921147 );
                        kernels[102] = compute_kernel(x,   0.076167076167  , 0.078624078624  , 0.000776972398  , 0.241649657906  , 0.076412776413  , 0.045226130653  , 0.047738693467  , 0.000794542126  , 0.15018737823  , 0.047487437186  , 0.076923076923  , 0.076923076923  , 0.0  , 0.243252127705  , 0.076923076923  , 0.069587628866  , 0.077319587629  , 0.002730283262  , 0.230796054999  , 0.07293814433  , 0.003667147817  , 0.003901221082  , 9.8693954e-05  , 0.011748312082  , 0.00371396247  , 0.01194641181  , 0.012885058452  , 0.000395768174  , 0.038389888039  , 0.012134141138  , 0.498207885305  , 0.5  , 0.000566716427  , 1.580573028044  , 0.49982078853 );
                        kernels[103] = compute_kernel(x,   0.076167076167  , 0.076167076167  , 0.0  , 0.240861443403  , 0.076167076167  , 0.047738693467  , 0.050251256281  , 0.001213683145  , 0.156567141722  , 0.049497487437  , 0.002564102564  , 0.002564102564  , 0.0  , 0.008108404257  , 0.002564102564  , 0.10824742268  , 0.110824742268  , 0.001244963638  , 0.34803358752  , 0.110051546392  , 0.003940233293  , 0.00425233098  , 0.000150757505  , 0.013158744109  , 0.004158701674  , 0.013055721478  , 0.014165031146  , 0.000535847478  , 0.043770907479  , 0.013832238246  , 0.05376344086  , 0.055555555556  , 0.000566716427  , 0.175123628762  , 0.055376344086 );
                        kernels[104] = compute_kernel(x,   0.113022113022  , 0.113022113022  , 0.0  , 0.357407303115  , 0.113022113022  , 0.090452261307  , 0.092964824121  , 0.001297481858  , 0.29082846739  , 0.091959798995  , 0.025641025641  , 0.025641025641  , 0.0  , 0.081084042568  , 0.025641025641  , 0.154639175258  , 0.164948453608  , 0.003531753401  , 0.504608636124  , 0.159536082474  , 0.006241953732  , 0.018413763508  , 0.005879542705  , 0.035915650687  , 0.009893496664  , 0.020650226129  , 0.039081832921  , 0.008903311936  , 0.086989607813  , 0.026179708166  , 0.028673835125  , 0.030465949821  , 0.000944527378  , 0.093551133592  , 0.029569892473 );
                        kernels[105] = compute_kernel(x,   0.085995085995  , 0.085995085995  , 0.0  , 0.271940339327  , 0.085995085995  , 0.060301507538  , 0.060301507538  , 0.0  , 0.190690110161  , 0.060301507538  , 0.007692307692  , 0.010256410256  , 0.00132409687  , 0.027853283311  , 0.008717948718  , 0.100515463918  , 0.105670103093  , 0.002256688237  , 0.325263450209  , 0.102835051546  , 0.005149611829  , 0.005461709515  , 9.8693954e-05  , 0.017175300272  , 0.005430499746  , 0.017236965611  , 0.018260943767  , 0.000323810324  , 0.057430580606  , 0.018158545951  , 0.043010752688  , 0.043010752688  , 0.0  , 0.136011942373  , 0.043010752688 );
                        kernels[106] = compute_kernel(x,   0.085995085995  , 0.088452088452  , 0.000776972398  , 0.278942829948  , 0.088206388206  , 0.060301507538  , 0.060301507538  , 0.0  , 0.190690110161  , 0.060301507538  , 0.007692307692  , 0.010256410256  , 0.00132409687  , 0.029459295623  , 0.009230769231  , 0.095360824742  , 0.100515463918  , 0.001718213058  , 0.309750498713  , 0.09793814433  , 0.005461709515  , 0.005734794991  , 8.635721e-05  , 0.018050516145  , 0.005707486443  , 0.018260943767  , 0.019114258896  , 0.000269841937  , 0.060180196954  , 0.019028927383  , 0.041218637993  , 0.043010752688  , 0.000865673641  , 0.132070463641  , 0.041756272401 );
                        kernels[107] = compute_kernel(x,   0.090909090909  , 0.090909090909  , 0.0  , 0.287479787288  , 0.090909090909  , 0.05527638191  , 0.05527638191  , 0.0  , 0.174799267647  , 0.05527638191  , 0.082051282051  , 0.082051282051  , 0.0  , 0.259468936219  , 0.082051282051  , 0.067010309278  , 0.072164948454  , 0.001630040031  , 0.221739372807  , 0.070103092784  , 0.001833573909  , 0.001950610541  , 3.7010233e-05  , 0.006132367131  , 0.001938906878  , 0.004607901698  , 0.00494922775  , 0.000107936775  , 0.015546268232  , 0.004915095145  , 0.491039426523  , 0.492831541219  , 0.000925444049  , 1.556205783861  , 0.492114695341 );
                        kernels[108] = compute_kernel(x,   0.063882063882  , 0.066339066339  , 0.001186844942  , 0.207482183131  , 0.065601965602  , 0.040201005025  , 0.040201005025  , 0.0  , 0.127126740107  , 0.040201005025  , 0.0  , 0.002564102564  , 0.000810840426  , 0.007692307692  , 0.002307692308  , 0.100515463918  , 0.100515463918  , 0.0  , 0.317857806048  , 0.100515463918  , 0.004720477509  , 0.00522763625  , 0.000244980946  , 0.016066922204  , 0.005075488628  , 0.015700998379  , 0.017407628637  , 0.000824380735  , 0.053485912105  , 0.01689563956  , 0.05376344086  , 0.055555555556  , 0.000566716427  , 0.175123628762  , 0.055376344086 );
                        kernels[109] = compute_kernel(x,   0.078624078624  , 0.078624078624  , 0.0  , 0.248631167384  , 0.078624078624  , 0.052763819095  , 0.05527638191  , 0.001324236876  , 0.170872745085  , 0.054020100503  , 0.007692307692  , 0.007692307692  , 0.0  , 0.024325212771  , 0.007692307692  , 0.092783505155  , 0.092783505155  , 0.0  , 0.293407205583  , 0.092783505155  , 0.004876526353  , 0.00522763625  , 0.000148040931  , 0.016315221869  , 0.005157414271  , 0.016383650482  , 0.01749296015  , 0.000467726024  , 0.054634030098  , 0.017271098217  , 0.041218637993  , 0.044802867384  , 0.001322338329  , 0.135503307855  , 0.042831541219 );
                        kernels[110] = compute_kernel(x,   0.090909090909  , 0.093366093366  , 0.000776972398  , 0.294481763992  , 0.09312039312  , 0.057788944724  , 0.057788944724  , 0.0  , 0.182744688904  , 0.057788944724  , 0.084615384615  , 0.087179487179  , 0.00132409687  , 0.270849832603  , 0.085641025641  , 0.082474226804  , 0.090206185567  , 0.002661844224  , 0.270704453722  , 0.085567010309  , 0.002613818125  , 0.002730854758  , 5.6534064e-05  , 0.00852637728  , 0.002695743768  , 0.007935830702  , 0.008362488267  , 0.000206095184  , 0.02604708615  , 0.008234490998  , 0.5  , 0.5  , 0.0  , 1.581138830084  , 0.5 );
                        kernels[111] = compute_kernel(x,   0.093366093366  , 0.095823095823  , 0.001268790613  , 0.299935499267  , 0.09484029484  , 0.062814070352  , 0.065326633166  , 0.000794542126  , 0.199444317814  , 0.063065326633  , 0.0  , 0.0  , 0.0  , 0.0  , 0.0  , 0.103092783505  , 0.10824742268  , 0.001802077059  , 0.330942286995  , 0.104639175258  , 0.003862208871  , 0.004174306558  , 0.000131591939  , 0.013008919888  , 0.004111887021  , 0.012714395426  , 0.013823705094  , 0.000467726024  , 0.04303568615  , 0.013601843161  , 0.05376344086  , 0.057347670251  , 0.001209585229  , 0.177419354839  , 0.056093189964 );
                        kernels[112] = compute_kernel(x,   0.090909090909  , 0.090909090909  , 0.0  , 0.287479787288  , 0.090909090909  , 0.062814070352  , 0.062814070352  , 0.0  , 0.198635531418  , 0.062814070352  , 0.007692307692  , 0.010256410256  , 0.00132409687  , 0.029459295623  , 0.009230769231  , 0.092783505155  , 0.09793814433  , 0.001630040031  , 0.303226879657  , 0.09587628866  , 0.007256271213  , 0.007256271213  , 0.0  , 0.022946344353  , 0.007256271213  , 0.023551497568  , 0.023551497568  , 0.0  , 0.074476374623  , 0.023551497568  , 0.041218637993  , 0.043010752688  , 0.000566716427  , 0.135455895919  , 0.042831541219 );
                        kernels[113] = compute_kernel(x,   0.083538083538  , 0.085995085995  , 0.000776972398  , 0.271173385012  , 0.085749385749  , 0.052763819095  , 0.052763819095  , 0.0  , 0.166853846391  , 0.052763819095  , 0.082051282051  , 0.082051282051  , 0.0  , 0.259468936219  , 0.082051282051  , 0.072164948454  , 0.082474226804  , 0.003803426739  , 0.24314384361  , 0.076804123711  , 0.002769866968  , 0.003706160028  , 0.000296081863  , 0.00909863118  , 0.002863496274  , 0.008533151293  , 0.012202406349  , 0.001160320329  , 0.028358962597  , 0.008900076798  , 0.498207885305  , 0.498207885305  , 0.0  , 1.575471665819  , 0.498207885305 );
                        kernels[114] = compute_kernel(x,   0.061425061425  , 0.063882063882  , 0.000776972398  , 0.195034001204  , 0.061670761671  , 0.037688442211  , 0.037688442211  , 0.0  , 0.119181318851  , 0.037688442211  , 0.076923076923  , 0.076923076923  , 0.0  , 0.243252127705  , 0.076923076923  , 0.038659793814  , 0.04381443299  , 0.001630040031  , 0.132123769257  , 0.04175257732  , 0.001014317481  , 0.001638512855  , 0.000197387908  , 0.00345605034  , 0.001076737019  , 0.000682652103  , 0.00349859203  , 0.000890478392  , 0.004053920478  , 0.000964246096  , 0.505376344086  , 0.507168458781  , 0.000566716427  , 1.598707943321  , 0.505555555556 );
                        kernels[115] = compute_kernel(x,   0.127764127764  , 0.130221130221  , 0.001294953997  , 0.407929007913  , 0.128992628993  , 0.100502512563  , 0.103015075377  , 0.001213683145  , 0.320221177446  , 0.101256281407  , 0.025641025641  , 0.025641025641  , 0.0  , 0.081084042568  , 0.025641025641  , 0.126288659794  , 0.128865979381  , 0.001244963638  , 0.405082166074  , 0.128092783505  , 0.000897280849  , 0.000975305271  , 2.4673489e-05  , 0.003060407858  , 0.000967502828  , 8.5331513e-05  , 0.000511989078  , 0.000134920969  , 0.001538335726  , 0.000469323321  , 0.025089605735  , 0.028673835125  , 0.001133432853  , 0.08620798187  , 0.027240143369 );
                        kernels[116] = compute_kernel(x,   0.076167076167  , 0.078624078624  , 0.000776972398  , 0.241649657906  , 0.076412776413  , 0.047738693467  , 0.050251256281  , 0.000794542126  , 0.158131849021  , 0.05  , 0.0  , 0.002564102564  , 0.000810840426  , 0.007692307692  , 0.002307692308  , 0.103092783505  , 0.10824742268  , 0.00190171337  , 0.335021806769  , 0.105927835052  , 0.004213318769  , 0.00425233098  , 2.0145819e-05  , 0.013373167363  , 0.004228923653  , 0.01399436812  , 0.014165031146  , 8.8130008e-05  , 0.044470737165  , 0.01406263333  , 0.05376344086  , 0.055555555556  , 0.000865673641  , 0.171734714811  , 0.054301075269 );
                        kernels[117] = compute_kernel(x,   0.076167076167  , 0.078624078624  , 0.001186844942  , 0.24321842377  , 0.076904176904  , 0.045226130653  , 0.047738693467  , 0.000794542126  , 0.15018737823  , 0.047487437186  , 0.082051282051  , 0.082051282051  , 0.0  , 0.259468936219  , 0.082051282051  , 0.067010309278  , 0.072164948454  , 0.001822440158  , 0.21604949284  , 0.068298969072  , 0.001170366325  , 0.001326415168  , 7.5378753e-05  , 0.003855701354  , 0.001217180978  , 0.00145063572  , 0.002133287823  , 0.000329752294  , 0.005327584701  , 0.001655431351  , 0.503584229391  , 0.505376344086  , 0.000566716427  , 1.593040782272  , 0.50376344086 );
                        kernels[118] = compute_kernel(x,   0.083538083538  , 0.083538083538  , 0.0  , 0.264170615346  , 0.083538083538  , 0.057788944724  , 0.057788944724  , 0.0  , 0.182744688904  , 0.057788944724  , 0.007692307692  , 0.010256410256  , 0.001081120568  , 0.026148818018  , 0.008205128205  , 0.105670103093  , 0.10824742268  , 0.001330922112  , 0.337441909362  , 0.106701030928  , 0.004915538564  , 0.004915538564  , 0.0  , 0.015544297787  , 0.004915538564  , 0.016468981995  , 0.016468981995  , 0.0  , 0.052079493849  , 0.016468981995  , 0.041218637993  , 0.043010752688  , 0.000755621902  , 0.134897557466  , 0.042652329749 );
                        kernels[119] = compute_kernel(x,   0.051597051597  , 0.054054054054  , 0.000776972398  , 0.163957745658  , 0.051842751843  , 0.030150753769  , 0.032663316583  , 0.001297481858  , 0.100187949937  , 0.031658291457  , 0.071794871795  , 0.071794871795  , 0.0  , 0.227035319192  , 0.071794871795  , 0.033505154639  , 0.036082474227  , 0.001086693354  , 0.112519999757  , 0.035567010309  , 0.000858268638  , 0.001053329692  , 0.000100729095  , 0.002976199606  , 0.00093629306  , 0.0  , 0.000767983616  , 0.000396585034  , 0.001535967233  , 0.000307193447  , 0.507168458781  , 0.508960573477  , 0.000944527378  , 1.606643568027  , 0.508064516129 );
                        kernels[120] = compute_kernel(x,   0.078624078624  , 0.078624078624  , 0.0  , 0.248631167384  , 0.078624078624  , 0.047738693467  , 0.047738693467  , 0.0  , 0.150963003877  , 0.047738693467  , 0.079487179487  , 0.079487179487  , 0.0  , 0.251360531962  , 0.079487179487  , 0.077319587629  , 0.087628865979  , 0.003842041198  , 0.261060974476  , 0.082474226804  , 0.003628135606  , 0.003901221082  , 0.000115142947  , 0.012168933536  , 0.003846603987  , 0.01194641181  , 0.012885058452  , 0.000395768174  , 0.040170030629  , 0.012697329124  , 0.498207885305  , 0.5  , 0.000944527378  , 1.57830779156  , 0.499103942652 );
                        kernels[121] = compute_kernel(x,   0.056511056511  , 0.058968058968  , 0.000776972398  , 0.179495759143  , 0.056756756757  , 0.035175879397  , 0.035175879397  , 0.0  , 0.111235897594  , 0.035175879397  , 0.074358974359  , 0.074358974359  , 0.0  , 0.235143723448  , 0.074358974359  , 0.036082474227  , 0.036082474227  , 0.0  , 0.114102802171  , 0.036082474227  , 0.000897280849  , 0.001092341903  , 6.1683721e-05  , 0.00290503479  , 0.000916786954  , 8.5331513e-05  , 0.001023978155  , 0.000296826131  , 0.001055492523  , 0.000179196177  , 0.507168458781  , 0.507168458781  , 0.0  , 1.603807487146  , 0.507168458781 );
                        kernels[122] = compute_kernel(x,   0.04914004914  , 0.051597051597  , 0.000776972398  , 0.156188845949  , 0.049385749386  , 0.030150753769  , 0.030150753769  , 0.0  , 0.09534505508  , 0.030150753769  , 0.025641025641  , 0.028205128205  , 0.00132409687  , 0.084420910939  , 0.026666666667  , 0.051546391753  , 0.051546391753  , 0.0  , 0.163004003101  , 0.051546391753  , 0.001599500644  , 0.001872586119  , 0.000131912817  , 0.005676377221  , 0.001790660477  , 0.003413260517  , 0.004693233211  , 0.000618285551  , 0.01375267639  , 0.004309241403  , 0.028673835125  , 0.028673835125  , 0.0  , 0.090674628249  , 0.028673835125 );
                        kernels[123] = compute_kernel(x,   0.199017199017  , 0.203931203931  , 0.001158242066  , 0.637126841625  , 0.201474201474  , 0.168341708543  , 0.170854271357  , 0.001059389501  , 0.533941767202  , 0.168844221106  , 0.076923076923  , 0.079487179487  , 0.00132409687  , 0.246527494189  , 0.077948717949  , 0.059278350515  , 0.059278350515  , 0.0  , 0.187454603567  , 0.059278350515  , 0.017282409394  , 0.020637459525  , 0.001620643182  , 0.062268597004  , 0.019630944486  , 0.038313849305  , 0.040532468641  , 0.001071694955  , 0.126111142427  , 0.03986688284  , 0.037634408602  , 0.039426523297  , 0.000865673641  , 0.123004883268  , 0.038888888889 );
                        kernels[124] = compute_kernel(x,   0.361179361179  , 0.36855036855  , 0.002883999486  , 1.154613400507  , 0.365110565111  , 0.29648241206  , 0.304020100503  , 0.002913321127  , 0.947929048278  , 0.299748743719  , 0.135897435897  , 0.138461538462  , 0.00132409687  , 0.433007008065  , 0.136923076923  , 0.090206185567  , 0.092783505155  , 0.001244963638  , 0.287726307258  , 0.090979381443  , 0.002613818125  , 0.002730854758  , 5.6534064e-05  , 0.008378366157  , 0.002648929115  , 0.007850499189  , 0.008362488267  , 0.00024731422  , 0.025322045587  , 0.008004095913  , 0.037634408602  , 0.039426523297  , 0.000865673641  , 0.120738532349  , 0.038172043011 );
                        kernels[125] = compute_kernel(x,   0.036855036855  , 0.039312039312  , 0.000776972398  , 0.123560599122  , 0.039066339066  , 0.025125628141  , 0.025125628141  , 0.0  , 0.079454212567  , 0.025125628141  , 0.015384615385  , 0.017948717949  , 0.00132409687  , 0.05204559777  , 0.01641025641  , 0.092783505155  , 0.09793814433  , 0.002256688237  , 0.302448206528  , 0.095618556701  , 0.002223696017  , 0.002925915812  , 0.000370102328  , 0.008217605281  , 0.002574805914  , 0.006143868931  , 0.00904514037  , 0.00152910431  , 0.024450121652  , 0.007594504651  , 0.025089605735  , 0.030465949821  , 0.001511243804  , 0.088523935736  , 0.027956989247 );
                        kernels[126] = compute_kernel(x,   0.041769041769  , 0.044226044226  , 0.000776972398  , 0.13909759071  , 0.04398034398  , 0.022613065327  , 0.025125628141  , 0.000794542126  , 0.078695777705  , 0.024874371859  , 0.012820512821  , 0.017948717949  , 0.002022591379  , 0.050636968354  , 0.015897435897  , 0.059278350515  , 0.059278350515  , 0.0  , 0.187454603567  , 0.059278350515  , 0.001131354114  , 0.001482464011  , 0.000181312371  , 0.004058395122  , 0.001271798073  , 0.001109309668  , 0.002986602952  , 0.000969430084  , 0.006562209721  , 0.001860226982  , 0.030465949821  , 0.034050179211  , 0.001209585229  , 0.100374422688  , 0.031720430108 );
                        kernels[127] = compute_kernel(x,   0.039312039312  , 0.041769041769  , 0.000776972398  , 0.125114270825  , 0.039557739558  , 0.025125628141  , 0.025125628141  , 0.0  , 0.079454212567  , 0.025125628141  , 0.015384615385  , 0.015384615385  , 0.0  , 0.048650425541  , 0.015384615385  , 0.085051546392  , 0.087628865979  , 0.001358366693  , 0.273062114696  , 0.086340206186  , 0.001989622752  , 0.002106659384  , 6.1683721e-05  , 0.006479433793  , 0.002048141068  , 0.005119890776  , 0.005802542879  , 0.000359789249  , 0.017303581337  , 0.005461216827  , 0.02688172043  , 0.030465949821  , 0.000844810969  , 0.09071004111  , 0.028673835125 );
                        kernels[128] = compute_kernel(x,   0.181818181818  , 0.184275184275  , 0.001294953997  , 0.578857472869  , 0.183046683047  , 0.14824120603  , 0.150753768844  , 0.001324236876  , 0.472769256541  , 0.149497487437  , 0.069230769231  , 0.071794871795  , 0.000810840426  , 0.219751219088  , 0.069487179487  , 0.061855670103  , 0.064432989691  , 0.000815020016  , 0.196435041364  , 0.062113402062  , 0.130183747513  , 0.130183747513  , 0.0  , 0.411677156477  , 0.130183747513  , 0.089598088574  , 0.089598088574  , 0.0  , 0.283334033892  , 0.089598088574  , 0.039426523297  , 0.041218637993  , 0.000755621902  , 0.125831467251  , 0.039784946237 );
                        kernels[129] = compute_kernel(x,   0.039312039312  , 0.041769041769  , 0.001035963197  , 0.13056835632  , 0.041277641278  , 0.027638190955  , 0.027638190955  , 0.0  , 0.087399633824  , 0.027638190955  , 0.015384615385  , 0.015384615385  , 0.0  , 0.048650425541  , 0.015384615385  , 0.167525773196  , 0.177835051546  , 0.003851634325  , 0.543741139342  , 0.171907216495  , 0.003277025709  , 0.003550111185  , 0.000115142947  , 0.01105911888  , 0.00349549409  , 0.010581107603  , 0.011519754245  , 0.000395768174  , 0.035854673045  , 0.011332024917  , 0.028673835125  , 0.030465949821  , 0.000755621902  , 0.095235342334  , 0.030107526882 );
                        kernels[130] = compute_kernel(x,   0.346437346437  , 0.353808353808  , 0.002883999486  , 1.10799642055  , 0.350368550369  , 0.336683417085  , 0.344221105528  , 0.002594963716  , 1.074249162132  , 0.339698492462  , 0.138461538462  , 0.14358974359  , 0.001792835638  , 0.449237794114  , 0.142051282051  , 0.103092783505  , 0.10824742268  , 0.002033017108  , 0.33258409437  , 0.105154639175  , 0.005812819412  , 0.005968868256  , 6.5795969e-05  , 0.018481497036  , 0.005844029181  , 0.019284921922  , 0.019796910999  , 0.00021587355  , 0.061311508532  , 0.019387319737  , 0.037634408602  , 0.039426523297  , 0.000925444049  , 0.122442228334  , 0.038709677419 );
                        kernels[131] = compute_kernel(x,   0.039312039312  , 0.041769041769  , 0.001035963197  , 0.13056835632  , 0.041277641278  , 0.025125628141  , 0.027638190955  , 0.001297481858  , 0.084311365505  , 0.026633165829  , 0.015384615385  , 0.017948717949  , 0.001351400709  , 0.052860328534  , 0.016666666667  , 0.172680412371  , 0.193298969072  , 0.007000532229  , 0.575787270592  , 0.181958762887  , 0.002886903601  , 0.003550111185  , 0.00027963287  , 0.009585420077  , 0.003019545118  , 0.00904514037  , 0.011605085758  , 0.001079367748  , 0.030395271762  , 0.009557129448  , 0.028673835125  , 0.030465949821  , 0.000944527378  , 0.093551133592  , 0.029569892473 );
                        kernels[132] = compute_kernel(x,   0.041769041769  , 0.041769041769  , 0.0  , 0.132085307673  , 0.041769041769  , 0.027638190955  , 0.027638190955  , 0.0  , 0.087399633824  , 0.027638190955  , 0.015384615385  , 0.017948717949  , 0.00132409687  , 0.05204559777  , 0.01641025641  , 0.185567010309  , 0.190721649485  , 0.001739558138  , 0.597432464807  , 0.188917525773  , 0.003979245504  , 0.003979245504  , 0.0  , 0.012583479161  , 0.003979245504  , 0.013226384504  , 0.013226384504  , 0.0  , 0.041825500241  , 0.013226384504  , 0.028673835125  , 0.032258064516  , 0.001133432853  , 0.097534514869  , 0.03082437276 );
                        kernels[133] = compute_kernel(x,   0.039312039312  , 0.041769041769  , 0.000776972398  , 0.131329022259  , 0.041523341523  , 0.027638190955  , 0.027638190955  , 0.0  , 0.087399633824  , 0.027638190955  , 0.015384615385  , 0.015384615385  , 0.0  , 0.048650425541  , 0.015384615385  , 0.177835051546  , 0.180412371134  , 0.000815020016  , 0.563184138346  , 0.178092783505  , 0.003277025709  , 0.003277025709  , 0.0  , 0.010362865192  , 0.003277025709  , 0.010581107603  , 0.010581107603  , 0.0  , 0.033460400193  , 0.010581107603  , 0.030465949821  , 0.032258064516  , 0.000755621902  , 0.097501580708  , 0.03082437276 );
                        kernels[134] = compute_kernel(x,   0.044226044226  , 0.044226044226  , 0.0  , 0.139855031654  , 0.044226044226  , 0.027638190955  , 0.027638190955  , 0.0  , 0.087399633824  , 0.027638190955  , 0.017948717949  , 0.020512820513  , 0.000810840426  , 0.064102564103  , 0.020256410256  , 0.059278350515  , 0.061855670103  , 0.001330922112  , 0.192386160892  , 0.060824742268  , 0.001170366325  , 0.001677525065  , 0.000244980946  , 0.004879334423  , 0.001525377443  , 0.00145063572  , 0.003669255056  , 0.001071694955  , 0.01002781435  , 0.003003669255  , 0.028673835125  , 0.028673835125  , 0.0  , 0.090674628249  , 0.028673835125 );
                        kernels[135] = compute_kernel(x,   0.051597051597  , 0.051597051597  , 0.0  , 0.163164203596  , 0.051597051597  , 0.030150753769  , 0.030150753769  , 0.0  , 0.09534505508  , 0.030150753769  , 0.030769230769  , 0.033333333333  , 0.001351400709  , 0.101436104845  , 0.032051282051  , 0.05412371134  , 0.05412371134  , 0.0  , 0.171154203257  , 0.05412371134  , 0.001560488433  , 0.00191159833  , 0.000148040931  , 0.005839855624  , 0.001841376351  , 0.003327929004  , 0.004863896237  , 0.000647620649  , 0.014539948959  , 0.00455670279  , 0.028673835125  , 0.028673835125  , 0.0  , 0.090674628249  , 0.028673835125 );
                        kernels[136] = compute_kernel(x,   0.046683046683  , 0.046683046683  , 0.0  , 0.147624755634  , 0.046683046683  , 0.027638190955  , 0.027638190955  , 0.0  , 0.087399633824  , 0.027638190955  , 0.020512820513  , 0.020512820513  , 0.0  , 0.064867234055  , 0.020512820513  , 0.051546391753  , 0.05412371134  , 0.000815020016  , 0.163837268818  , 0.051804123711  , 0.001560488433  , 0.001833573909  , 0.000143928683  , 0.00538382644  , 0.001697031171  , 0.003242597491  , 0.004522570185  , 0.000674604843  , 0.012443488171  , 0.003882583838  , 0.025089605735  , 0.028673835125  , 0.001646839755  , 0.086282459622  , 0.027240143369 );
                        kernels[137] = compute_kernel(x,   0.04914004914  , 0.051597051597  , 0.001186844942  , 0.157765579918  , 0.049877149877  , 0.030150753769  , 0.030150753769  , 0.0  , 0.09534505508  , 0.030150753769  , 0.028205128205  , 0.030769230769  , 0.00132409687  , 0.092521120783  , 0.029230769231  , 0.051546391753  , 0.05412371134  , 0.001244963638  , 0.165491213986  , 0.052319587629  , 0.001599500644  , 0.00191159833  , 0.000150757505  , 0.005373215117  , 0.00169312995  , 0.003413260517  , 0.004863896237  , 0.000700723625  , 0.012350096814  , 0.003848451233  , 0.02688172043  , 0.028673835125  , 0.000944527378  , 0.08788673717  , 0.027777777778 );
                        kernels[138] = compute_kernel(x,   0.036855036855  , 0.039312039312  , 0.001035963197  , 0.118140690714  , 0.037346437346  , 0.025125628141  , 0.025125628141  , 0.0  , 0.079454212567  , 0.025125628141  , 0.017948717949  , 0.020512820513  , 0.000810840426  , 0.057621038601  , 0.018205128205  , 0.079896907216  , 0.082474226804  , 0.001086693354  , 0.259196867769  , 0.081958762887  , 0.001794561698  , 0.002145671595  , 0.000181312371  , 0.006143153628  , 0.001935005657  , 0.004266575646  , 0.005887874392  , 0.000837235072  , 0.015744531301  , 0.004915095145  , 0.025089605735  , 0.028673835125  , 0.001209585229  , 0.083386309134  , 0.026344086022 );
                        kernels[139] = compute_kernel(x,   0.412776412776  , 0.415233415233  , 0.000776972398  , 1.306092681102  , 0.413022113022  , 0.384422110553  , 0.389447236181  , 0.001695850648  , 1.225989055997  , 0.387688442211  , 0.315384615385  , 0.320512820513  , 0.001792835638  , 1.008699829071  , 0.318974358974  , 0.172680412371  , 0.175257731959  , 0.001086693354  , 0.552593187186  , 0.174742268041  , 0.004798501931  , 0.004876526353  , 3.2897985e-05  , 0.015223862348  , 0.004814106815  , 0.01604232443  , 0.016383650482  , 0.0001439157  , 0.050947987117  , 0.016110589641  , 0.05376344086  , 0.055555555556  , 0.000566716427  , 0.175123628762  , 0.055376344086 );
                        kernels[140] = compute_kernel(x,   0.036855036855  , 0.039312039312  , 0.000776972398  , 0.117345984632  , 0.037100737101  , 0.025125628141  , 0.025125628141  , 0.0  , 0.079454212567  , 0.025125628141  , 0.017948717949  , 0.020512820513  , 0.001238579209  , 0.062545184193  , 0.019743589744  , 0.074742268041  , 0.074742268041  , 0.0  , 0.236355804497  , 0.074742268041  , 0.00191159833  , 0.00191159833  , 0.0  , 0.006045004695  , 0.00191159833  , 0.004863896237  , 0.004863896237  , 0.0  , 0.015380990411  , 0.004863896237  , 0.02688172043  , 0.028673835125  , 0.000925444049  , 0.088451345371  , 0.027956989247 );
                        kernels[141] = compute_kernel(x,   0.036855036855  , 0.036855036855  , 0.0  , 0.116545859711  , 0.036855036855  , 0.025125628141  , 0.025125628141  , 0.0  , 0.079454212567  , 0.025125628141  , 0.015384615385  , 0.017948717949  , 0.001238579209  , 0.054453232261  , 0.017179487179  , 0.074742268041  , 0.074742268041  , 0.0  , 0.236355804497  , 0.074742268041  , 0.001482464011  , 0.00191159833  , 0.00020729157  , 0.005132886258  , 0.001611204307  , 0.00290127144  , 0.004863896237  , 0.000948037845  , 0.011397108913  , 0.003490058879  , 0.028673835125  , 0.030465949821  , 0.000865673641  , 0.094677268401  , 0.029928315412 );
                        kernels[142] = compute_kernel(x,   0.036855036855  , 0.036855036855  , 0.0  , 0.116545859711  , 0.036855036855  , 0.025125628141  , 0.025125628141  , 0.0  , 0.079454212567  , 0.025125628141  , 0.017948717949  , 0.017948717949  , 0.0  , 0.056758829798  , 0.017948717949  , 0.077319587629  , 0.079896907216  , 0.000815020016  , 0.251853053736  , 0.079639175258  , 0.002028634963  , 0.002145671595  , 6.0437457e-05  , 0.00663964448  , 0.002098856942  , 0.005290553802  , 0.005887874392  , 0.000308455027  , 0.017887488008  , 0.005648946156  , 0.02688172043  , 0.028673835125  , 0.000944527378  , 0.08788673717  , 0.027777777778 );
                        kernels[143] = compute_kernel(x,   0.036855036855  , 0.039312039312  , 0.001035963197  , 0.122800972969  , 0.038820638821  , 0.025125628141  , 0.025125628141  , 0.0  , 0.079454212567  , 0.025125628141  , 0.012820512821  , 0.015384615385  , 0.00132409687  , 0.045580484191  , 0.014358974359  , 0.100515463918  , 0.110824742268  , 0.003803426739  , 0.332723873348  , 0.105154639175  , 0.002925915812  , 0.003277025709  , 0.000181312371  , 0.009711925144  , 0.003066359771  , 0.00904514037  , 0.010581107603  , 0.000793170068  , 0.030638647789  , 0.009659527263  , 0.028673835125  , 0.030465949821  , 0.000865673641  , 0.09241127659  , 0.029211469534 );
                        kernels[144] = compute_kernel(x,   0.044226044226  , 0.046683046683  , 0.000776972398  , 0.140651319719  , 0.044471744472  , 0.025125628141  , 0.027638190955  , 0.000794542126  , 0.08028414728  , 0.025376884422  , 0.017948717949  , 0.023076923077  , 0.001621680851  , 0.066666666667  , 0.021025641026  , 0.059278350515  , 0.059278350515  , 0.0  , 0.187454603567  , 0.059278350515  , 0.001482464011  , 0.001677525065  , 0.000100729095  , 0.00494394161  , 0.001560488433  , 0.002986602952  , 0.003669255056  , 0.00035252003  , 0.010362070924  , 0.003259663794  , 0.030465949821  , 0.032258064516  , 0.000865673641  , 0.100342420639  , 0.031720430108 );
                        kernels[145] = compute_kernel(x,   0.250614250614  , 0.253071253071  , 0.000776972398  , 0.799507995451  , 0.252825552826  , 0.231155778894  , 0.233668341709  , 0.001059389501  , 0.737341942091  , 0.233165829146  , 0.197435897436  , 0.2  , 0.001238579209  , 0.630033967964  , 0.199230769231  , 0.09793814433  , 0.100515463918  , 0.001358366693  , 0.313809166543  , 0.099226804124  , 0.006866149105  , 0.007529356689  , 0.000209724653  , 0.021931421383  , 0.006932469863  , 0.0224421879  , 0.024404812697  , 0.000620636455  , 0.071613274345  , 0.02263845038  , 0.046594982079  , 0.048387096774  , 0.000566716427  , 0.147922757981  , 0.046774193548 );
                        kernels[146] = compute_kernel(x,   0.044226044226  , 0.046683046683  , 0.001035963197  , 0.146103869753  , 0.046191646192  , 0.027638190955  , 0.027638190955  , 0.0  , 0.087399633824  , 0.027638190955  , 0.017948717949  , 0.020512820513  , 0.00132409687  , 0.061751767071  , 0.019487179487  , 0.051546391753  , 0.05412371134  , 0.000815020016  , 0.170356730615  , 0.053865979381  , 0.001560488433  , 0.001755549487  , 0.000100729095  , 0.005190237076  , 0.001638512855  , 0.003242597491  , 0.004181244133  , 0.000484715042  , 0.011533336072  , 0.003618056148  , 0.02688172043  , 0.028673835125  , 0.000566716427  , 0.090123949539  , 0.028494623656 );
                        kernels[147] = compute_kernel(x,   0.044226044226  , 0.044226044226  , 0.0  , 0.139855031654  , 0.044226044226  , 0.025125628141  , 0.025125628141  , 0.0  , 0.079454212567  , 0.025125628141  , 0.007692307692  , 0.010256410256  , 0.001238579209  , 0.027014496802  , 0.008461538462  , 0.046391752577  , 0.048969072165  , 0.001244963638  , 0.152454499187  , 0.048195876289  , 0.000819256427  , 0.000897280849  , 4.0291638e-05  , 0.002741423336  , 0.00086607108  , 0.0  , 0.0  , 0.0  , 0.0  , 0.0  , 0.032258064516  , 0.034050179211  , 0.000865673641  , 0.10374161748  , 0.032795698925 );
                        kernels[148] = compute_kernel(x,   0.189189189189  , 0.194103194103  , 0.001158242066  , 0.606048431602  , 0.191646191646  , 0.158291457286  , 0.160804020101  , 0.001297481858  , 0.503754746103  , 0.159296482412  , 0.071794871795  , 0.074358974359  , 0.001238579209  , 0.229497922682  , 0.072564102564  , 0.056701030928  , 0.059278350515  , 0.001244963638  , 0.18178783479  , 0.057474226804  , 0.026060156829  , 0.083603167792  , 0.024262263742  , 0.139327073899  , 0.037568759022  , 0.043945729158  , 0.072019796911  , 0.011837066305  , 0.160696979386  , 0.049560542708  , 0.037634408602  , 0.039426523297  , 0.000944527378  , 0.121876975885  , 0.03853046595 );
                        kernels[149] = compute_kernel(x,   0.773955773956  , 0.786240786241  , 0.004341476914  , 2.468475669361  , 0.78058968059  , 0.766331658291  , 0.776381909548  , 0.003641049434  , 2.438474248933  , 0.771105527638  , 0.517948717949  , 0.535897435897  , 0.005927706285  , 1.664750377641  , 0.52641025641  , 0.582474226804  , 0.603092783505  , 0.007315028508  , 1.870599665258  , 0.591494845361  , 0.677486053135  , 0.785237779425  , 0.045432116919  , 2.21474503228  , 0.699036398393  , 0.58409420599  , 0.715846061951  , 0.055551460105  , 1.937575676094  , 0.610444577182  , 0.041218637993  , 0.043010752688  , 0.000755621902  , 0.131497751454  , 0.041577060932 );
                        kernels[150] = compute_kernel(x,   0.036855036855  , 0.036855036855  , 0.0  , 0.116545859711  , 0.036855036855  , 0.025125628141  , 0.025125628141  , 0.0  , 0.079454212567  , 0.025125628141  , 0.020512820513  , 0.023076923077  , 0.000810840426  , 0.072205783797  , 0.022820512821  , 0.077319587629  , 0.079896907216  , 0.001244963638  , 0.250239018486  , 0.07912371134  , 0.002106659384  , 0.002106659384  , 0.0  , 0.006661841909  , 0.002106659384  , 0.005717211366  , 0.005717211366  , 0.0  , 0.018079409782  , 0.005717211366  , 0.02688172043  , 0.030465949821  , 0.001413639136  , 0.091905959892  , 0.029032258065 );
                        kernels[151] = compute_kernel(x,   0.039312039312  , 0.041769041769  , 0.001035963197  , 0.125907891649  , 0.039803439803  , 0.027638190955  , 0.027638190955  , 0.0  , 0.087399633824  , 0.027638190955  , 0.015384615385  , 0.015384615385  , 0.0  , 0.048650425541  , 0.015384615385  , 0.146907216495  , 0.15206185567  , 0.001802077059  , 0.467852725559  , 0.14793814433  , 0.003355050131  , 0.003550111185  , 6.1683721e-05  , 0.011166287037  , 0.003530605079  , 0.010837102142  , 0.011605085758  , 0.000242857743  , 0.036462925307  , 0.011528287397  , 0.030465949821  , 0.030465949821  , 0.0  , 0.096341792514  , 0.030465949821 );
